%YAML:1.0
---
opencv_ml_svm:
   format: 3
   svmType: NU_SVR
   kernel:
      type: RBF
      gamma: 8.4299996495246887e-02
   C: 1.
   nu: 1.9210000336170197e-01
   term_criteria: { iterations:5000 }
   var_count: 17
   sv_total: 4755
   support_vectors:
      - [ -3.44065809e+00, 1.26440501e+00, 8.23591769e-01,
          -4.59052831e-01, -6.82045996e-01, -5.46816140e-02,
          9.80486691e-01, -4.30621415e-01, 4.17647004e-01,
          3.52592975e-01, -2.38499239e-01, 3.59116346e-01,
          3.07911038e-02, 7.85273910e-02, -1.77077018e-04,
          -2.35541095e-03, -9.09894472e-04 ]
      - [ -1.08419788e+00, -1.11333358e+00, 1.40275836e-01,
          -5.57722211e-01, 6.70005381e-01, -3.77706349e-01,
          2.98447222e-01, -2.01058835e-01, -2.36835450e-01,
          3.38445902e-02, -4.48277295e-02, -1.51362419e-02,
          1.23129211e-01, -1.73827610e-03, 2.40176041e-02,
          -1.04034727e-03, -1.09620541e-02 ]
      - [ -1.09514225e+00, -1.84150445e+00, -1.19990647e+00,
          -4.64369565e-01, 6.30484045e-01, -3.06185961e-01,
          -1.82502434e-01, -2.56599307e-01, -3.53387706e-02,
          3.82174790e-01, -2.14919209e-01, 4.09785844e-02,
          1.02116510e-01, -3.03462464e-02, -1.05431732e-02,
          -7.54549261e-03, -1.01089021e-02 ]
      - [ -5.75284004e-01, 1.43817663e+00, 1.58428991e+00,
          -2.44586721e-01, 9.71481800e-01, 1.45591998e+00,
          -8.23510587e-02, 4.90511209e-02, 2.61709094e-01,
          5.14977276e-02, -2.54032493e-01, -2.29932353e-01,
          1.31484866e-01, 4.13371921e-02, 3.47312130e-02,
          -3.47069744e-03, -3.34053324e-03 ]
      - [ 2.45221710e+00, 3.79985595e+00, -7.04803944e+00,
          1.48521101e+00, 1.77744672e-01, -2.49768734e-01,
          5.82058787e-01, 7.32004046e-01, -1.42815793e+00,
          1.17053354e+00, 3.41157883e-01, 6.10703193e-02, 3.72219026e-01,
          4.10094038e-02, 3.64872627e-02, -1.00816628e-02,
          -1.51884966e-02 ]
      - [ -1.49192214e+00, 1.02018321e+00, 1.47260678e+00,
          4.53614950e-01, -3.50234032e-01, 4.61151779e-01,
          -4.10300821e-01, -2.03272671e-01, -1.59167960e-01,
          6.93394840e-02, -3.67448777e-01, -1.57084748e-01,
          1.10708363e-01, 1.38398772e-02, -8.38844478e-03,
          2.25619623e-03, 1.03460869e-03 ]
      - [ -1.99908304e+00, -1.24022558e-01, 2.49546528e-01,
          -1.86689988e-01, 7.00868547e-01, -2.15119764e-01,
          3.85195553e-01, -4.11885858e-01, -9.42775533e-02,
          7.91218057e-02, -8.13321620e-02, 3.54603454e-02,
          1.09367989e-01, 2.61320919e-02, 8.66670161e-03,
          -1.13539584e-02, -7.69878831e-03 ]
      - [ -1.57549775e+00, 1.46480262e+00, -2.66572499e+00,
          1.39661407e+00, 5.55959523e-01, 6.58576667e-01, 1.35030949e+00,
          -6.31360054e-01, -2.92435408e-01, 3.95769238e-01,
          1.80092640e-02, 8.41244310e-02, 6.08211122e-02,
          -1.11691587e-01, 3.25427577e-02, 2.46955007e-02,
          1.22220814e-03 ]
      - [ -1.43298113e+00, -8.99430871e-01, -8.42729151e-01,
          6.04493797e-01, 1.32842636e+00, -4.93182689e-01,
          1.70743123e-01, 9.50780988e-01, 5.52138507e-01, 8.60672444e-02,
          1.60413757e-01, -1.36000231e-01, -1.13736592e-01,
          8.09704605e-03, -1.10519640e-01, -3.28495875e-02,
          9.85863517e-05 ]
      - [ 1.12523901e+00, -9.13931072e-01, 1.31131208e+00,
          -4.68569025e-02, 1.37437475e+00, -7.04854250e-01,
          1.03742874e+00, 1.68518233e+00, 5.39876699e-01, 1.30374447e-01,
          2.50406951e-01, -2.07912937e-01, 1.19761368e-02,
          -5.85814007e-03, -1.09152514e-02, -6.65230071e-03,
          -1.01799369e-02 ]
      - [ 1.91023993e+00, 4.24091339e+00, -4.79545879e+00,
          4.48869795e-01, -4.10651028e-01, -5.39602160e-01,
          1.86497867e-01, 3.81993413e-01, -2.60324597e-01,
          8.45807850e-01, 3.19389284e-01, -3.33465248e-01,
          3.40009302e-01, -8.21739342e-03, 5.73115190e-03,
          -1.45497024e-02, 2.18769046e-03 ]
      - [ -3.23507810e+00, -1.05960751e+00, 2.72273481e-01,
          7.75574744e-01, -2.61495084e-01, 1.60965860e-01,
          5.92318058e-01, -6.03705406e-01, 5.48888505e-01,
          4.48559642e-01, -2.46881992e-01, 2.25399882e-01,
          -1.22472525e-01, 5.71107864e-02, -3.87941338e-02,
          -4.30901796e-02, 6.56445883e-03 ]
      - [ -2.03062105e+00, 7.16263831e-01, 1.72804475e-01,
          9.01728034e-01, 1.42888653e+00, 1.08997035e+00, 9.94765997e-01,
          -4.46134180e-01, -2.32388049e-01, -3.53172943e-02,
          -3.39522749e-01, 1.44557161e-02, -4.42185177e-04,
          -3.49789821e-02, 4.27874550e-02, 1.58055611e-02,
          -8.10447522e-03 ]
      - [ 1.75100672e+00, 4.54405165e+00, -1.99041462e+00,
          9.69326615e-01, 3.67048651e-01, -1.28938389e+00,
          -9.96570766e-01, -3.19109648e-01, 5.39744139e-01,
          5.58511354e-02, -8.21878202e-03, -5.13377309e-01,
          -2.17163578e-01, -1.32832602e-01, 1.88059203e-04,
          -3.48402187e-02, -3.99627257e-03 ]
      - [ 3.16708982e-01, -7.80480564e-01, -2.08787775e+00,
          -2.27345014e+00, -1.49312520e+00, 1.22584248e+00,
          -1.07753849e+00, 4.74151015e-01, 6.50300741e-01,
          -9.41023767e-01, 7.38520622e-02, -2.48784006e-01,
          5.39273396e-02, -5.53782433e-02, -3.70594896e-02,
          2.66378908e-03, 1.20187271e-02 ]
      - [ -1.05926394e+00, -2.11669254e+00, -6.77675366e-01,
          1.80391483e-02, -4.73890334e-01, 9.14114118e-01,
          -1.62095869e+00, 4.67163712e-01, 5.88886142e-01,
          -1.83789611e-01, -5.62738851e-02, -2.25727171e-01,
          -2.48364243e-03, 1.05435669e-03, 1.66654848e-02,
          -1.06695658e-02, -1.16250667e-04 ]
      - [ -4.65958923e-01, 4.64490950e-02, 1.39605433e-01,
          8.97561789e-01, -4.70176339e-01, -3.52763504e-01,
          -4.60368901e-01, -1.91923991e-01, -1.35723799e-02,
          -1.56234652e-01, -7.69924521e-02, 1.68660898e-02,
          1.89226896e-01, -2.19816528e-03, -2.55141165e-02,
          -4.15436784e-03, -1.68753532e-03 ]
      - [ -2.92827916e+00, 8.95761669e-01, 7.22144306e-01,
          -4.82725322e-01, 1.76629260e-01, -4.52506334e-01,
          1.37105016e-02, -3.75975162e-01, -2.79408991e-01,
          6.52592182e-02, 3.69057447e-01, 3.22893411e-02,
          -1.31038070e-01, 4.70823497e-02, -2.51969881e-02,
          3.45340483e-02, -3.06121400e-03 ]
      - [ 3.09447169e+00, -7.35190690e-01, -1.05685985e+00,
          -5.98246098e-01, 1.08051848e+00, 3.89671087e-01,
          -6.04884207e-01, 3.21007669e-01, 5.23803532e-01,
          6.40299261e-01, 4.40796971e-01, 2.48070985e-01, 1.62075758e-01,
          -1.63052715e-02, -1.11585222e-01, -2.06688028e-02,
          8.30785430e-04 ]
      - [ -2.32831860e+00, -2.92847919e+00, -1.32088757e+00,
          3.80508244e-01, 3.65804672e-01, 2.85238004e+00,
          -8.51866722e-01, 1.30370307e+00, -3.52891348e-02,
          6.78544164e-01, 2.50391454e-01, -4.07819659e-01,
          -5.65796614e-01, 1.10324457e-01, 1.37743549e-02,
          -6.30598366e-02, 2.84666009e-02 ]
      - [ -1.84737420e+00, -1.34661961e+00, 4.84186083e-01,
          -2.52698779e-01, 8.80297542e-01, 4.35539395e-01,
          5.34024179e-01, 2.25270377e-03, -1.85154989e-01,
          1.73180163e-01, -1.05548017e-01, -3.15879211e-02,
          5.74493455e-03, -1.56914722e-02, 3.63963619e-02,
          1.17840699e-03, -1.14881881e-02 ]
      - [ 3.96919775e+00, -2.45820403e+00, -3.46923679e-01,
          4.51128066e-01, -1.03322589e+00, 4.10325825e-01,
          -6.67626739e-01, -1.12516306e-01, -2.42005154e-01,
          7.40121976e-02, 4.88368832e-02, 2.52049267e-02, 3.27544548e-02,
          2.21810322e-02, 8.03628936e-03, -7.05170259e-03,
          -3.48222116e-03 ]
      - [ 1.17882538e+00, 1.55139923e+00, -2.90144831e-01,
          -3.61469835e-01, 8.56378376e-01, -6.32946715e-02,
          -3.84665519e-01, -7.50241697e-01, -1.11225091e-01,
          -3.02880317e-01, -1.68855265e-01, 1.01111345e-01,
          2.65221387e-01, 1.08985519e-02, -7.25695211e-03,
          -5.72049466e-04, 4.18200344e-03 ]
      - [ -1.85255027e+00, -7.83726990e-01, 7.20454514e-01,
          3.88428390e-01, -3.11030269e-01, 6.53255463e-01,
          -4.35700476e-01, -2.34558200e-03, -2.01541126e-01,
          5.40729687e-02, 8.68272111e-02, -6.22878671e-02,
          2.84739360e-02, 3.45884450e-02, 5.13786683e-03,
          -1.17553975e-02, -3.40641011e-03 ]
      - [ -2.35549331e+00, -9.17511940e-01, 5.99734724e-01,
          -3.71533692e-01, 6.27184391e-01, 1.45626947e-01,
          7.07399845e-01, -3.85707498e-01, 5.58371663e-01,
          4.71026510e-01, -1.11091323e-02, 2.09246665e-01,
          8.33075717e-02, -5.01972856e-03, 2.00416930e-02,
          -1.29468003e-02, -9.96563490e-03 ]
      - [ -2.85093880e+00, 1.51799679e-01, -1.87852228e+00,
          4.64892149e-01, 2.97196329e-01, -7.16776252e-01,
          5.19744694e-01, -1.10707328e-01, 4.64714646e-01,
          -9.59776640e-01, -6.13998100e-02, 3.46400559e-01,
          -3.01393688e-01, 1.39575735e-01, -3.64167765e-02,
          1.76046125e-03, 7.37145683e-03 ]
      - [ 6.44703388e-01, 2.97595787e+00, -3.16896677e+00,
          -1.09583151e+00, -1.28151643e+00, -3.47466171e-01,
          -6.60573661e-01, -2.06037194e-01, 2.53106624e-01,
          5.16329587e-01, 5.78622520e-01, -3.85627687e-01,
          -4.96558510e-02, -1.21893637e-01, -3.97365727e-03,
          -2.74841748e-02, 4.01524222e-03 ]
      - [ 1.59965062e+00, 1.94056559e+00, -2.46617794e+00,
          -6.17183924e-01, -1.19192791e+00, -4.11501914e-01,
          3.97709298e+00, 6.13989055e-01, 1.44255877e+00,
          -5.69613874e-01, -4.21975739e-02, -8.95501494e-01,
          -1.12492569e-01, -1.06093600e-01, -1.02715129e-02,
          3.91251668e-02, -1.10709378e-02 ]
      - [ -1.99931288e+00, 4.65698212e-01, 1.49207497e+00,
          -4.21364248e-01, -8.55502427e-01, -4.59079891e-01,
          -6.18549049e-01, -4.41104263e-01, -2.07264319e-01,
          1.58093959e-01, 4.59927231e-01, -1.71077296e-01,
          -7.77658029e-03, -5.31848781e-02, -2.75639687e-02,
          1.30857890e-02, 3.88029264e-03 ]
      - [ -1.33240020e+00, -4.47562277e-01, 1.27587891e+00,
          -3.61522324e-02, -5.45516014e-01, 6.94802284e-01,
          -3.58057350e-01, -2.87733912e-01, -4.03846130e-02,
          1.49239019e-01, -3.77872661e-02, -2.90301979e-01,
          1.06164239e-01, 3.95633047e-03, -5.39130718e-03,
          -4.90758475e-03, -3.34034394e-03 ]
      - [ -2.60623360e+00, -2.56856441e+00, -1.37383914e+00,
          5.61186433e-01, -1.60599090e-02, 5.21067560e-01,
          5.21111563e-02, -3.65869254e-01, -3.08406889e-01,
          5.73588669e-01, 9.31061432e-02, -8.86248276e-02,
          -2.21589804e-01, 1.63647998e-02, 7.61258826e-02,
          -3.72466482e-02, 1.39866117e-02 ]
      - [ 2.97156358e+00, 2.70676374e+00, 9.67494786e-01,
          -1.53434277e-01, 1.38839900e+00, -4.20533940e-02,
          -7.87071645e-01, 8.38820100e-01, -4.92850482e-01,
          -2.63579845e-01, 1.46970302e-01, 2.35746264e-01,
          -5.85989244e-02, -2.72863042e-02, 9.08905193e-02,
          -2.47661360e-02, 8.96309596e-03 ]
      - [ -5.71280718e-01, -1.24754822e+00, 8.98236215e-01,
          9.23736453e-01, -2.88604319e-01, 1.23290586e+00,
          -2.92262316e-01, 3.89987648e-01, -1.09493464e-01,
          -1.70669220e-02, 2.28253573e-01, -1.76426351e-01,
          1.37740020e-02, 5.12115238e-03, 3.43170241e-02,
          -1.55001273e-03, -1.16632227e-02 ]
      - [ -1.42295313e+00, 2.10911179e+00, -9.17639554e-01,
          -1.39487231e+00, -1.55881226e+00, -1.73507214e-01,
          1.36134875e+00, 2.63437986e-01, 1.71921402e-01,
          -2.55079716e-01, 2.27281600e-01, 8.09827819e-02,
          2.28243142e-01, 1.11018578e-02, 2.78368741e-02, 7.15644390e-04,
          2.30218493e-03 ]
      - [ 4.61683178e+00, -1.63895810e+00, -8.36378932e-01,
          -1.18581259e+00, 9.82818007e-01, 3.71441603e-01,
          -1.97061881e-01, -1.52773678e-01, -2.35174596e-01,
          1.86776727e-01, 3.51026595e-01, 5.54797240e-02, 3.41267437e-02,
          2.44331025e-02, -3.32034864e-02, -1.07280947e-02,
          -1.79900683e-03 ]
      - [ -2.23671961e+00, 7.82875121e-01, -2.33883834e+00,
          -1.58080113e+00, -2.50155997e+00, -9.08840835e-01,
          2.86367846e+00, 2.74015212e+00, -3.11025046e-02,
          -8.64789069e-01, 1.58306777e-01, 1.84556678e-01,
          -1.06810473e-01, 9.49849412e-02, 4.39431854e-02,
          9.49584506e-03, -2.39456375e-03 ]
      - [ 3.75726271e+00, -1.77506471e+00, -1.39371312e+00,
          1.95602739e+00, -1.77958965e-01, 4.02810544e-01,
          6.72796547e-01, -5.39500475e-01, -5.55322647e-01,
          6.44605994e-01, 3.13584030e-01, 2.29871750e-01, 6.50678948e-02,
          -5.73662817e-01, 8.74116346e-02, 2.13071689e-01,
          4.92029861e-02 ]
      - [ -1.94492102e+00, -6.52998686e-01, 1.25172555e+00,
          2.06214875e-01, -5.37069559e-01, 4.90942359e-01,
          -3.93149734e-01, -4.27903272e-02, -2.07964063e-01,
          1.11335807e-01, 2.22055539e-01, -1.40394598e-01,
          4.71436381e-02, 2.31284648e-02, 5.40679041e-03,
          -8.04045331e-03, -1.79120619e-03 ]
      - [ -1.84872925e+00, -8.88308764e-01, -2.05819416e+00,
          3.15048724e-01, 1.73199221e-01, -1.10897207e+00,
          1.47275984e+00, 1.99007258e-01, -8.64030868e-02,
          7.62986362e-01, -7.26610065e-01, -1.99744210e-01,
          -5.77729829e-02, -3.66011932e-02, -2.80727986e-02,
          -1.94980558e-02, -8.77392304e-04 ]
      - [ -7.39112854e-01, 3.21286535e+00, -1.16952503e+00,
          -1.61532676e+00, -1.94620991e+00, -2.21836567e-01,
          1.42418575e+00, 6.93342328e-01, 9.37348977e-02,
          -3.10138494e-01, -3.14928025e-01, -1.69708394e-02,
          1.34468108e-01, -6.03906903e-03, 6.86813369e-02,
          2.52483925e-03, 5.35378233e-03 ]
      - [ 4.51698589e+00, 3.38102746e+00, -8.02410603e+00,
          1.32564759e+00, 3.78778100e-01, 1.42488348e+00,
          -9.98019814e-01, 1.03986454e+00, -8.97004724e-01,
          1.66295266e+00, 3.09204757e-01, -2.88685679e-01,
          3.52241755e-01, 4.47271727e-02, -4.25658226e-02,
          2.42014527e-02, -9.34989378e-03 ]
      - [ -2.48832631e+00, -1.85303736e+00, -1.13631070e+00,
          -8.49183023e-01, 1.37317404e-01, -4.53285486e-01,
          -9.23845768e-01, -1.77581087e-01, 2.24340744e-02,
          -7.74241611e-02, 2.12526172e-01, -1.18398957e-01,
          -1.40434101e-01, 6.59426525e-02, 8.78466219e-02,
          6.83054212e-04, 6.50745467e-04 ]
      - [ -2.47997594e+00, 3.32428604e-01, 1.93127799e+00,
          -4.14293855e-01, 7.25072384e-01, 2.09610894e-01,
          -5.36263473e-02, 6.95078075e-01, -1.36906877e-01,
          1.71880037e-01, -1.38196364e-01, -1.18073918e-01,
          -1.53461620e-01, 6.09774329e-02, 1.01282801e-02,
          1.82222966e-02, -1.54944730e-03 ]
      - [ 1.44065306e-01, -2.90876478e-01, 1.29037547e+00,
          -4.82492030e-01, 8.90363455e-01, -5.66547930e-01,
          6.92045867e-01, 6.16956353e-01, 5.36968648e-01, 3.45898241e-01,
          -1.29594281e-01, 1.29914880e-01, 1.59361050e-01,
          -4.27720211e-02, -1.77279145e-01, -8.91992450e-03,
          -3.46179144e-03 ]
      - [ 4.90293550e+00, -2.00704384e+00, -7.94993460e-01,
          -1.32710338e+00, 9.07881796e-01, -2.59419139e-02,
          2.41874352e-01, -4.04397845e-01, -2.16362953e-01,
          1.79113224e-01, 4.09571752e-02, 1.52887300e-01, 1.52389975e-02,
          3.12460419e-02, 1.32895112e-02, -5.22267027e-03,
          -4.06304980e-03 ]
      - [ -1.18595266e+00, 2.76953864e+00, -1.32893133e+00,
          -1.17711406e-02, -4.63152379e-01, 2.45961452e+00,
          3.35343152e-01, 1.34600997e+00, 4.02438283e-01,
          -5.85823298e-01, -5.03384247e-02, 2.87265539e-01,
          7.43723884e-02, 1.20723527e-02, -2.09673852e-01,
          1.54956346e-04, 6.76188210e-04 ]
      - [ -1.05668716e-01, 2.86876011e+00, -1.73269844e+00,
          -1.07863188e+00, -1.35232842e+00, -1.42756671e-01,
          1.18379116e+00, 3.43393050e-02, 3.81952018e-01,
          -6.47979617e-01, 3.70614707e-01, 7.89125264e-02,
          2.62213796e-01, 1.61943175e-02, 4.62978594e-02,
          -6.46881992e-04, 4.71644243e-03 ]
      - [ -2.90787309e-01, -9.59841728e-01, -6.88431382e-01,
          -1.09492981e+00, 2.83661276e-01, -1.17065430e+00,
          -1.08321548e+00, 2.16724381e-01, 6.16726458e-01,
          -3.05119067e-01, 3.92109573e-01, 5.04274331e-02,
          1.49503574e-01, -4.93654720e-02, 4.43017446e-02,
          -4.33152681e-03, 8.76916200e-03 ]
      - [ -1.96368957e+00, 4.91999656e-01, -2.17919499e-01,
          1.05865431e+00, 3.42600584e-01, -6.12393200e-01,
          1.09576190e+00, -3.68059158e-01, 2.43564576e-01,
          -1.30128145e-01, -5.59456050e-02, -2.03631833e-01,
          3.65723632e-02, 1.52243325e-03, -1.84563957e-02,
          -1.30281514e-02, -9.81382374e-03 ]
      - [ -1.65154189e-01, -1.10239470e+00, 3.38045955e-01,
          1.20102787e+00, -7.50741661e-01, 1.38355047e-01,
          -5.04687965e-01, 3.34924102e-01, 2.20304862e-01,
          -3.09440531e-02, -3.10354143e-01, 2.43847612e-02,
          1.14215247e-01, -1.72808021e-02, -7.83900097e-02,
          -6.46251207e-03, -5.64307580e-03 ]
      - [ -3.35036612e+00, -1.39075065e+00, -2.60208797e+00,
          -7.54962623e-01, -1.38985860e+00, -3.70615274e-01,
          2.43329215e+00, 1.02833974e+00, -6.48226738e-01,
          7.37511516e-02, 6.98326305e-02, 1.29918411e-01,
          -4.07579362e-01, 1.52417064e-01, 5.68780378e-02,
          -5.03314324e-02, 2.79195197e-02 ]
      - [ -4.31100249e-01, 2.24949643e-01, -2.95285612e-01,
          6.39121890e-01, 1.47908115e+00, 5.64550757e-01, 1.06529045e+00,
          -5.36625564e-01, 2.08521217e-01, -4.46310230e-02,
          1.09649606e-01, 2.15127617e-01, 9.12973434e-02,
          -1.32724956e-01, 5.84882200e-02, 5.23511507e-02,
          -8.72894656e-03 ]
      - [ 4.87126064e+00, -2.24223185e+00, -3.22311401e-01,
          7.50896752e-01, -1.24966323e+00, -4.90812898e-01,
          -1.45122468e-01, -3.52765769e-01, -4.62299764e-01,
          3.62058096e-02, 9.51743945e-02, 1.33178815e-01, 5.76180480e-02,
          3.52836140e-02, 1.79222208e-02, -7.73965986e-03,
          -2.97326734e-03 ]
      - [ 4.58134472e-01, 1.49075067e+00, -1.56698072e+00,
          -3.27751327e+00, -2.98218250e+00, 1.27741575e+00,
          5.80025434e-01, 1.06758559e+00, -3.37363362e-01,
          -2.33043760e-01, -1.23302095e-01, 3.33617032e-01,
          -5.30383103e-02, -5.10163940e-02, 3.02913282e-02,
          -1.38015011e-02, 9.79215465e-03 ]
      - [ 5.81278563e+00, -2.04847360e+00, 1.11144222e-01,
          7.59612918e-01, -1.50100076e+00, 2.99946398e-01,
          -1.41071332e+00, 6.67344332e-01, -5.30846603e-02,
          -4.05375361e-01, 1.83931321e-01, 6.14917427e-02,
          1.79983564e-02, 3.53919901e-02, 4.22866875e-03,
          -1.36271203e-02, 1.44851841e-02 ]
      - [ -2.69528151e+00, 1.52327746e-01, 3.87599170e-01,
          9.41509366e-01, 1.51148006e-01, 4.95772392e-01, 6.20983899e-01,
          -6.58159614e-01, -1.25673085e-01, -3.52539285e-03,
          2.59147525e-01, -4.64255065e-02, -3.03270724e-02,
          4.02885489e-02, -1.12614762e-02, -2.35067606e-02,
          -4.27106628e-03 ]
      - [ -1.27451241e+00, 8.61827657e-02, -1.66861689e+00,
          -7.94702113e-01, -1.18248992e-01, -2.10373446e-01,
          -1.78673589e+00, 1.17737018e-01, -3.81649882e-02,
          -7.26932287e-01, -3.00368160e-01, 3.94909203e-01,
          -2.40552038e-01, -2.91792247e-02, -9.10378173e-02,
          8.11027735e-02, -5.11272997e-03 ]
      - [ -2.89631152e+00, -2.60317969e+00, -1.39152873e+00,
          -1.04251587e+00, -2.56743401e-01, -3.72236192e-01,
          -2.10251704e-01, -6.78290129e-01, -2.32667252e-01,
          3.55979145e-01, -6.98971093e-01, -9.40122008e-02,
          -8.69751349e-02, 7.28344545e-02, 1.06486857e-01,
          -2.53256671e-02, -3.06686299e-04 ]
      - [ -1.21194708e+00, -8.57824460e-02, 2.01352835e+00,
          -8.22464526e-01, 6.94097638e-01, 1.18017066e+00,
          -6.13079607e-01, 9.34975505e-01, 4.03557867e-02,
          1.79278359e-01, -1.25680238e-01, -1.93561539e-01,
          3.34160551e-02, 1.29931010e-02, 2.07227878e-02,
          -8.91553471e-04, 2.68989243e-03 ]
      - [ -1.65610266e+00, 1.85337365e+00, 2.26719761e+00,
          -5.29520988e-01, 5.64932704e-01, -4.13379043e-01,
          3.54156822e-01, -4.65216674e-02, 1.72462836e-02,
          6.58534020e-02, -1.79582890e-02, -1.59783795e-01,
          1.17502838e-01, -1.20666046e-02, -2.53154989e-03,
          3.17807938e-03, 3.76552530e-03 ]
      - [ -1.42167795e+00, -1.72586071e+00, 2.90341288e-01,
          1.07033789e+00, -3.93789649e-01, 6.78096175e-01,
          -6.48170635e-02, 1.41328081e-01, 1.62200317e-01,
          8.57116506e-02, -1.19327545e-01, -3.60929221e-02,
          -2.06844006e-02, -3.87641005e-02, -6.62875623e-02,
          -6.52573956e-03, -8.29419214e-03 ]
      - [ 5.73176324e-01, -1.17264199e+00, -1.01028335e+00,
          -4.82816130e-01, 8.25718164e-01, -6.54513597e-01,
          -3.35361004e-01, 2.22294390e-01, 1.96176395e-01,
          3.05081248e-01, 3.29027444e-01, 1.90769866e-01, 2.00123578e-01,
          -5.37317283e-02, -1.27324075e-01, -1.03575531e-02,
          -3.98152601e-03 ]
      - [ 4.95507669e+00, -2.33828163e+00, 3.72107685e-01,
          -6.68225884e-01, 1.42459953e+00, -1.02012396e+00,
          1.37515056e+00, 1.09668291e+00, -7.19168410e-02,
          -2.24838912e-01, -3.41850311e-01, 1.34075368e-02,
          -1.08716063e-01, 4.95441584e-03, 5.34404814e-02,
          1.43681755e-02, -7.72208581e-03 ]
      - [ -1.74056494e+00, -1.29979086e+00, 4.28665727e-01,
          -2.21524954e+00, -6.43795192e-01, -1.11191332e+00,
          -1.44705844e+00, -2.54666060e-01, -1.53815687e-01,
          6.24158740e-01, -5.11207402e-01, 4.45160642e-02,
          -2.41585210e-01, -7.23558590e-02, 7.71754310e-02,
          3.45269218e-02, -3.65516683e-03 ]
      - [ -1.11186850e+00, -1.21991313e+00, 3.19311649e-01,
          -8.69878769e-01, 4.40050632e-01, -3.02469283e-01,
          6.75042048e-02, -7.21040592e-02, 6.64291263e-01,
          4.12177086e-01, -1.90888390e-01, 1.86294764e-01,
          1.70220807e-01, -1.37945712e-02, -2.55443305e-02,
          -1.15581080e-02, -5.75563638e-03 ]
      - [ 6.47431433e-01, -1.39101791e+00, 8.54845166e-01,
          1.28651142e+00, -6.64698005e-01, 1.21671438e+00,
          -7.49055624e-01, 9.60987389e-01, 4.11391020e-01,
          9.58588719e-02, -3.65818083e-01, -3.36754993e-02,
          4.69125323e-02, -1.90429799e-02, -1.00016132e-01,
          -5.86952036e-03, -6.28648000e-03 ]
      - [ 3.80495501e+00, -1.25996149e+00, 3.81669194e-01,
          1.73640203e+00, -4.23744887e-01, -1.92456201e-01,
          1.33049333e+00, -3.65616411e-01, -2.67946750e-01,
          -2.07627758e-01, -3.79484922e-01, 6.99627772e-02,
          -4.69978526e-02, -1.42115071e-01, 5.73005639e-02,
          6.98346347e-02, -1.67231177e-04 ]
      - [ 4.10585451e+00, -2.08734155e+00, -7.57525682e-01,
          -1.49954975e+00, 7.00766563e-01, -2.80101657e-01,
          -2.53985405e-01, -2.14019418e-01, -3.45791072e-01,
          -1.89694595e-02, -1.86630756e-01, 1.85704127e-01,
          8.77124220e-02, 3.43636088e-02, 3.05976369e-03,
          -6.05535181e-03, -1.10218381e-04 ]
      - [ 1.06184216e+01, 3.76327896e+00, -3.57110381e+00,
          -7.33420730e-01, 1.24596608e+00, -1.21831977e+00,
          -1.52785850e+00, -1.22392082e+00, -8.30355808e-02,
          1.18054867e+00, -2.49757513e-01, -7.76942968e-01,
          -7.69055009e-01, 2.99248453e-02, -1.00186333e-01,
          1.06775589e-01, -3.23195732e-03 ]
      - [ -3.30317259e-01, -1.64785814e+00, -6.79084182e-01,
          -6.55390561e-01, 6.66342080e-01, -6.81585252e-01,
          -9.62716937e-01, 1.14019263e+00, 8.42651606e-01,
          -2.98754442e-02, 1.31700337e-01, -6.16311990e-02,
          7.36790821e-02, -8.62734094e-02, -1.91229373e-01,
          -9.73509718e-03, 5.31075289e-03 ]
      - [ -1.23065718e-01, 2.62755108e+00, 1.84910285e+00,
          6.34025693e-01, -3.77289474e-01, -1.02421619e-01,
          -7.53192365e-01, -1.16856106e-01, -4.33544904e-01,
          -2.09894832e-02, 1.16661184e-01, 3.65971923e-01,
          -2.72106156e-02, -4.08169925e-02, 6.39480203e-02,
          -1.58727588e-03, 2.22704210e-03 ]
      - [ 3.35964108e+00, -1.48505414e+00, 5.09147346e-01,
          4.85551655e-01, -5.69833934e-01, 1.43591976e+00,
          -3.80420476e-01, -1.41165882e-01, 1.44912675e-01,
          -2.85767615e-01, 3.28911930e-01, -2.41082698e-01,
          -5.15339300e-02, 2.48048659e-02, -2.53908453e-03,
          -4.16211970e-03, -5.35080442e-03 ]
      - [ -2.54436064e+00, -9.77689207e-01, -2.93737531e+00,
          -1.09754868e-01, -4.40104604e-01, 1.79551020e-01,
          1.40226877e+00, -2.71719873e-01, -5.74008644e-01,
          7.31217444e-01, 5.27168214e-01, 1.12474576e-01,
          -7.13788345e-02, -4.08598483e-02, 5.50667495e-02,
          -1.78797469e-02, 9.43578221e-03 ]
      - [ -2.76901931e-01, 1.29804802e+00, 4.11455274e-01,
          9.96037960e-01, 1.69217193e+00, 2.73744881e-01, 1.76263273e+00,
          -5.71465075e-01, -4.97901961e-02, -5.14874384e-02,
          -1.07359491e-01, 4.23000269e-02, 8.76544043e-02,
          -1.30289793e-01, 6.25903308e-02, 6.10477626e-02,
          -9.86994989e-03 ]
      - [ 4.64952660e+00, -1.78780317e+00, -9.63268161e-01,
          -5.13722420e-01, 1.49274337e+00, 8.67409468e-01,
          9.66581777e-02, 3.49582672e-01, -4.47314292e-01,
          2.51565486e-01, 2.72493690e-01, 1.10241339e-01,
          -4.21617590e-02, -2.09790654e-02, 5.91284269e-03,
          1.23979449e-02, -7.24302744e-03 ]
      - [ -3.73015571e+00, -6.32603526e-01, 1.67792112e-01,
          1.68167070e-01, 6.76984966e-01, 4.88594562e-01, 8.30032229e-01,
          -5.26357889e-01, 2.13415027e-01, 2.70586103e-01,
          3.19042504e-01, 1.50845975e-01, -2.54336298e-01,
          1.01367779e-01, -2.68803574e-02, -4.82533686e-02,
          1.43447910e-02 ]
      - [ 3.92361546e+00, -1.36315787e+00, 4.31136370e-01,
          -1.19046199e+00, 9.97325540e-01, 5.48992693e-01,
          5.74987471e-01, -3.04545790e-01, -1.25422955e-01,
          -1.40816674e-01, 2.75520056e-01, 7.17723966e-02,
          -1.81971416e-02, 3.61039750e-02, 6.60939096e-03,
          -1.75069738e-03, -5.34798391e-03 ]
      - [ -1.92265832e+00, 3.93732357e+00, -1.16124940e+00,
          2.50813723e-01, -5.74125350e-01, 4.68371451e-01,
          1.81997252e+00, 5.66350818e-01, -2.71003544e-01,
          -5.81442714e-01, -2.60714650e-01, 3.88169020e-01,
          1.39637321e-01, 1.02712356e-01, 5.33729605e-03, 3.46840615e-03,
          -4.78917360e-03 ]
      - [ -1.24141216e+00, 2.25372314e+00, 4.15369987e-01,
          2.81007230e-01, 1.06408036e+00, 1.15978152e-01,
          -7.67201364e-01, 3.48988682e-01, 2.69172657e-02,
          -8.82150084e-02, 1.00983493e-01, 9.70856473e-02,
          -5.72273321e-02, 1.66363884e-02, 3.46781965e-03,
          3.00087836e-02, -1.26023020e-03 ]
      - [ -2.67372656e+00, -6.14578307e-01, 3.88754100e-01,
          -9.28968847e-01, -3.93100530e-01, -1.25463188e+00,
          8.18213999e-01, 5.75563274e-02, -3.10048293e-02,
          2.18163460e-01, -2.10299596e-01, -1.61917403e-01,
          2.16690879e-02, 1.78357884e-02, -2.79057194e-02,
          -6.91572903e-03, -1.68135809e-03 ]
      - [ 5.67309570e+00, -2.75387812e+00, -1.30250216e-01,
          9.86480474e-01, -1.44448876e+00, -1.45778865e-01,
          -3.04723620e-01, 3.88447382e-02, -6.35413587e-01,
          5.49140014e-02, -1.44042671e-01, 1.79685012e-01,
          8.45525321e-03, 4.33771200e-02, 1.69189926e-02,
          -5.54304803e-03, -2.73956079e-03 ]
      - [ -2.40700150e+00, -2.41352931e-01, -9.48707581e-01,
          -2.92128658e+00, -2.73058701e+00, -1.03416848e+00,
          3.34402770e-01, 8.20580304e-01, -6.63039744e-01,
          2.38334805e-01, -4.87024873e-01, 5.38956225e-01,
          -3.97728056e-01, 7.53532257e-03, 7.95236677e-02,
          1.06363997e-01, -1.59126651e-02 ]
      - [ -1.97794950e+00, 1.20862329e+00, -3.24416757e-01,
          3.15597266e-01, 7.99545348e-01, -3.85511428e-01,
          1.72856092e-01, -4.40095812e-01, -1.45532385e-01,
          -2.60789096e-01, 4.56110053e-02, -3.88257243e-02,
          7.47631043e-02, 3.43484543e-02, -4.82248068e-02,
          -6.49514422e-03, -2.65873666e-03 ]
      - [ 4.28012562e+00, -1.15388906e+00, 1.36196136e+00,
          8.14033270e-01, -9.01824534e-01, 1.48173320e+00,
          -2.38652956e-02, 7.37997796e-03, 5.23590982e-01,
          4.26851884e-02, 2.81872332e-01, 3.93496379e-02,
          -3.91283408e-02, 3.98581438e-02, -4.91295382e-02,
          -1.43843703e-02, -1.74710457e-03 ]
      - [ 3.46996212e+00, -1.66655588e+00, 1.15037346e+00,
          7.96370029e-01, -8.08009744e-01, 9.92989600e-01,
          4.84239697e-01, -3.91861975e-01, -3.66117477e-01,
          -1.73908025e-02, -2.93048710e-01, -3.60506475e-02,
          -5.92992418e-02, 2.64063757e-03, 2.43241377e-02,
          1.57962143e-02, -8.76526907e-03 ]
      - [ 4.97660542e+00, -1.30656147e+00, 1.40345037e+00,
          6.45739198e-01, -8.27458978e-01, 1.48666441e+00,
          4.91163462e-01, -5.23877680e-01, -2.56821793e-02,
          -1.25762150e-01, 2.52124935e-01, -2.47517377e-01,
          -1.41108111e-01, 3.34293991e-02, -7.44063687e-03,
          1.38506919e-04, -4.78016771e-03 ]
      - [ -9.25497413e-01, 2.08566046e+00, -1.43094599e+00,
          1.36803818e+00, 5.88007212e-01, -6.00464582e-01,
          4.06550944e-01, -5.02363205e-01, 6.26489758e-01,
          -9.97742593e-01, -2.30618820e-01, -1.12141393e-01,
          1.72656178e-01, 2.99132969e-02, 1.35880969e-02,
          -3.52791650e-03, -8.98629520e-03 ]
      - [ 2.04323816e+00, 1.84653842e+00, -9.28896368e-01,
          1.15968716e+00, 2.04229450e+00, -4.36823778e-02,
          -4.79210019e-01, 1.25358403e+00, 2.97108982e-02,
          -4.33910429e-01, -1.50723875e-01, 6.40386418e-02,
          2.00618103e-01, 4.10055704e-02, 4.17890027e-02,
          -2.69529270e-03, -2.83866934e-03 ]
      - [ 3.29960513e+00, 4.20505047e+00, -2.23462462e+00,
          1.25993598e+00, 1.91263890e+00, -2.88891912e-01,
          -9.52373624e-01, -2.23596916e-01, -4.59229678e-01,
          1.97014734e-01, -9.43068489e-02, -9.54012051e-02,
          3.15411806e-01, 2.56911553e-02, 6.69655278e-02,
          -9.94605944e-03, 5.92228165e-03 ]
      - [ 4.59468007e-01, 4.20654917e+00, -2.48705506e+00,
          2.35217661e-01, -2.18771845e-01, -5.81418514e-01,
          -9.44782734e-01, -2.61288494e-01, 2.08977014e-01,
          1.48672629e-02, 1.05365157e-01, 1.45357922e-01,
          -1.48632213e-01, -7.80206025e-02, 4.09418829e-02,
          5.46177197e-03, -6.82977401e-03 ]
      - [ 9.84326959e-01, -1.46396983e+00, 4.60548222e-01,
          4.79188204e-01, -8.16524625e-01, 5.19386470e-01,
          -8.03159177e-02, -4.19951379e-01, 6.76956177e-01,
          2.52528697e-01, -5.24865929e-03, 2.30906159e-01,
          1.16752841e-01, -4.01933827e-02, -1.16928622e-01,
          -5.92875294e-03, -6.97559305e-03 ]
      - [ 3.84235954e+00, -1.83035326e+00, -7.91633785e-01,
          8.06349456e-01, -5.62298596e-01, 5.57168067e-01,
          -2.35671503e-03, -6.73231840e-01, -2.87611455e-01,
          2.65647948e-01, 4.40268368e-01, -1.42280489e-01,
          -2.12539807e-02, -4.55197021e-02, -2.62950052e-04,
          1.13129448e-02, -7.69353658e-03 ]
      - [ 3.17923093e+00, -1.48957980e+00, -1.72646686e-01,
          -1.24597538e+00, 7.53197730e-01, 3.14970851e-01,
          8.17811131e-01, -1.18220937e+00, 2.86179055e-02,
          -9.98009667e-02, -2.83864141e-01, -1.34766534e-01,
          -3.63085084e-02, -3.01704127e-02, -2.68068612e-02,
          1.61867663e-02, -7.61810504e-03 ]
      - [ 1.35304123e-01, 8.28917384e-01, 1.31795597e+00, 1.51788437e+00,
          -4.92785364e-01, -6.95674181e-01, -7.56436810e-02,
          6.52177632e-01, 5.35108596e-02, -9.18931067e-02,
          2.10550353e-01, -1.05451666e-01, 1.60085335e-01,
          1.21750413e-02, 3.35941501e-02, -5.77144651e-03,
          1.43653632e-03 ]
      - [ 4.54891920e+00, 5.97407877e-01, 5.15338480e-01,
          -6.62038624e-01, 1.30373716e+00, 9.97825384e-01,
          5.56025624e-01, -5.93850911e-01, -7.51275569e-02,
          -1.25073344e-01, -9.69473958e-01, 3.78842615e-02,
          4.03765254e-02, 7.69607201e-02, -3.05134784e-02,
          -2.39016209e-03, -4.09109751e-03 ]
      - [ 2.33341074e+00, 5.50700474e+00, 6.88766599e-01,
          -4.34288323e-01, 2.72830695e-01, 5.28000057e-01,
          8.01328182e-01, -1.99227691e+00, 5.52024722e-01,
          -3.04377884e-01, -1.37509614e-01, -4.62802947e-01,
          1.41078949e-01, 1.53006641e-02, -3.07234190e-02,
          -1.61239412e-02, 1.28344409e-02 ]
      - [ -1.80321801e+00, 5.14321566e-01, 3.52730930e-01,
          -4.12431985e-01, 2.20893279e-01, -7.80901670e-01,
          7.27898419e-01, -5.36278963e-01, 2.69666076e-01,
          2.58912206e-01, -7.64359713e-01, -8.39406922e-02,
          1.85041413e-01, 1.61783136e-02, -1.56816293e-03,
          -6.87660789e-03, -6.96807448e-03 ]
      - [ -6.13359630e-01, -4.73604530e-01, 2.27162266e+00,
          1.22659636e+00, -1.56012690e+00, -1.99150398e-01,
          -4.27174091e-01, 9.85315084e-01, 1.02476442e+00,
          5.02578259e-01, 4.22081985e-02, -1.58080477e-02,
          9.26573202e-02, -1.87393632e-02, -1.48981828e-02,
          -1.54907759e-02, 6.10213727e-03 ]
      - [ -1.72247028e+00, -6.06465757e-01, -4.37886149e-01,
          -2.69515038e-01, -4.79256779e-01, -1.63858935e-01,
          -9.54892337e-01, -4.00088996e-01, -1.56968057e-01,
          -1.96108654e-01, 1.60663083e-01, 8.23993757e-02,
          8.67760181e-02, -1.20944786e-03, -1.39672495e-02,
          3.20219481e-03, 2.32237182e-03 ]
      - [ -1.83379197e+00, 1.02665639e+00, 5.59119165e-01,
          9.21533048e-01, 4.34061319e-01, 1.65051758e+00, 1.16125189e-01,
          -1.81239381e-01, 2.27797568e-01, -8.99621770e-02,
          1.35275453e-01, -2.81729460e-01, 2.03028824e-02,
          3.43280882e-02, 6.73089526e-04, -1.21363420e-02,
          -9.97522566e-03 ]
      - [ -1.92010355e+00, 7.95384645e-01, 1.06764281e+00,
          5.35304807e-02, 9.55729187e-01, 1.48770154e+00,
          -2.18183883e-02, 1.20455287e-01, 5.50627671e-02,
          -2.03940757e-02, 1.77004710e-01, -2.27671683e-01,
          3.23611535e-02, 4.48286794e-02, 1.19670462e-02,
          -1.05878571e-02, -6.73469109e-03 ]
      - [ 1.85586286e+00, -1.54185343e+00, -1.46960139e-01,
          1.78026772e+00, -9.40662861e-01, 4.26578075e-02,
          -3.48305076e-01, 4.27725405e-01, 8.20714951e-01,
          -4.96722370e-01, 2.75390953e-01, 2.51306534e-01,
          8.73210505e-02, -5.71644567e-02, -1.58221543e-01,
          -2.60305754e-03, -6.12375559e-03 ]
      - [ 5.58878994e+00, -2.76499486e+00, -4.44566905e-02,
          1.12968457e+00, -1.53549588e+00, -1.95924193e-01,
          -3.45818520e-01, 2.15467528e-01, -4.72314954e-01,
          7.49644786e-02, -1.45465016e-01, 2.03193620e-01,
          1.49406400e-02, 3.98449749e-02, 3.89874820e-03,
          -7.75621971e-03, -2.03826465e-03 ]
      - [ -1.95684326e+00, -4.54943419e-01, 1.19061068e-01,
          -6.45023644e-01, -7.20175982e-01, -6.90142989e-01,
          -3.01523894e-01, -7.88900554e-01, -4.30582613e-02,
          9.47997943e-02, 4.33649451e-01, 5.57471775e-02, 1.85297474e-01,
          -1.09731611e-02, 1.47625608e-02, -4.73694829e-03,
          1.74128241e-03 ]
      - [ 3.28548956e+00, -1.78346097e+00, -5.77825785e-01,
          1.01249254e+00, -9.74430203e-01, -1.24504529e-01,
          -1.47924602e-01, -3.31846058e-01, 3.59801233e-01,
          4.99909908e-01, 4.85679418e-01, 4.18758810e-01, 1.30693182e-01,
          -4.84402440e-02, -1.47522435e-01, -1.19463224e-02,
          -4.40175459e-03 ]
      - [ 2.91368294e+00, -1.52436709e+00, 5.15504122e-01,
          1.08692431e+00, -8.45839798e-01, -2.07397372e-01,
          4.71168727e-01, -3.20421785e-01, -3.44576597e-01,
          -2.49851286e-01, 3.61229241e-01, 1.34453148e-01,
          4.84167449e-02, -1.30113643e-02, -3.66941206e-02,
          6.11171359e-03, -8.57040565e-03 ]
      - [ -1.07355714e+00, 1.71922576e+00, 2.06464958e+00,
          7.58927315e-03, 1.06244802e+00, -5.47019064e-01,
          1.62633911e-01, 1.13955569e+00, 2.16142893e-01, 4.50948514e-02,
          2.16617540e-01, -8.59242752e-02, 1.95656512e-02,
          1.33051174e-02, 6.59542009e-02, 4.84628510e-03, 2.43308628e-03 ]
      - [ 4.39921093e+00, -1.95052063e+00, -5.78524113e-01,
          -1.26195455e+00, 9.03927743e-01, -5.79033673e-01,
          -1.91509366e-01, 4.14301097e-01, -1.71614826e-01,
          -8.61201212e-02, 2.83627898e-01, 2.40671024e-01,
          8.84266421e-02, 4.50375341e-02, 4.20090295e-02,
          -1.09347850e-02, 2.25454429e-03 ]
      - [ 1.34878671e+00, 4.22638845e+00, -2.63893080e+00,
          1.27865827e+00, 1.56676161e+00, -7.32572317e-01,
          -1.90089798e+00, 1.65268138e-01, -9.54926729e-01,
          2.96933562e-01, 1.47464767e-01, 3.45203251e-01,
          -2.47546077e-01, -2.23634504e-02, 2.42365692e-02,
          7.05074444e-02, -1.62211489e-02 ]
      - [ -2.37349916e+00, 2.75779724e+00, 1.73041368e+00,
          -6.45668805e-01, -1.01506062e-01, 7.75887907e-01,
          -3.30188721e-01, 1.55185416e-01, -5.55006266e-01,
          -2.25086920e-02, -3.79056297e-02, 4.72911179e-01,
          -3.75377417e-01, 4.39128317e-02, 7.58352550e-03,
          1.07733086e-01, -1.60607193e-02 ]
      - [ 4.05582952e+00, -1.01072216e+00, -1.17291403e+00,
          1.24645901e+00, -1.56042948e-01, -6.18240058e-01,
          9.41151798e-01, -8.69084537e-01, -2.70984381e-01,
          4.33963597e-01, 3.24014127e-01, -3.81637067e-01,
          -2.41549090e-02, -1.31887421e-01, -3.56808640e-02,
          3.44923139e-02, -5.21950144e-03 ]
      - [ -3.13419700e-01, 8.84398520e-01, -2.07757258e+00,
          -6.68503702e-01, -6.66851521e-01, -3.91590089e-01,
          -7.47410357e-01, -6.68569744e-01, -4.11333218e-02,
          5.59172273e-01, -5.99567831e-01, 1.52936488e-01,
          2.97402263e-01, -3.03442031e-02, -3.29387337e-02,
          -4.61551547e-03, 4.61810594e-03 ]
      - [ -1.54389560e+00, -1.72505200e+00, -1.06936789e+00,
          -3.14359754e-01, 6.18381202e-01, -1.07409728e+00,
          -6.72142953e-02, 2.66830206e-01, 3.61886084e-01,
          6.38169944e-01, 5.04025780e-02, -3.28673720e-02,
          4.02869582e-02, 5.29170828e-03, -1.66979793e-03,
          -2.81356163e-02, -3.60676832e-03 ]
      - [ -1.93289518e+00, 3.51000905e+00, 1.87758791e+00,
          5.59117794e-01, 5.09593010e-01, -1.09511495e+00,
          1.62634242e+00, 9.48943019e-01, 3.69852215e-01,
          -1.39845774e-01, -2.44813655e-02, -2.09929615e-01,
          1.42700840e-02, 4.54479009e-02, 2.13643834e-02, 1.06412116e-02,
          -2.33810069e-03 ]
      - [ 3.85084391e+00, -1.03183258e+00, -1.33292174e+00,
          -3.19819838e-01, 1.29513526e+00, -7.25069761e-01,
          6.65045023e-01, -1.88405618e-01, -3.19802940e-01,
          4.75145936e-01, 3.48960310e-01, -7.44839683e-02,
          5.41880243e-02, -2.73412019e-02, -1.01754880e-02,
          2.15875823e-03, -9.60870087e-03 ]
      - [ 4.76372623e+00, 4.10599947e-01, 1.51111150e+00,
          -6.13014996e-01, 1.39914262e+00, -5.31195402e-01,
          1.43460894e+00, 2.87601560e-01, -2.01861650e-01,
          -2.49886751e-01, 2.68370658e-01, -1.37211531e-01,
          4.83004982e-03, 7.01161772e-02, -1.84696820e-02,
          -9.96648334e-03, -1.12355093e-03 ]
      - [ 3.64383364e+00, 1.09196734e+00, 2.13247991e+00,
          -9.77078915e-01, 1.11391866e+00, 2.29052708e-01,
          4.52214301e-01, 2.36491755e-01, -5.73399723e-01,
          -2.53145069e-01, 2.73446798e-01, 1.49661884e-01,
          1.04792893e-01, 4.50935364e-02, -4.07779999e-02,
          -6.23636506e-03, 1.12716537e-02 ]
      - [ 3.98537183e+00, -1.10494769e+00, -1.52716339e+00,
          -2.17086688e-01, 1.44523704e+00, -9.35082808e-02,
          3.38999361e-01, -1.44907281e-01, -6.74911141e-01,
          4.89105940e-01, 3.97250921e-01, 2.12866366e-01, 7.93940574e-02,
          -3.96102406e-02, -3.39991711e-02, 9.35215037e-03,
          -9.09703784e-03 ]
      - [ 2.62453651e+00, 1.57600790e-01, 1.11372268e+00, 2.56116652e+00,
          -7.16642141e-01, 4.11089838e-01, 1.86870337e-01,
          7.24254310e-01, 2.86615938e-01, -1.76279813e-01,
          2.22827122e-01, 1.83185279e-01, 9.74265411e-02,
          -8.22461501e-04, -1.13672115e-01, -6.11928897e-03,
          -6.84082415e-03 ]
      - [ 3.46728563e+00, 1.09851852e-01, 2.65130997e-01, 1.75434518e+00,
          -7.53681064e-01, -3.93122911e-01, -4.25298452e-01,
          3.36328804e-01, -6.50306940e-02, -6.17461205e-01,
          3.54655355e-01, 1.85144439e-01, 1.66380495e-01, 4.22565788e-02,
          3.17240953e-02, -6.56473637e-03, 3.37001355e-03 ]
      - [ 9.53529298e-01, 3.06078124e+00, -1.42651677e-01,
          -2.36556125e+00, -2.31447029e+00, -5.47403336e-01,
          2.41919971e+00, 6.68229342e-01, 5.26045501e-01,
          -1.71431229e-01, -5.14409021e-02, -2.59371251e-01,
          6.33760393e-02, -2.16837656e-02, -2.69007292e-02,
          -1.31832361e-02, 1.22244796e-02 ]
      - [ -2.29785800e+00, 2.47896290e+00, 4.71927583e-01,
          1.55508563e-01, 3.54118794e-01, -4.91766334e-01,
          3.97734821e-01, -1.04858935e-01, -3.35978478e-01,
          -1.75049216e-01, 2.68449068e-01, 1.28705159e-01,
          -4.83850203e-02, 5.37040494e-02, -1.31481225e-02,
          3.33521925e-02, -3.61830741e-03 ]
      - [ 3.45087767e+00, -1.31075013e+00, 1.70496196e-01,
          1.11620033e+00, -7.57330358e-01, -2.92954147e-01,
          4.60674614e-01, -4.74898100e-01, -1.80028975e-01,
          -4.20594692e-01, 2.84952760e-01, 1.03371456e-01,
          4.14348207e-02, 3.44562065e-03, -5.43435477e-03,
          5.10949269e-03, -8.04878678e-03 ]
      - [ 3.94494390e+00, -1.67437303e+00, -7.39777327e-01,
          -4.38473344e-01, 1.45875180e+00, 5.77961147e-01,
          6.27170086e-01, -1.81890398e-01, -7.49456584e-02,
          -7.54515588e-01, 1.41309783e-01, 1.69036508e-01,
          -7.38912448e-02, -6.92838132e-02, 3.41230258e-02,
          4.27309237e-02, -4.82813409e-03 ]
      - [ -7.60204732e-01, -1.20486820e+00, 3.15770119e-01,
          6.66463077e-01, 1.50926912e+00, -8.85802329e-01,
          1.51978946e+00, 1.22081864e+00, 8.20587099e-01, 1.52641132e-01,
          1.83273882e-01, -2.13821381e-01, -5.89965694e-02,
          -1.47913769e-01, -6.93138018e-02, 2.22593863e-02,
          -8.43202416e-03 ]
      - [ 4.20965576e+00, -2.12369108e+00, 2.19589192e-02,
          1.73421502e+00, -9.23678875e-01, -2.51371413e-01,
          4.89226848e-01, 4.88946922e-02, -7.54287094e-02,
          -6.41611934e-01, 3.29660088e-01, 2.72881746e-01,
          -2.61750035e-02, -3.14344130e-02, 3.38613801e-02,
          2.21421514e-02, -6.87709870e-03 ]
      - [ 4.55661453e-02, 3.36882257e+00, 3.93048906e+00, 6.24805808e-01,
          -8.37742627e-01, -3.26862007e-01, -1.16210423e-01,
          2.25928277e-01, 7.47756958e-02, 8.35574120e-02, 1.39215335e-01,
          3.40892710e-02, -8.23148489e-01, -1.20601408e-01,
          5.95650971e-02, -3.74532603e-02, -2.61324514e-02 ]
      - [ 2.03129148e+00, 6.20611525e+00, -5.50254250e+00,
          -1.61870265e+00, -2.89533758e+00, 7.11941957e-01,
          1.21718717e+00, 1.58757401e+00, -2.00410664e-01,
          1.90110430e-01, 3.73767883e-01, -1.96526963e-02,
          -3.40572625e-01, -7.28809759e-02, 1.14207029e-01,
          -4.71304469e-02, -1.16714491e-02 ]
      - [ 6.63208008e+00, -2.51279211e+00, 1.17785856e-01,
          -8.96321893e-01, 1.45289445e+00, -1.33357155e+00,
          6.36657000e-01, 2.11502719e+00, 2.74234831e-01,
          -1.41301930e-01, 1.83928788e-01, -2.36020148e-01,
          -1.22680254e-01, 6.17544539e-02, 5.39270528e-02,
          -1.67117510e-02, 1.32500136e-03 ]
      - [ 1.63864702e-01, 5.64331353e-01, -3.57414633e-01,
          -3.73388201e-01, 7.75347710e-01, -1.69992402e-01,
          -3.71101722e-02, -7.03132808e-01, 2.74637908e-01,
          -2.58312225e-01, 3.12212408e-01, -9.88354832e-02,
          2.04633847e-01, -4.39341692e-03, -2.01653410e-02,
          -4.34299139e-03, -4.00790339e-03 ]
      - [ 7.00544643e+00, -3.37255049e+00, 6.13887548e-01,
          1.81237328e+00, -2.00088596e+00, 5.14937639e-01,
          -6.19406343e-01, 1.28375959e+00, 5.91935515e-02,
          7.72194713e-02, -1.83833271e-01, -5.97413257e-02,
          -1.36097535e-01, 6.29662722e-02, 3.18378769e-02,
          -1.51611706e-02, 3.89003777e-04 ]
      - [ -1.14276004e+00, -7.36984611e-01, -1.18528676e+00,
          -5.51065445e-01, 4.49745268e-01, 2.28797570e-01,
          -1.16666043e+00, -1.73842721e-03, -6.55769706e-02,
          6.56011626e-02, 4.17450756e-01, -1.34598538e-01,
          8.84737968e-02, -4.83843824e-03, -1.43191114e-03,
          -8.06612335e-03, 5.31081285e-04 ]
      - [ 5.14706802e+00, -2.86010385e+00, -1.20682232e-01,
          7.69767106e-01, -6.94952190e-01, 1.90427721e+00,
          -8.40963185e-01, 6.03581905e-01, 4.15913149e-04,
          2.01121062e-01, -4.04072069e-02, -1.09366670e-01,
          -1.33640304e-01, 4.80063446e-03, -1.14354724e-02,
          -2.84892565e-04, -4.81609069e-03 ]
      - [ -3.11347175e+00, -1.85858679e+00, -1.35369074e+00,
          3.95767719e-01, 8.89490306e-01, -4.06112283e-01,
          7.03165352e-01, -4.65733826e-01, -2.73884721e-02,
          -6.23909533e-01, 2.14198813e-01, 3.47864218e-02,
          -2.83303112e-01, 4.49917987e-02, 1.43542457e-02,
          -3.92413661e-02, 2.09514629e-02 ]
      - [ -9.58522558e-01, 1.07672858e+00, 5.36133468e-01,
          -5.47251225e-01, 4.61115837e-01, -8.08492720e-01,
          -1.21861331e-01, -3.37123305e-01, -1.31593555e-01,
          1.31914839e-02, 2.15363517e-01, 8.16920623e-02, 2.19371989e-01,
          -1.61157213e-02, 5.74841956e-03, -4.88299003e-04,
          4.19825176e-03 ]
      - [ 1.47727418e+00, 4.20092583e+00, -3.82309604e+00,
          -5.91714382e-01, -1.25118887e+00, 2.10787416e+00,
          3.00225824e-01, 1.44687724e+00, -1.08080976e-05,
          1.67024538e-01, -9.46527533e-03, -3.01687598e-01,
          1.87582240e-01, 2.10511908e-02, 5.39639080e-03,
          -6.48134016e-03, 4.27698251e-03 ]
      - [ 5.39107084e+00, 2.12458983e-01, -9.31712985e-01,
          6.74567670e-02, 1.82906723e+00, 9.51504186e-02, 4.81960446e-01,
          2.57729203e-03, -6.87906802e-01, -4.14666146e-01,
          1.51824206e-01, 1.79163888e-01, 5.50487675e-02, 3.93961519e-02,
          -3.89763974e-02, 3.08526657e-03, -6.67533418e-03 ]
      - [ -1.64332747e+00, -1.14478481e+00, 2.10414916e-01,
          -7.53294349e-01, 3.93387318e-01, -8.49071681e-01,
          7.93986581e-03, 1.69949904e-01, 7.23125696e-01, 3.60234052e-01,
          -2.05103874e-01, 5.61692379e-02, 1.25207320e-01,
          -1.89429652e-02, -5.52369468e-02, -1.49364984e-02,
          -1.63963577e-03 ]
      - [ -4.17940408e-01, 1.92307606e-01, -5.88690221e-01,
          -1.44530666e+00, -2.39700198e-01, -1.19855595e+00,
          -1.05346835e+00, -7.36084461e-01, -2.50095744e-02,
          -6.51958510e-02, 3.78407657e-01, -4.56550457e-02,
          1.05758063e-01, -9.49978530e-02, 4.93265735e-03,
          -5.44590689e-03, 9.73956008e-03 ]
      - [ 3.20189190e+00, 5.69216430e-01, 9.32981014e-01,
          -1.23454556e-01, 1.53065872e+00, 1.26865327e-01,
          1.12253642e+00, 5.89261465e-02, -2.21618369e-01,
          -1.74985990e-01, 1.17172047e-01, 2.49983907e-01,
          8.97113085e-02, 6.05568998e-02, 2.93838568e-02,
          -4.26035753e-04, -8.69875401e-03 ]
      - [ -2.00733852e+00, -1.45298851e+00, -1.37478483e+00,
          -3.35369766e-01, -4.44699854e-01, -1.30394742e-01,
          -7.50293553e-01, -5.65937579e-01, 1.68821618e-01,
          -6.20965123e-01, 4.10220832e-01, -4.42708209e-02,
          5.66763766e-02, 1.34784738e-02, 3.12049966e-02,
          -8.56819935e-03, -2.00361968e-03 ]
      - [ -2.03572512e+00, -2.98134595e-01, -1.89730263e+00,
          8.19040120e-01, 1.10705638e+00, -9.77616370e-01,
          3.60874496e-02, 2.02089489e-01, -5.47108233e-01,
          6.79075062e-01, 4.44279313e-01, 7.24456161e-02,
          -4.60214466e-01, 1.49024367e-01, -9.22958925e-02,
          8.71668756e-03, 8.55573080e-03 ]
      - [ -1.03066623e+00, 4.20442015e-01, 9.99697328e-01,
          -4.74246979e-01, 8.01812112e-01, 2.42985561e-01,
          -9.43054438e-01, 9.90682840e-01, -1.06518663e-01,
          6.68078214e-02, 3.47446986e-02, -6.02551289e-02,
          -4.79676984e-02, -3.80239845e-03, 1.97969433e-02,
          1.42733650e-02, 2.82828743e-03 ]
      - [ -1.72869301e+00, 2.20151877e+00, 1.57342076e+00,
          -3.98289651e-01, -1.21271275e-01, -1.18877077e+00,
          1.34305847e+00, 6.22022510e-01, 4.03678901e-02,
          -1.21563226e-01, 2.52042890e-01, -3.11949730e-01,
          9.02365223e-02, 5.51736122e-03, 3.35068218e-02, 3.85351712e-03,
          1.12745073e-03 ]
      - [ -2.30605245e+00, -8.52198601e-01, 5.47977507e-01,
          4.85034078e-01, -3.96824956e-01, -3.40837419e-01,
          3.11574370e-01, -4.70114589e-01, -1.67858198e-01,
          5.45945056e-02, 3.88024330e-01, -1.11552104e-01,
          3.74104232e-02, 2.34206878e-02, 1.16383051e-02,
          -1.73353925e-02, -5.97857777e-03 ]
      - [ 5.04486227e+00, -2.08044839e+00, -1.33635253e-01,
          2.65219957e-01, -1.04895854e+00, 8.81500065e-01,
          -8.91160131e-01, -8.43592286e-02, 1.39175951e-01,
          -5.94028607e-02, 5.17553806e-01, -1.91056773e-01,
          -2.52791028e-02, 4.35883999e-02, 1.13545042e-02,
          -1.73375271e-02, 3.43885017e-03 ]
      - [ 4.16236067e+00, -2.17651105e+00, -7.49227703e-01,
          -8.99757028e-01, 1.10476410e+00, -5.32904565e-01,
          3.10007632e-01, 3.72494698e-01, -3.06951523e-01,
          2.11308062e-01, 3.03547800e-04, 2.38558143e-01, 4.58140261e-02,
          6.24614721e-03, -7.55921798e-03, -1.52682257e-03,
          -6.42888248e-03 ]
      - [ 6.31831264e+00, 1.30319822e+00, 6.11635208e-01, 3.60292166e-01,
          -7.36022174e-01, 6.39401734e-01, 3.09948266e-01,
          -1.73827863e+00, 4.65796679e-01, -3.99781317e-01,
          -1.00359268e-01, -5.95878780e-01, -2.34825332e-02,
          1.74286012e-02, -2.53410786e-01, -1.84230823e-02,
          1.08708004e-02 ]
      - [ 7.38060522e+00, 9.43480492e-01, 6.30051017e-01, 7.43659198e-01,
          -1.09646320e+00, -1.26982197e-01, -4.42474157e-01,
          -7.55794942e-01, -2.75927603e-01, -5.68778992e-01,
          -1.05060562e-01, 3.60641740e-02, 4.20751348e-02,
          6.70574307e-02, -6.98788045e-03, -1.62348840e-02,
          2.06350796e-02 ]
      - [ -1.09343743e+00, 1.94180465e+00, 1.12488449e+00,
          1.27975754e-02, 8.92322302e-01, -2.82753736e-01,
          4.24062312e-01, -2.84392625e-01, 3.50458995e-02,
          -2.63412837e-02, -7.54609779e-02, -1.38491854e-01,
          2.03154176e-01, 1.72322094e-02, 2.90991063e-03,
          -2.35364307e-03, -1.84393942e-03 ]
      - [ 1.45555687e+00, -1.54857135e+00, -8.22209120e-01,
          -9.80448961e-01, 6.87863410e-01, -1.20862992e-03,
          -8.30549061e-01, 2.94531584e-01, 3.31248552e-01,
          1.31892979e-01, 2.61872500e-01, 1.68923199e-01, 1.67444423e-01,
          -2.21249405e-02, -4.91035096e-02, -1.01006422e-02,
          9.13778320e-04 ]
      - [ -1.45315289e+00, -5.71841061e-01, -1.61948001e+00,
          -7.85393044e-02, -5.93260884e-01, -2.60256839e+00,
          2.23098683e+00, 2.64767265e+00, 5.11766791e-01, 3.47787172e-01,
          2.32076824e-01, -6.78417444e-01, -2.12766945e-01,
          5.49221560e-02, 2.56556757e-02, -2.92508136e-02,
          -2.06529163e-03 ]
      - [ 8.86450863e+00, 3.66680551e+00, 2.04067445e+00,
          -2.04473853e+00, 7.30599880e-01, -3.82081658e-01,
          1.96577415e-01, -1.03311825e+00, 3.30215469e-02,
          1.87999591e-01, 1.85032204e-01, -3.17109615e-01,
          -1.92516649e+00, -1.98469445e-01, 3.19494046e-02,
          -2.19365239e-01, -4.94964756e-02 ]
      - [ -1.55293930e+00, 2.29086116e-01, 1.88966060e+00,
          2.51327634e-01, -4.90345716e-01, 1.05572200e+00,
          -5.17396867e-01, 1.35444358e-01, 2.59980738e-01,
          2.57623047e-01, -3.02942753e-01, -1.56273052e-01,
          8.52028579e-02, 2.35229470e-02, 1.99244637e-02,
          -5.33141615e-03, 4.79603157e-04 ]
      - [ -2.70881248e+00, -2.76603233e-02, 4.05783147e-01,
          -5.92685819e-01, 2.44112924e-01, -1.25127956e-01,
          9.29874182e-02, -5.89742959e-01, 6.50804460e-01,
          4.05563414e-01, 1.12806149e-02, 1.37294993e-01, 1.04780920e-01,
          1.02909356e-02, -5.83264045e-02, -1.72495693e-02,
          -7.36598624e-04 ]
      - [ -2.91764289e-01, 3.75463271e+00, -4.53676462e-01,
          5.49393952e-01, 9.90227044e-01, -4.89566863e-01,
          -7.32448697e-01, -3.39736760e-01, -1.93400607e-01,
          -2.88584501e-01, -3.28576863e-01, 2.72236496e-01,
          8.22165534e-02, -2.30459385e-02, 2.41988385e-03,
          2.01135632e-02, 4.47969825e-04 ]
      - [ -2.61092782e+00, -1.76339269e+00, -2.03532529e+00,
          -4.22127128e-01, -6.24577582e-01, -9.87427413e-01,
          4.43951398e-01, -1.53488353e-01, -6.46539807e-01,
          7.22007990e-01, -1.23369597e-01, 9.78709608e-02,
          -1.80552095e-01, 1.07562013e-01, 3.48469280e-02,
          -3.00427750e-02, 6.60436414e-03 ]
      - [ 6.60441780e+00, 5.61814308e-01, 8.35732937e-01, 1.61427832e+00,
          -5.63826621e-01, 2.78389096e-01, 9.97017682e-01,
          -9.09419656e-01, -4.34241146e-01, -4.89304900e-01,
          -4.84273076e-01, -3.96692343e-02, -2.53514685e-02,
          9.18564871e-02, 5.51619381e-03, -3.61924322e-04,
          -4.74289572e-03 ]
      - [ 3.83965224e-02, 1.76989400e+00, -1.33447659e+00,
          3.04722100e-01, 9.53653753e-01, 6.91918612e-01,
          -8.38082969e-01, -4.57461864e-01, 7.73826182e-01,
          -9.27096665e-01, 4.20089215e-02, -1.82322823e-02,
          2.15537652e-01, 1.39026958e-02, 1.79647524e-02,
          -2.81714310e-04, -4.13303496e-04 ]
      - [ 4.19340849e+00, -2.23813963e+00, -6.76491559e-01,
          9.82841372e-01, -7.04351366e-01, 4.99593794e-01,
          -1.91615708e-02, -3.95267695e-01, -3.86173069e-01,
          2.91256130e-01, 4.50453848e-01, 7.04308972e-02,
          -1.63167715e-02, -4.69194688e-02, 1.10305017e-02,
          1.42103499e-02, -6.65116869e-03 ]
      - [ 2.06281996e+00, -2.95530111e-01, -1.26611507e+00,
          1.64864683e+00, -7.50944078e-01, -1.48733079e+00,
          -1.42380965e+00, 1.10373497e+00, -2.63593227e-01,
          8.09408367e-01, -1.13275908e-01, -1.07257791e-01,
          1.92609727e-01, -4.28687893e-02, 2.28238851e-03,
          -1.37933185e-02, 6.98242895e-03 ]
      - [ -2.43564177e+00, -2.15156746e+00, -1.74530375e+00,
          -1.05714791e-01, 4.96613204e-01, 5.26756823e-01,
          3.84217352e-02, -3.38547021e-01, -2.63085842e-01,
          7.52896786e-01, 2.42818102e-01, -6.61009029e-02,
          -1.35333478e-01, 8.97279289e-03, 6.64112791e-02,
          -3.39807309e-02, 5.38103655e-03 ]
      - [ 1.25360823e+01, 2.43212175e+00, -1.45916641e+00,
          1.01876235e+00, -2.46721268e-01, -2.88731647e+00,
          -6.65307581e-01, 3.70845050e-01, -1.40063322e+00,
          8.58633593e-02, -2.02529833e-01, -1.39794278e+00,
          -1.23760736e+00, -7.87102133e-02, -9.26187783e-02,
          -1.43584022e-02, -1.46105336e-02 ]
      - [ -2.06854296e+00, -2.76493835e+00, -1.69572151e+00,
          1.90488636e-01, -2.86645651e-01, 2.77806759e-01,
          -3.43081743e-01, -4.08364534e-01, -2.37335816e-01,
          1.13501835e+00, -6.02336645e-01, -7.59553686e-02,
          -9.44324955e-02, 8.57634004e-03, 5.07219397e-02,
          -3.36035825e-02, 2.03915336e-03 ]
      - [ -1.87666190e+00, -1.81734025e+00, -8.77189171e-03,
          8.72950256e-01, -4.84957010e-01, -1.19230616e+00,
          4.16826546e-01, 2.89693832e-01, 8.86960626e-01, 9.10397768e-02,
          -2.46268120e-02, -1.29173234e-01, -2.19788253e-02,
          -9.27695364e-04, -5.50812995e-03, -2.59527862e-02,
          -4.77868225e-03 ]
      - [ -1.82503259e+00, -1.45433068e+00, 1.83505327e-01,
          6.91909492e-01, -3.82766098e-01, 3.50076497e-01,
          -1.62257597e-01, -1.50097996e-01, -1.02101713e-01,
          3.87924984e-02, -2.83060879e-01, -6.91544861e-02,
          -2.01329286e-03, 2.11011879e-02, 9.46097355e-03,
          -1.40913967e-02, -6.87968126e-03 ]
      - [ 5.32640171e+00, -2.35247612e+00, -2.45399922e-01,
          3.92982692e-01, -1.40281808e+00, -1.73568308e-01,
          -1.96040481e-01, -6.37329459e-01, -9.41086635e-02,
          1.21839128e-01, 1.15954779e-01, 7.31336102e-02, 2.38845088e-02,
          3.99972945e-02, 3.56626837e-03, -1.34811094e-02,
          -2.96199287e-04 ]
      - [ -1.57197082e+00, -5.92446327e-01, 8.44830871e-01,
          -2.69815803e-01, 8.71101201e-01, -3.80086958e-01,
          -6.42035306e-02, 1.03716385e+00, 1.53538495e-01,
          1.12618282e-01, 5.10076508e-02, -2.16283649e-01,
          -2.99329627e-02, 3.09298839e-02, 1.90777071e-02,
          -8.72661639e-03, -1.12940627e-03 ]
      - [ 1.19997847e+00, 2.15502501e+00, -3.34521794e+00,
          -1.12079442e+00, -2.00907826e+00, 1.16821162e-01,
          4.22150230e+00, 1.05938005e+00, 7.97233284e-01, 1.38006536e-02,
          -1.00775687e-02, -5.59545159e-01, -2.64409538e-02,
          -7.24225789e-02, 4.40288596e-02, 3.50803025e-02,
          -1.35506531e-02 ]
      - [ -1.70845878e+00, 1.36820352e+00, 1.86224091e+00,
          1.22152381e-01, -5.91509759e-01, 6.11861460e-02,
          -5.09455025e-01, -3.02933782e-01, -1.11655742e-01,
          6.10081032e-02, 2.76595116e-01, -1.79286346e-01,
          3.23513858e-02, -2.65943725e-02, 2.39551510e-03,
          8.43006931e-03, 3.98195116e-03 ]
      - [ 7.96665013e-01, 1.76545775e+00, -1.37729180e+00,
          -2.33046937e+00, -1.86275697e+00, 1.00292313e+00,
          -9.30201352e-01, 1.43607068e+00, -1.15563810e+00,
          2.04568971e-02, -1.68290988e-01, 1.10507274e+00,
          -1.14152801e+00, -9.01798755e-02, 8.68425332e-03,
          6.17144257e-02, -4.59668003e-02 ]
      - [ -1.80426276e+00, -1.77881253e+00, -1.15127432e+00,
          3.75729352e-01, -3.73544514e-01, -7.65713573e-01,
          -2.04932928e-01, -4.96536285e-01, -3.53455096e-01,
          3.02945495e-01, 5.08082449e-01, -1.46007389e-01,
          2.93940902e-02, 2.36767139e-02, 7.09956735e-02,
          -2.41378974e-02, -5.29547129e-03 ]
      - [ -1.40263569e+00, -2.05287024e-01, 7.42802024e-01,
          4.93054807e-01, -2.91566372e-01, 3.06151301e-01,
          2.94312537e-01, -7.12720275e-01, 3.31686214e-02,
          1.11713432e-01, 2.99371272e-01, 3.64021696e-02, 1.49061218e-01,
          1.29439612e-03, -2.81078042e-04, -6.07057987e-03,
          -1.05114821e-02 ]
      - [ 9.53455865e-01, 7.29459167e-01, -9.58185375e-01,
          1.68348897e+00, 3.81743968e-01, 9.15685356e-01,
          -7.09970236e-01, -4.17670533e-02, 2.26057738e-01,
          -5.77617168e-01, -3.08905393e-01, -1.70308482e-02,
          1.48665860e-01, 2.22799443e-02, 1.36349611e-02, 1.43758045e-03,
          -1.01683773e-02 ]
      - [ 4.33682024e-01, 1.46991646e+00, -2.59342766e+00,
          -1.78666580e+00, -1.74903727e+00, 1.45231080e+00,
          4.22021210e-01, 6.23238266e-01, 3.73156548e-01,
          -9.33554113e-01, 2.68026561e-01, -5.41894734e-02,
          1.55498147e-01, -1.76507253e-02, -9.10960138e-02,
          4.01358772e-03, 6.06181845e-03 ]
      - [ -1.25400949e+00, 2.31209016e+00, 8.90309989e-01,
          -2.48317197e-01, -3.98805499e-01, -3.79694879e-01,
          -9.97453988e-01, -3.86940956e-01, -5.46766520e-01,
          1.33221433e-01, 2.13326290e-01, 5.18865585e-01,
          -3.95108610e-01, -5.10672741e-02, -3.20519768e-02,
          7.79057369e-02, -1.64704267e-02 ]
      - [ -1.66542065e+00, 1.08134913e+00, 1.08485496e+00,
          -3.12023461e-01, 7.20618367e-01, 9.56192315e-01,
          -4.89421636e-01, 1.48010164e-01, 2.36850157e-01,
          5.10680936e-02, 2.57332534e-01, -2.01824486e-01,
          7.33092204e-02, 1.42203355e-02, 5.26219374e-03,
          -3.49586806e-03, 1.17995765e-03 ]
      - [ -2.80204892e+00, 3.75007033e-01, -3.17791057e+00,
          2.24018502e+00, 1.49148285e+00, 3.60762417e-01, 1.64816606e+00,
          -4.18566912e-01, -4.35935885e-01, 1.06064749e+00,
          4.67614681e-02, 4.55616713e-01, -5.76534629e-01,
          7.66764134e-02, -5.31874076e-02, -9.58744735e-02,
          1.48750469e-01 ]
      - [ -1.29734087e+00, 2.17541122e+00, 1.25239921e+00,
          5.73923767e-01, -1.60479471e-01, 5.40286958e-01,
          -8.11382234e-01, -9.93693694e-02, 1.49343058e-01,
          1.44730993e-02, 1.70076236e-01, -1.12721108e-01,
          1.89511180e-02, -1.44660957e-02, 6.82410225e-03,
          9.79535002e-03, 3.08992178e-03 ]
      - [ 4.17212391e+00, -1.01407146e+00, -2.04043224e-01,
          -8.62815201e-01, 1.15302157e+00, 2.77568251e-01,
          3.97659034e-01, -2.83248723e-01, -9.23481882e-02,
          -3.68438661e-01, -3.41785729e-01, 1.79604590e-01,
          2.81280186e-02, 4.49099913e-02, 8.20824131e-03, 2.18375190e-03,
          -5.77625493e-03 ]
      - [ 5.49158239e+00, -8.11509311e-01, -7.84559250e-01,
          -5.49143553e-01, 1.38108265e+00, -1.20212603e+00,
          -1.29924733e-02, 1.13875186e+00, -2.34251291e-01,
          3.18458229e-01, 4.18152094e-01, 9.70309004e-02, 1.10110313e-01,
          2.35739462e-02, -3.86033095e-02, -1.82249993e-02,
          6.14740932e-03 ]
      - [ 4.42631388e+00, -1.76540911e+00, -8.35338891e-01,
          -1.51364219e+00, 6.66326761e-01, -3.83843660e-01,
          1.82463646e-01, -7.56469846e-01, -1.30261600e-01,
          1.22920498e-01, 6.44117668e-02, -2.63021956e-03,
          5.01522273e-02, 3.18856239e-02, 2.98889331e-03,
          -9.65276547e-03, -2.04293407e-03 ]
      - [ 7.29470432e-01, 1.09413588e+00, -1.47855192e-01,
          8.52039456e-01, -5.14786303e-01, -1.04690254e+00,
          -1.12966859e+00, 1.03197187e-01, 9.13570374e-02,
          -2.68558234e-01, 9.88158658e-02, 1.07007831e-01,
          1.37763798e-01, -5.05567789e-02, 3.11866850e-02,
          -3.95693118e-03, 8.88802670e-03 ]
      - [ 4.94870931e-01, 1.77868605e+00, 5.54264113e-02, 1.35795370e-01,
          1.18835092e+00, -2.65212692e-02, -3.58629107e-01,
          4.30958457e-02, 4.38827276e-02, -2.49344334e-01,
          -7.96335265e-02, 8.44237730e-02, 2.39446878e-01,
          2.53734570e-02, 4.99636605e-02, -1.61158910e-03,
          1.87349936e-03 ]
      - [ 2.68288398e+00, 4.39210224e+00, -6.29071999e+00,
          1.99891448e+00, 1.47857535e+00, -9.25562382e-01,
          -2.29052854e+00, 6.80577457e-02, -1.28506279e+00,
          1.47519302e+00, 1.29887715e-01, -3.61804999e-02,
          1.83404088e-01, -1.71195026e-02, -2.58694366e-02,
          2.59075630e-02, -2.95349909e-03 ]
      - [ 2.79984617e+00, 4.92178297e+00, -1.52954423e+00,
          -1.17619586e+00, -9.47886884e-01, -3.91647546e-03,
          3.01705629e-01, -7.26848423e-01, -3.22018892e-01,
          -4.03288454e-01, -1.75509945e-01, 4.68260825e-01,
          -2.35654071e-01, -5.73562160e-02, 1.02104433e-01,
          -5.59079312e-02, -2.39815516e-03 ]
      - [ 4.85970879e+00, -1.79152369e+00, 6.05293475e-02,
          -1.11783695e+00, 1.16112769e+00, 5.14974773e-01,
          6.82390571e-01, -2.33530283e-01, -2.51076132e-01,
          -2.79574662e-01, -9.50828046e-02, 1.83358446e-01,
          -6.26183376e-02, 2.23257802e-02, 1.62418261e-02,
          1.06649604e-02, -5.62056480e-03 ]
      - [ 6.50230348e-01, 2.35957575e+00, -1.23415589e+00,
          1.29155552e+00, 1.80240646e-01, -6.69087470e-02,
          -1.55132926e+00, -1.65362671e-01, 3.63389432e-01,
          -5.12257636e-01, 1.18596181e-01, 1.08158737e-01,
          1.75662607e-01, -3.08899507e-02, 1.77159961e-02,
          -2.09706050e-04, 7.19254371e-03 ]
      - [ -4.00311977e-01, -2.54907370e-01, 2.44818377e+00,
          6.37335956e-01, -2.73024648e-01, -2.31353617e+00,
          1.43794179e+00, 1.37588465e+00, 7.17835605e-01, 3.56367499e-01,
          -8.05742979e-01, -7.80817628e-01, 3.82236019e-02,
          -5.61478641e-03, 4.58884612e-03, -9.29979514e-03,
          -4.73269075e-03 ]
      - [ 5.89109564e+00, -1.96018362e+00, -8.08844626e-01,
          1.81854463e+00, -7.68538713e-01, 1.38480999e-02,
          3.91467333e-01, -2.29104534e-01, -8.28946292e-01,
          3.64821643e-01, 3.77884537e-01, 1.63465410e-01,
          -3.04860659e-02, -6.65870532e-02, 2.88848840e-02,
          2.98250336e-02, -3.19256028e-03 ]
      - [ -1.20615554e+00, -1.25617111e+00, -5.66512465e-01,
          -2.75272042e-01, 8.14616084e-01, -2.26175025e-01,
          9.63962004e-02, -1.85106128e-01, 4.04938161e-02,
          -2.75127411e-01, 2.54163116e-01, 6.19430514e-03,
          8.67580622e-02, -1.23511199e-02, 2.82044616e-02,
          -1.88567699e-03, -1.10264244e-02 ]
      - [ 7.69173920e-01, -1.38692713e+00, 6.97723627e-01,
          -7.27173984e-01, 8.39836836e-01, -2.88895369e-01,
          7.66057372e-01, 1.67583093e-01, 1.26117855e-01, 3.58846188e-01,
          -7.67970443e-01, 1.98724911e-01, 1.03467606e-01,
          -2.53480300e-02, -6.23283200e-02, 5.70301618e-03,
          -1.12874191e-02 ]
      - [ 4.69051647e+00, -2.40142655e+00, -8.16463903e-02,
          -1.08722758e+00, 9.16125000e-01, -2.58188868e+00,
          8.66226792e-01, 1.48017204e+00, 6.48898542e-01,
          -1.43401958e-02, -2.27271706e-01, -5.31493843e-01,
          -4.77472097e-02, 2.11050063e-02, 4.13529910e-02,
          -1.57654490e-02, 8.79984407e-04 ]
      - [ 1.34364404e-02, 1.14580798e+00, -2.40538406e+00,
          1.38476163e-01, 8.22590053e-01, 1.83848172e-01,
          -2.35072613e+00, 2.67520845e-01, 9.17301118e-01,
          -1.99715161e+00, -2.09204018e-01, 3.35660964e-01,
          -4.59016860e-02, -5.01273312e-02, -1.42886471e-02,
          3.35667990e-02, 4.84853657e-03 ]
      - [ -9.72657323e-01, -1.10563385e+00, -3.12293023e-01,
          -4.63258743e-01, 7.25966752e-01, -3.73832881e-01,
          -2.27440968e-02, -8.08448046e-02, -2.37136541e-04,
          -1.86592996e-01, 2.83676833e-01, -1.00885620e-02,
          1.23366781e-01, -2.94991815e-03, 2.37100292e-02,
          -4.47500683e-03, -8.67046136e-03 ]
      - [ 2.61289978e+00, 5.75187542e-02, -3.02273393e-01,
          -4.86880243e-01, 9.92416322e-01, -1.20043671e+00,
          -3.89778435e-01, 9.05905247e-01, 9.43862736e-01,
          -1.23225249e-01, -8.49631429e-01, 3.54250342e-01,
          2.06208408e-01, -4.87028174e-02, -1.54178903e-01,
          -8.59916583e-03, 1.16077652e-02 ]
      - [ 6.31087780e+00, -2.47623849e+00, 3.63058686e-01,
          1.12030470e+00, -1.19603837e+00, 1.34275481e-01,
          8.65644693e-01, -7.10800767e-01, -4.40658838e-01,
          -4.25419569e-01, -2.76759505e-01, 1.40676856e-01,
          -1.31142527e-01, -4.89856340e-02, 1.30669428e-02,
          3.82487923e-02, 1.19965487e-04 ]
      - [ 3.87241983e+00, -1.79873192e+00, 1.30721200e+00,
          8.34114969e-01, -1.13998735e+00, 5.78723431e-01,
          4.72444624e-01, -3.17417800e-01, -2.38440782e-01,
          6.16905838e-02, -2.22025797e-01, 1.95471361e-01,
          -8.52148980e-03, 3.43596265e-02, 2.66152062e-02,
          2.95887887e-03, -7.01409765e-03 ]
      - [ 1.69704151e+00, 4.99862957e+00, -4.77057409e+00,
          -1.85858142e+00, -2.71336627e+00, 1.23344827e+00,
          4.09833103e-01, 1.58388305e+00, 2.66264379e-01, 3.65325123e-01,
          3.80137861e-01, -1.40265971e-01, -5.37012517e-01,
          -1.15271345e-01, 6.68690279e-02, -5.50873578e-02,
          -1.53365722e-02 ]
      - [ -3.93296301e-01, 2.04362422e-01, -8.69475007e-01,
          1.28374028e+00, 1.95672524e+00, 2.80498123e+00,
          -2.51371980e-01, 6.79183781e-01, 5.96883655e-01,
          -5.83509982e-01, -5.23456335e-01, -2.19055325e-01,
          -1.00393988e-01, -9.98419821e-02, 5.52385189e-02,
          4.55715060e-02, -7.67176878e-03 ]
      - [ 5.54908991e+00, -2.42037177e+00, -4.24144447e-01,
          -1.18318701e+00, 1.06395757e+00, -1.20182753e+00,
          6.17180407e-01, 6.98640525e-01, -1.52627721e-01,
          1.47147194e-01, -1.91861138e-01, -5.45096537e-03,
          -2.11787689e-02, 4.90079224e-02, 5.09238206e-02,
          -9.31084994e-03, -3.09494068e-03 ]
      - [ 4.69054842e+00, -1.38817763e+00, -1.12840223e+00,
          -2.82617688e-01, 1.55401599e+00, -2.52175815e-02,
          2.50058979e-01, 5.52705526e-01, -4.61859465e-01,
          4.26815599e-01, 3.77495080e-01, 2.78930068e-01, 4.89618368e-02,
          -8.88829585e-03, -3.78481820e-02, -5.25173673e-04,
          -7.37889390e-03 ]
      - [ 3.54630923e+00, 3.79281855e+00, -5.93551159e+00,
          2.02193618e+00, 8.89120221e-01, -1.70195019e+00,
          1.01909673e+00, 1.43040979e+00, -1.56588227e-01,
          1.33320343e+00, 2.86809623e-01, -7.94474006e-01,
          2.60356963e-01, 1.88981220e-02, 5.40779978e-02,
          -1.59332566e-02, -1.55506264e-02 ]
      - [ 9.23715830e-01, 2.35371780e+00, -1.83773398e-01,
          9.88450050e-02, 1.17331886e+00, -2.89993793e-01,
          -1.08141434e+00, 3.80878359e-01, -1.52243018e-01,
          -3.20426762e-01, 9.53945443e-02, 1.63308427e-01,
          1.05086133e-01, -5.20912260e-02, -5.71788056e-03,
          -2.17800657e-03, 7.97416549e-03 ]
      - [ -9.48150098e-01, 1.29070091e+00, 2.85611653e+00,
          3.18403780e-01, -8.70950520e-01, -4.03416574e-01,
          6.77269772e-02, -7.26834759e-02, -9.61299986e-02,
          1.91653892e-01, -8.25203836e-01, -9.47260112e-02,
          1.26487926e-01, -2.00361535e-02, -1.99953280e-02,
          3.19890562e-03, 6.08486356e-03 ]
      - [ 2.42717236e-01, 2.33821821e+00, -9.22554791e-01,
          8.03945303e-01, 2.41805404e-01, -1.37158298e+00,
          -4.63455856e-01, -1.00486726e-01, 3.00229669e-01,
          -6.71098709e-01, -8.49104822e-02, -9.99494419e-02,
          1.87992543e-01, -3.05050611e-02, 1.84336193e-02,
          3.38284741e-03, 5.48524875e-03 ]
      - [ -7.07347214e-01, -1.46662438e+00, -2.55287814e+00,
          -9.76057470e-01, -8.14614415e-01, 9.63004351e-01,
          6.43409550e-01, -5.20104051e-01, -1.14844777e-01,
          7.31793702e-01, 5.08759558e-01, -4.17118728e-01,
          3.12074777e-02, -1.05552867e-01, 7.83171877e-02,
          2.32337993e-02, -1.28637962e-02 ]
      - [ 3.66331387e+00, -2.27727818e+00, -7.35999584e-01,
          -2.02594209e+00, 2.52868563e-01, -4.48143214e-01,
          -5.92553794e-01, -4.86983716e-01, 7.34512284e-02,
          -2.40652245e-02, -6.23970926e-01, -6.61036596e-02,
          8.44284743e-02, 2.45939251e-02, 1.29907029e-02,
          -7.70894252e-03, 5.86455734e-03 ]
      - [ -6.21662080e-01, -3.07469875e-01, 1.10037521e-01,
          -1.04267621e+00, 2.74509758e-01, -1.35331905e+00,
          -8.07045221e-01, 3.25000465e-01, 1.27721414e-01,
          1.20761141e-01, 3.35764945e-01, 1.26879200e-01, 9.96152908e-02,
          -6.39365911e-02, 6.08661538e-03, -2.17790584e-04,
          7.85802025e-03 ]
      - [ -1.14308703e+00, 8.95957530e-01, 3.21089625e+00,
          -2.14439347e-01, -1.31992030e+00, -4.51725334e-01,
          -5.02746880e-01, 4.63272519e-02, -2.33091190e-01,
          3.29154193e-01, -6.95034623e-01, 3.14433090e-02,
          -1.80778533e-01, -6.92331418e-02, 2.30694935e-02,
          5.31243440e-03, 2.90657161e-04 ]
      - [ 5.37640429e+00, -1.73335969e+00, 5.12618244e-01,
          5.34997165e-01, -1.11159909e+00, 8.03666189e-02,
          9.64539289e-01, -1.26848602e+00, 1.28461877e-02,
          -1.95793524e-01, -1.50325065e-02, -1.04447834e-01,
          -9.68259647e-02, -1.39210047e-02, -3.68988253e-02,
          1.10807559e-02, -3.33951972e-03 ]
      - [ -9.60343540e-01, 2.34471774e+00, -2.20576644e-01,
          -6.85705125e-01, -3.35658133e-01, -8.55078936e-01,
          -5.88332750e-02, -1.65088356e-01, -1.78393275e-01,
          -9.74512547e-02, 2.86465019e-01, 2.72909909e-01,
          9.67135355e-02, -5.54695614e-02, -1.99633092e-02,
          8.90045054e-03, 4.16802755e-03 ]
      - [ 1.99511516e+00, 2.78464198e+00, -1.13881874e+00,
          2.53071934e-01, 3.56839336e-02, -2.04368925e+00,
          1.28197181e+00, 6.53315842e-01, 1.46833551e+00,
          -1.03197229e+00, 1.43125162e-01, -1.09549141e+00,
          5.80895878e-02, -1.83499120e-02, 6.14907593e-03,
          -8.77440441e-03, 5.50602423e-03 ]
      - [ 2.94910598e+00, -2.03006697e+00, -5.40871143e-01,
          -1.15367043e+00, 7.24148750e-01, -1.55470952e-01,
          -2.14412361e-01, 5.20099223e-01, 1.38911164e+00,
          6.87668622e-01, -1.89534545e-01, 5.84455490e-01,
          1.46372989e-01, -5.01363240e-02, -2.13226825e-01,
          -2.21806169e-02, 2.21707439e-03 ]
      - [ 7.84176648e-01, 4.26247090e-01, 3.01096797e+00,
          -4.03868288e-01, -1.14898038e+00, 6.11646354e-01,
          -7.72329450e-01, 4.99754623e-02, -3.44525576e-01,
          2.22755402e-01, -7.16570795e-01, 1.14038415e-01,
          2.85961423e-02, -2.78953370e-02, 2.00502891e-02,
          -8.91329069e-03, 1.24257291e-02 ]
      - [ 5.47257233e+00, -1.74327397e+00, 1.55081809e-01,
          -1.28621709e+00, 1.01485431e+00, -3.56075525e-01,
          1.56643987e+00, -7.76852548e-01, 2.33533122e-02,
          -1.58095643e-01, -2.92776763e-01, -1.70238957e-01,
          -1.37240425e-01, -2.06250995e-02, 7.54459202e-03,
          2.08783448e-02, -3.53551749e-03 ]
      - [ -1.25835323e+00, -1.61314964e+00, 3.72197837e-01,
          5.41836917e-01, -6.02782786e-01, 3.92497331e-01,
          -5.33432841e-01, 1.18054293e-01, -4.71473783e-02,
          5.32610752e-02, -2.61852890e-01, -9.09598842e-02,
          4.66215760e-02, 1.03982566e-02, -1.80024153e-03,
          -9.52148251e-03, -6.21792581e-03 ]
      - [ -1.02347338e+00, 2.20063257e+00, -1.55331194e+00,
          8.07554424e-01, 3.58016104e-01, 3.50832641e-01,
          -1.22781610e+00, 7.68586695e-02, 2.82115862e-02,
          -1.03678381e+00, 1.05762638e-01, 3.55059326e-01,
          -6.85088113e-02, 4.32094783e-02, 4.60057287e-03,
          4.72515449e-02, -2.31534312e-03 ]
      - [ -1.43861783e+00, -4.21618134e-01, 1.26997089e+00,
          -1.51368856e+00, -6.81149587e-02, -6.91284597e-01,
          -1.73563048e-01, -4.29673225e-01, -3.71313468e-02,
          4.29131806e-01, -6.07354701e-01, -3.28106284e-02,
          1.85965851e-01, -1.73930898e-02, 2.06717681e-02,
          -3.11086740e-04, 4.38658614e-03 ]
      - [ 4.51038510e-01, 3.73373628e+00, -2.05284977e+00,
          6.01872146e-01, 5.85358083e-01, 3.35224986e-01,
          -2.62590945e-01, -7.93710291e-01, 2.27437943e-01,
          -5.03435656e-02, -5.59128463e-01, -1.74797162e-01,
          3.08832198e-01, 7.46424589e-03, -3.38263921e-02,
          -3.19331908e-03, -3.16726742e-04 ]
      - [ -1.60977137e+00, 6.18064284e-01, 1.14292932e+00,
          -6.62968218e-01, 5.43981671e-01, 6.31376386e-01,
          -7.54205346e-01, 2.69122839e-01, -1.08239695e-01,
          3.30493525e-02, 3.06108028e-01, -2.22597063e-01,
          1.94482245e-02, -1.42025761e-02, -1.94849651e-02,
          5.79016283e-03, 3.53769027e-03 ]
      - [ -8.42465818e-01, -8.84370625e-01, 7.65510440e-01,
          4.78458077e-01, -5.72216809e-01, 4.28660244e-01,
          -5.82894623e-01, 8.92484635e-02, -1.49134457e-01,
          -1.54530546e-02, 3.11523914e-01, -9.97356847e-02,
          1.09549455e-01, 8.40593316e-03, 1.36953145e-02,
          -6.68789819e-03, -3.39517160e-03 ]
      - [ 4.36601448e+00, -1.30067384e+00, 1.22596097e+00,
          2.14795065e+00, -6.14701629e-01, 1.12646568e+00,
          8.86574745e-01, 2.02949122e-01, -4.94989336e-01,
          -2.03877226e-01, 1.46453619e-01, 2.60338187e-01,
          -8.69464651e-02, -9.15425718e-02, 4.16342989e-02,
          5.49759753e-02, -1.56721787e-03 ]
      - [ 3.50413211e-02, 1.15896773e+00, 1.89532471e+00,
          -2.56796181e-01, 1.08167005e+00, 1.41744807e-01,
          9.08102915e-02, 9.29452360e-01, 2.38347501e-01, 1.25480264e-01,
          -2.09114492e-01, 6.59167096e-02, 1.58970147e-01,
          1.35420654e-02, 2.41080811e-03, -4.28830832e-03,
          3.65791772e-03 ]
      - [ 4.77616882e+00, -2.58320713e+00, 2.27351755e-01,
          -1.21776962e+00, 1.14490938e+00, 5.26004553e-01,
          4.42267776e-01, 4.70504999e-01, -3.12138319e-01,
          -1.21076204e-01, -7.89522409e-01, 2.32114419e-01,
          -7.65718073e-02, 2.80748475e-02, 2.91463509e-02,
          1.27786854e-02, -6.43701758e-03 ]
      - [ -1.30405557e+00, -1.74255311e-01, 7.71895885e-01,
          6.60275966e-02, -5.03863871e-01, 4.50096428e-01,
          -6.96847439e-01, -2.06592962e-01, 6.63238466e-02,
          4.66660820e-02, 3.14419478e-01, -2.46136159e-01,
          1.11399636e-01, -1.24737676e-02, -2.13428400e-02,
          -5.61457360e-03, 1.20010530e-03 ]
      - [ 3.21089685e-01, 3.18462777e+00, -2.32095361e+00,
          -2.90764660e-01, -3.79327863e-01, -3.39470714e-01,
          -2.84544230e-01, -3.79241139e-01, -6.02988750e-02,
          -4.54731882e-01, -9.04048979e-01, 3.10781896e-01,
          2.83947349e-01, 1.59287837e-03, 5.49103506e-02, 7.09787896e-03,
          5.50885405e-03 ]
      - [ -1.27918273e-01, 3.24325800e+00, 1.43051791e+00,
          3.72220464e-02, 9.26111162e-01, -1.13016975e+00,
          -2.62770504e-01, 4.99785304e-01, -2.00369567e-01,
          1.06061988e-01, -4.69660878e-01, 2.77309477e-01,
          -2.20385328e-01, -5.26187904e-02, 4.11017202e-02,
          1.76838748e-02, -7.72263156e-03 ]
      - [ -2.08990768e-01, 2.18452716e+00, -3.21206689e+00,
          -4.26411361e-01, -9.36421096e-01, 1.26614049e-01,
          1.26934183e+00, -1.21593289e-01, -4.72586863e-02,
          4.27402705e-01, -6.20216355e-02, -1.81674600e-01,
          2.48368710e-01, 8.15719739e-03, -1.98451113e-02,
          -7.84217287e-03, -1.14809619e-02 ]
      - [ -1.68041456e+00, 1.11323261e+00, 1.17680097e+00,
          2.72767544e-01, -5.24579406e-01, 1.99483726e-02,
          -8.31556618e-01, -1.40347451e-01, -7.23073334e-02,
          1.66539311e-01, -2.96748042e-01, -7.84179270e-02,
          -3.97043042e-02, -1.06324200e-02, -1.34969195e-02,
          2.30548680e-02, 9.21208353e-04 ]
      - [ -1.43052864e+00, 2.44371891e-01, 2.48721862e+00,
          -8.08471799e-01, -8.73935699e-01, 7.66031682e-01,
          -7.28700757e-01, -2.00952411e-01, -9.83201936e-02,
          3.12893152e-01, -7.10462511e-01, -2.10850880e-01,
          5.61321899e-02, -2.72512883e-02, 4.78048297e-03,
          3.41345905e-03, 7.13749044e-03 ]
      - [ -2.17734551e+00, -1.40237585e-01, -2.53867596e-01,
          1.14181256e+00, -1.24287508e-01, -3.14021289e-01,
          -1.94499418e-01, -1.93475485e-01, 7.11195767e-02,
          -2.25389272e-01, 1.46852821e-01, 6.41570315e-02,
          -9.27413106e-02, 7.15964884e-02, -2.56282687e-02,
          -1.32994102e-02, 1.20358123e-03 ]
      - [ -7.78711379e-01, -1.46053839e+00, 1.55361402e+00,
          9.17597592e-01, -1.35490656e+00, 7.55077973e-02,
          -5.56795120e-01, 7.45380163e-01, 3.33865851e-01,
          4.09008056e-01, -7.13368237e-01, -1.20966844e-01,
          6.53488860e-02, -1.34510063e-02, -7.42575079e-02,
          -9.29949619e-03, -6.80423400e-05 ]
      - [ 5.44600201e+00, -2.16398931e+00, -2.68322676e-01,
          9.93120432e-01, -1.23626089e+00, -3.28721255e-01,
          -6.73115253e-02, -2.60070741e-01, -4.08368617e-01,
          6.45168871e-02, 5.14655352e-01, 2.37448543e-01, 4.31257635e-02,
          4.21873108e-02, 2.89657339e-02, -1.07709160e-02,
          -2.57427082e-03 ]
      - [ 5.39924920e-01, -2.23058891e+00, -7.08295941e-01,
          -9.10719097e-01, 5.38084149e-01, -1.46457207e+00,
          -2.38116264e-01, 7.17456222e-01, 5.21034539e-01,
          2.18418956e-01, -6.91360414e-01, 3.68309580e-03,
          1.48667872e-01, -4.02128622e-02, -5.92676029e-02,
          -6.54988131e-03, -2.99158902e-03 ]
      - [ -2.06552148e+00, 7.95566082e-01, 2.68186986e-01,
          7.28721023e-01, 5.90379499e-02, 1.23458698e-01, 3.67488533e-01,
          -7.76197255e-01, -9.24441591e-02, -1.02083184e-01,
          2.73619890e-01, -8.13285187e-02, 1.13157265e-01,
          2.80814748e-02, -8.04026145e-03, -1.24159707e-02,
          -7.58596510e-03 ]
      - [ 4.75557375e+00, -9.27906632e-01, -9.65319872e-01,
          -6.92539394e-01, 1.23260045e+00, -6.06826544e-01,
          1.71994995e-02, 2.31792971e-01, -4.76310074e-01,
          2.09047511e-01, 4.32496965e-01, 2.75482804e-01, 1.34956256e-01,
          3.26103978e-02, -2.36062128e-02, -1.25125526e-02,
          -1.58904106e-04 ]
      - [ -9.77539361e-01, -2.52892900e+00, -7.06782103e-01,
          5.20485997e-01, -9.16664243e-01, -3.29920948e-01,
          -8.27503264e-01, 1.02371529e-01, -8.48496519e-03,
          4.74073797e-01, -6.37593269e-01, -4.18982096e-02,
          5.83199486e-02, -1.48833997e-03, -8.20478983e-03,
          -1.62119381e-02, -4.88999346e-03 ]
      - [ 5.92427492e+00, -2.10804749e+00, -1.04080498e-01,
          8.93918097e-01, -1.37232685e+00, -1.85348272e-01,
          -4.19405043e-01, -9.41356122e-02, -4.62980747e-01,
          -1.22621715e-01, 5.61286330e-01, 1.99733779e-01,
          4.41990457e-02, 5.71959876e-02, 1.72972791e-02,
          -1.45093836e-02, 2.82260217e-03 ]
      - [ -1.05221057e+00, 2.32286882e+00, 5.35312712e-01,
          -6.71153307e-01, 6.20079488e-02, 8.63647833e-02,
          -2.74644762e-01, -8.36459458e-01, 1.86652895e-02,
          1.33305505e-01, -8.30545247e-01, 2.92559760e-03,
          2.13990375e-01, -5.62061649e-03, 2.90891398e-02,
          3.40064475e-03, 5.00713941e-03 ]
      - [ 1.71503496e+00, 2.48104429e+00, -1.70728981e+00,
          -2.40384266e-01, 6.72330022e-01, -1.66314328e+00,
          -1.82281780e+00, -1.43207774e-01, -4.35224593e-01,
          -2.71013975e-01, -8.17387998e-01, 8.36630225e-01,
          -7.61919141e-01, -1.19059116e-01, 3.76242884e-02,
          2.71164048e-02, -3.39173414e-02 ]
      - [ 3.88117373e-01, -5.42239249e-01, 7.48700917e-01,
          1.25124800e+00, -4.42578167e-01, -5.54535866e-01,
          4.70231503e-01, 7.68899322e-02, -8.47159773e-02,
          -1.16355702e-01, 3.93681139e-01, -8.35303217e-02,
          1.19569570e-01, -6.13327697e-03, -2.98573845e-03,
          -1.93680031e-03, -1.07633956e-02 ]
      - [ -4.28759068e-01, -1.91374481e+00, -3.88754368e-01,
          -2.64880180e-01, 1.00044703e+00, 1.96006790e-01,
          5.21815777e-01, -5.85501865e-02, 3.77559960e-02,
          1.25347925e-02, -3.22287828e-01, 1.19506322e-01,
          3.66625860e-02, -1.01520963e-01, 5.05783223e-02,
          3.67178991e-02, -1.12413969e-02 ]
      - [ 5.81642509e-01, 2.98658848e+00, -3.57302308e+00,
          -1.57500222e-01, -8.81778955e-01, 2.03404427e+00,
          1.40455019e+00, 6.84072375e-01, -4.75640409e-02,
          1.83195323e-01, 1.83160320e-01, -1.90140158e-01,
          1.56654149e-01, 4.33067381e-02, 5.18281534e-02,
          -1.03555899e-03, -1.60001460e-02 ]
      - [ 4.03060293e+00, 3.12384367e+00, -4.24236822e+00,
          -1.68252695e+00, -1.92398942e+00, -1.39994884e+00,
          9.80932236e-01, 9.81528640e-01, -2.74973184e-01,
          7.28799701e-01, -6.03468895e-01, -2.34016925e-01,
          8.42994675e-02, -3.72828357e-02, 3.18705142e-02,
          -2.43196059e-02, 1.13529479e-02 ]
      - [ -1.74819124e+00, 6.00573480e-01, 2.76570868e+00,
          1.15853228e-01, -1.05033970e+00, 3.29767093e-02,
          -5.02846003e-01, 1.40740514e-01, -1.60749257e-01,
          2.18898609e-01, -2.48775855e-01, -6.22390918e-02,
          -2.89404113e-02, -1.88868977e-02, 1.55799715e-02,
          1.38203306e-02, 3.50266602e-03 ]
      - [ -2.40928817e+00, -2.71495789e-01, 8.95072699e-01,
          3.39785740e-02, -5.80364823e-01, -3.76728326e-01,
          -2.08179444e-01, -4.34197873e-01, -2.66764522e-01,
          1.08005859e-01, 3.52440774e-01, -3.35785039e-02,
          3.81007828e-02, 1.71981547e-02, -2.15714592e-02,
          -1.47252204e-03, 4.71486914e-04 ]
      - [ -2.53767753e+00, -2.14203525e+00, -1.38674185e-01,
          -6.76025629e-01, 3.80220979e-01, 2.28602245e-01,
          2.42183909e-01, -4.53086734e-01, -1.03060603e-01,
          2.92026907e-01, -7.35739112e-01, 2.10624263e-02,
          -1.82820335e-02, 2.79935938e-03, 3.28322127e-02,
          -9.71511472e-03, -7.01445434e-03 ]
      - [ 3.04269409e+00, 5.05078793e-01, 1.43334293e+00, 1.61090672e+00,
          -1.44240248e+00, -7.20198512e-01, -1.17999756e+00,
          1.24150753e+00, -1.75038680e-01, 4.37837727e-02,
          -7.67145455e-01, 3.79501283e-02, -2.57050544e-02,
          -3.07064857e-02, 8.20853710e-02, -1.81618650e-02,
          1.15037598e-02 ]
      - [ 4.22021449e-01, -2.24924827e+00, -8.02335501e-01,
          -5.77678204e-01, 9.04006064e-01, 4.09515172e-01,
          -6.57264769e-01, 8.18709493e-01, 2.40561709e-01,
          3.48399043e-01, -2.61595547e-01, 6.68627303e-03,
          6.85608089e-02, -2.24585179e-02, -6.19144691e-03,
          -5.04253758e-03, -9.33588296e-03 ]
      - [ 4.93691730e+00, -2.17401361e+00, -8.09192359e-01,
          -1.37923968e+00, 8.96860838e-01, 7.33102411e-02,
          1.42214686e-01, -3.52005333e-01, -3.95381868e-01,
          1.83373213e-01, -1.94018096e-01, 1.00194082e-01,
          2.99126352e-03, 2.85216793e-02, 3.01177730e-03,
          -2.26928154e-03, -4.42609144e-03 ]
      - [ 5.22459221e+00, -9.06725764e-01, -9.19917524e-01,
          -9.37817037e-01, 1.20767593e+00, 8.01874280e-01,
          -6.99648380e-01, 3.36797267e-01, -1.73278913e-01,
          3.01938117e-01, 4.04114604e-01, -1.29357904e-01,
          3.37368846e-02, 4.01891693e-02, -2.41049901e-02,
          -1.72498375e-02, 3.55696236e-03 ]
      - [ -1.77618670e+00, -4.20699745e-01, -7.55607188e-02,
          -3.73433143e-01, 5.70439517e-01, -6.60866439e-01,
          1.30881771e-01, -2.96146214e-01, -3.11139803e-02,
          -7.34280422e-02, 4.44254100e-01, 1.92502905e-02,
          1.29410997e-01, 9.83270630e-03, 5.98097639e-03,
          -1.09286783e-02, -4.63345600e-03 ]
      - [ 1.38567889e+00, 3.05661035e+00, -3.39113498e+00,
          -1.24927187e+00, -1.62955093e+00, 1.83765435e+00,
          9.93633747e-01, 5.54127455e-01, 3.68243724e-01, 2.60921150e-01,
          -3.74995500e-01, -4.11782861e-01, 1.79012060e-01,
          3.39549035e-02, -2.68286094e-02, -8.11680593e-03,
          -1.50067790e-03 ]
      - [ -8.12655866e-01, -9.58925486e-01, 5.18685281e-01,
          -2.01735482e-01, 1.06956720e+00, 7.29691923e-01,
          3.29129368e-01, 2.34188378e-01, -1.11144960e-01,
          2.96373554e-02, 2.84196019e-01, -1.54740158e-02,
          4.72343564e-02, -1.21228378e-02, 3.50940898e-02,
          4.60597966e-03, -1.34427445e-02 ]
      - [ 4.53274202e+00, -1.92825294e+00, -3.70726846e-02,
          -1.21265519e+00, 1.05835700e+00, 8.05719912e-01,
          6.01028442e-01, -4.52158213e-01, -1.67292416e-01,
          -2.49699712e-01, -3.27954203e-01, -3.40339653e-02,
          -1.03042334e-01, -9.07314941e-04, 1.25292903e-02,
          1.76401045e-02, -6.01476990e-03 ]
      - [ -6.98016346e-01, 7.79687107e-01, 1.14366031e+00,
          8.09854865e-01, -1.06717490e-01, 1.12727463e+00,
          -3.97301942e-01, -2.00785906e-03, 2.87253439e-01,
          1.79587919e-02, 1.78119317e-01, -1.41474426e-01,
          1.34506062e-01, 2.01622508e-02, -1.01647596e-03,
          -8.11751373e-03, -3.30255553e-03 ]
      - [ -2.17239165e+00, -1.17805377e-01, 6.06704414e-01,
          -1.06799436e+00, -8.08593392e-01, 8.27122927e-01,
          4.45823401e-01, -8.25847983e-01, 2.72989511e-01,
          3.27980340e-01, -7.12599397e-01, -3.29970956e-01,
          1.22376569e-01, 1.35513686e-03, -2.81571280e-02,
          -3.22755612e-03, -8.09084717e-03 ]
      - [ -2.27762008e+00, 7.41732642e-02, 1.16748130e+00,
          -5.62025547e-01, 4.78531420e-01, 4.64038789e-01,
          3.85720521e-01, -4.54958320e-01, 6.64976120e-01,
          4.52870339e-01, -2.62657218e-02, 1.14698045e-01,
          1.46609455e-01, 1.77339651e-02, -2.28000269e-03,
          -1.54684493e-02, -6.54240046e-03 ]
      - [ 8.98450315e-01, 9.89390850e-01, -1.45261002e+00,
          -2.70582223e+00, -2.20161152e+00, 1.90014684e+00,
          1.77821741e-01, 7.27668762e-01, 4.20273513e-01,
          -4.26455319e-01, 3.36878270e-01, -2.12256089e-01,
          3.68526578e-02, -2.94326972e-02, -4.41306457e-02,
          -6.40572701e-03, 1.38861872e-02 ]
      - [ 2.13860467e-01, -1.55355024e+00, -8.65628541e-01,
          3.44265312e-01, -9.88785923e-01, -1.11730051e+00,
          -1.02732456e+00, -1.49671063e-01, 6.64224267e-01,
          -5.74992120e-01, 1.35869384e-01, 7.67759457e-02,
          1.92805871e-01, -5.96158877e-02, -8.20082352e-02,
          -4.05090209e-03, 4.60419990e-03 ]
      - [ -1.03492510e+00, -1.33494186e+00, 1.17890015e-01,
          5.98466516e-01, -5.87530911e-01, -2.74015754e-01,
          -1.16600230e-01, -3.41955841e-01, -1.92585781e-01,
          -1.16527602e-01, 2.29626223e-01, -6.70820326e-02,
          1.09527163e-01, -5.61117195e-03, 1.22537687e-02,
          -4.85820463e-03, -9.13183764e-03 ]
      - [ 3.01520395e+00, 3.93129516e+00, -4.18146372e+00,
          1.55079424e+00, 7.39540875e-01, -1.11422753e+00,
          -2.07336950e+00, -4.20849919e-01, -9.66274559e-01,
          1.04345310e+00, 1.72355473e-01, 1.39741853e-01, 2.15279162e-01,
          -9.46014151e-02, -4.60913964e-02, -1.52596980e-02,
          4.88170609e-03 ]
      - [ 1.73742425e+00, 5.05887222e+00, -2.64915037e+00,
          2.63434440e-01, -1.19522735e-01, -5.28253317e-01,
          -6.90314591e-01, -5.35871208e-01, 3.70472699e-01,
          -9.90186274e-01, -1.14772975e-01, -5.91375306e-02,
          -1.91957951e-01, -1.00536339e-01, 4.60416563e-02,
          -3.07788234e-02, -3.39243631e-03 ]
      - [ 4.81416130e+00, 1.62346852e+00, 1.83516562e+00, 1.30791235e+00,
          -4.97680128e-01, 1.39582288e+00, -8.49949241e-01,
          5.39077997e-01, -3.34585994e-01, -4.20803905e-01,
          1.32631361e-01, -1.31536230e-01, 1.53772067e-02,
          5.44352457e-02, 2.81086396e-02, -1.14656892e-02,
          1.50452321e-02 ]
      - [ 8.94052163e-03, -1.42803931e+00, 1.95766866e+00,
          9.52525139e-01, -7.52990007e-01, 1.50218940e+00,
          -5.19564331e-01, 1.03120768e+00, 5.90954460e-02,
          1.98466122e-01, -3.23857218e-01, -1.90335363e-01,
          9.92381666e-03, 2.81255338e-02, 3.01454831e-02,
          -4.77496162e-03, -7.58470362e-03 ]
      - [ 5.19139147e+00, -2.10613322e+00, 8.23024988e-01,
          1.44242740e+00, -1.20011437e+00, -3.54757428e-01,
          7.21225739e-01, 9.28054079e-02, -2.07186252e-01,
          -3.18072051e-01, 3.80031049e-01, 1.73901170e-01,
          -5.07257953e-02, 1.40896598e-02, 3.85363540e-03,
          3.53257987e-03, -5.22991223e-03 ]
      - [ -3.24084544e+00, -1.06952763e+00, -6.97656125e-02,
          -1.32869199e-01, 6.04021549e-01, 1.07677497e-01,
          2.97595203e-01, -3.22725594e-01, -2.52183169e-01,
          4.41957116e-02, 3.31769764e-01, 7.97524452e-02,
          -2.28683889e-01, 1.05413683e-01, -2.50751525e-03,
          -2.89286412e-02, 7.11506652e-03 ]
      - [ 2.22669579e-02, -8.04321706e-01, 1.56602550e+00,
          8.11460495e-01, -1.09610343e+00, -1.48038805e-01,
          -1.94968104e-01, 2.47728974e-01, -1.11730456e-01,
          1.72056198e-01, -2.09893122e-01, 2.01202910e-02,
          1.59069553e-01, 2.02240795e-02, 3.60334516e-02,
          -4.97682206e-03, -2.16412591e-03 ]
      - [ 1.06261158e+00, 4.96673441e+00, -1.15024638e+00,
          -8.08078706e-01, -9.92446363e-01, 2.68791616e-01,
          6.33969963e-01, -2.19085604e-01, -2.17179254e-01,
          -4.99087662e-01, 2.65110642e-01, 4.25778359e-01,
          7.78948665e-02, -1.45537192e-02, 1.06367767e-01,
          -1.97232570e-02, 5.64981438e-03 ]
      - [ -1.71652806e+00, -3.21997941e-01, -2.45903897e+00,
          -7.50419259e-01, -5.17627120e-01, 1.32067189e-01,
          -8.45524788e-01, 2.13116892e-02, 5.16425192e-01,
          -1.65138519e+00, -1.80645883e-01, 2.39717245e-01,
          4.20362800e-02, 7.84610678e-03, -3.20664644e-02,
          1.63052250e-02, 2.55070836e-03 ]
      - [ 6.36001647e-01, 1.49429530e-01, 2.25003815e+00, 7.51270652e-02,
          1.28104448e+00, -1.69948316e+00, 1.36306310e+00,
          2.27917361e+00, 1.36581504e+00, 3.73239696e-01, 1.95096135e-01,
          -3.38846803e-01, 5.60476705e-02, -5.59936017e-02,
          -1.76798776e-01, -1.85083747e-02, 6.97597454e-04 ]
      - [ 5.98770189e+00, -2.77805090e-01, 2.21933889e+00,
          3.56472373e-01, -1.00788295e+00, 1.84678388e+00,
          2.72464957e-02, -3.17740887e-01, 2.05191046e-01,
          -6.15578108e-02, -3.65219861e-01, -4.04944360e-01,
          -1.13371372e-01, 9.34350044e-02, -4.01517339e-02,
          -1.74765326e-02, 6.44307397e-03 ]
      - [ 5.13487530e+00, -2.26029658e+00, -5.92866004e-01,
          -1.16642368e+00, 1.09827352e+00, -1.74542353e-01,
          4.21859846e-02, 4.85478848e-01, -3.44687194e-01,
          1.09407805e-01, 5.82748512e-03, 2.71099865e-01, 2.54466645e-02,
          4.20202836e-02, 1.07570821e-02, -7.36626936e-03,
          -2.43279105e-03 ]
      - [ -7.16048991e-04, 1.90123081e+00, -4.96453190e+00,
          2.61153787e-01, -4.69711810e-01, 4.55674604e-02,
          -1.22026363e-02, 3.11570406e-01, -7.16829121e-01,
          1.32714725e+00, -6.65266573e-01, 8.90806839e-02,
          2.13275567e-01, 5.71961105e-02, 5.18671237e-03,
          -2.26243138e-02, -5.18023688e-03 ]
      - [ -2.30739325e-01, -3.79109681e-01, -5.45102842e-02,
          -3.22486854e+00, -2.21800685e+00, 1.49554539e+00,
          -5.08733034e-01, 6.39521182e-01, 1.26445785e-01,
          3.09646696e-01, -5.57315826e-01, -4.50833030e-02,
          -4.69508320e-02, -5.45189492e-02, 3.74118313e-02,
          -1.13151781e-02, 1.22091006e-02 ]
      - [ -1.05020618e+00, 1.22665215e+00, 1.33503628e+00,
          7.51383305e-01, 6.10198751e-02, 1.39029479e+00,
          -4.23647672e-01, 3.89360413e-02, 1.50640756e-01,
          -2.11973651e-03, -2.36965477e-01, -2.69998133e-01,
          1.04762174e-01, 3.73831689e-02, 2.30332483e-02,
          -4.62991185e-03, -3.24315135e-03 ]
      - [ 5.53122091e+00, -6.41477168e-01, 1.96875858e+00,
          1.61080763e-01, -1.42569065e+00, 2.50921786e-01,
          4.78832722e-01, -9.33187187e-01, -4.27156687e-01,
          -1.06731854e-01, -2.39804566e-01, -1.80304289e-01,
          -5.76884765e-03, 7.34766200e-02, -5.32311611e-02,
          -1.24976132e-02, 6.50475780e-03 ]
      - [ -2.53632665e+00, -2.35851502e+00, -1.12855208e+00,
          -6.08963370e-01, 2.91279644e-01, 7.01898396e-01,
          -7.19250798e-01, 1.27721891e-01, -6.69021681e-02,
          2.47665197e-01, 1.48559451e-01, -2.65361428e-01,
          -2.07654163e-01, 8.79789218e-02, 1.06390372e-01,
          -3.00154034e-02, 2.05058977e-03 ]
      - [ 4.39602470e+00, 5.03015637e-01, 9.66007173e-01, 8.28664079e-02,
          1.90656686e+00, 9.39200699e-01, 1.31824183e+00, 9.46473554e-02,
          -5.86419821e-01, -3.35672945e-01, 8.79057422e-02,
          2.72414178e-01, -1.50292795e-02, 4.92747799e-02,
          6.20130152e-02, 1.77410897e-02, -9.85771604e-03 ]
      - [ 6.17112041e-01, -9.19962585e-01, 1.01417136e+00,
          -9.37807500e-01, 7.03547418e-01, -3.29429090e-01,
          3.88106763e-01, 2.01971859e-01, -8.94792974e-02,
          2.11362302e-01, -2.53357589e-01, 1.20375060e-01,
          1.53441653e-01, 1.08447270e-02, -1.12796156e-02,
          -2.80088047e-03, -5.12864580e-03 ]
      - [ 5.33191413e-02, -1.83940971e+00, -1.10037816e+00,
          -3.67707968e-01, 8.89090121e-01, -1.53116390e-01,
          -1.31774276e-01, 2.05076560e-01, 2.26019904e-01,
          5.44789433e-01, -9.64896008e-03, 1.71677157e-01,
          1.22116454e-01, -6.19107038e-02, -6.65978566e-02,
          -3.16604646e-03, -1.08466325e-02 ]
      - [ 4.68783736e-01, 1.62975371e+00, -2.42306328e+00,
          3.56254846e-01, -1.48632834e-02, -1.73992288e+00,
          -9.00084794e-01, 2.29552031e-01, -6.65385008e-01,
          7.15487242e-01, -6.80256248e-01, 1.19946741e-01,
          1.35884658e-01, -3.15153562e-02, -5.38387522e-03,
          1.42276268e-02, 1.06069993e-03 ]
      - [ -2.50395131e+00, 7.51447439e-01, 1.10924327e+00,
          -4.90959585e-01, 4.08697605e-01, 4.63971764e-01,
          2.77455505e-02, -3.81563842e-01, 7.12172568e-01,
          4.17040735e-01, -7.61298165e-02, 9.22493115e-02,
          1.19474880e-01, 3.72859160e-03, -8.09159875e-02,
          -1.25147579e-02, 2.15312553e-04 ]
      - [ -1.28405225e+00, 2.52910447e+00, 1.72952437e+00,
          1.04683256e+00, 2.10405029e-02, 4.90131050e-01, 1.97571680e-01,
          -5.18210709e-01, 6.67282194e-02, -8.23182538e-02,
          7.30478987e-02, -3.70437652e-02, 2.05268174e-01,
          2.97928546e-02, -9.40339116e-04, -3.04461224e-03,
          -1.02522003e-03 ]
      - [ -1.86301553e+00, 5.78255467e-02, 1.34159958e+00,
          5.69790959e-01, -1.41901821e-01, 1.16351068e+00,
          -2.61261851e-01, 7.05658421e-02, 2.31994148e-02,
          5.88026680e-02, 2.03099757e-01, -2.20098466e-01,
          2.86339279e-02, 3.06405313e-02, -1.00151030e-02,
          -1.14306509e-02, -4.39430075e-03 ]
      - [ 2.27376580e+00, 1.77268565e+00, -1.36843812e+00,
          -1.94525406e-01, 1.01494145e+00, -1.13554537e+00,
          -1.93127692e+00, 7.60290742e-01, 1.94116518e-01,
          -4.53164011e-01, -9.04466271e-01, 3.16380113e-01,
          -4.63594317e-01, -1.36272281e-01, 2.80451495e-02,
          -2.45172568e-02, -1.09761711e-02 ]
      - [ 5.64310122e+00, -2.26916265e+00, -4.87119675e-01,
          -1.65015459e+00, 7.92457461e-01, -6.23353720e-01,
          9.98544972e-03, 1.53263226e-01, -9.27597061e-02,
          -1.22895632e-02, -1.62591830e-01, 3.18003088e-01,
          5.41016906e-02, 6.09843433e-02, 2.01893616e-02,
          -1.28265042e-02, 4.30982374e-03 ]
      - [ -9.97480512e-01, -1.84289026e+00, 2.98683904e-02,
          2.38183528e-01, -4.68109101e-01, 9.23146009e-01,
          -9.34371293e-01, 2.29771212e-01, 4.25349265e-01,
          3.33348028e-02, -2.56798625e-01, -1.16119394e-02,
          5.82919121e-02, 2.69031571e-03, -1.97061105e-04,
          -9.97052249e-03, -5.48515422e-03 ]
      - [ -1.08375776e+00, -1.90193200e+00, -8.21669161e-01,
          9.74921703e-01, -7.81832218e-01, -4.72164184e-01,
          -1.05587983e+00, 2.80668020e-01, 5.17283380e-01,
          -8.97932768e-01, -8.43010619e-02, -2.10690927e-02,
          1.29708508e-02, 1.86775066e-02, 3.49242203e-02,
          -6.53530378e-03, -9.88199492e-04 ]
      - [ 2.51020432e-01, 1.03773557e-01, 2.07501554e+00, 6.92027152e-01,
          -9.53956306e-01, -3.44451934e-01, 8.26592222e-02,
          6.71077520e-02, -1.86798319e-01, 1.23672985e-01,
          -2.62665153e-01, 2.30749305e-02, 1.88871279e-01,
          1.59519836e-02, 1.09737329e-02, -2.97976495e-03,
          1.70357805e-03 ]
      - [ 1.45238662e+00, -1.34276628e+00, 1.11809671e+00,
          -6.17446303e-01, 1.02771056e+00, -3.57746601e-01,
          1.04064322e+00, 6.92821085e-01, 4.85838205e-01, 3.87985408e-01,
          -3.08887213e-01, 2.07533315e-01, 6.23474680e-02,
          -2.46043969e-02, -7.66700953e-02, -8.16263026e-04,
          -9.62199457e-03 ]
