%YAML:1.0
---
opencv_ml_svm:
   format: 3
   svmType: NU_SVR
   kernel:
      type: RBF
      gamma: 6.8899996578693390e-02
   C: 1.
   nu: 1.9439999759197235e-01
   term_criteria: { iterations:7500 }
   var_count: 18
   sv_total: 8382
   support_vectors:
      - [ 1.16461372e+00, -6.48840487e-01, -2.81898522e+00,
          1.69009376e+00, 4.54367787e-01, -1.69849640e-03,
          -1.11103630e+00, -1.77107289e-01, 1.88213661e-01,
          1.00778587e-01, 4.05226499e-01, 7.60575980e-02,
          -1.28986090e-01, -3.85522135e-02, -3.58576179e-02,
          -3.40819508e-02, 8.76016449e-03, -1. ]
      - [ 4.49913532e-01, 2.15795422e+00, -4.58616316e-01,
          -1.47452772e+00, 7.48601794e-01, -1.01555198e-01,
          2.09108800e-01, 1.30921173e+00, 2.85036355e-01, 2.17429727e-01,
          -4.58864003e-01, -7.56174088e-01, -2.07016617e-01,
          -3.98532599e-02, -2.22417321e-02, -3.67895588e-02,
          -5.90024656e-03, -1. ]
      - [ -1.69451547e+00, -2.38672867e-01, 3.23521234e-02,
          5.22847831e-01, -9.00806844e-01, 1.71659136e+00,
          8.81748438e-01, 8.51060867e-01, -1.81731209e-01,
          4.05043632e-01, -2.30216514e-02, -1.02044322e-01,
          8.53945408e-03, -2.73549799e-02, 2.87285056e-02,
          1.84292700e-02, -1.67483161e-03, -1. ]
      - [ 2.07566547e+00, -9.86261666e-01, 2.56937325e-01,
          -4.05488580e-01, -1.05088210e+00, -1.00295258e+00,
          7.10690141e-01, 1.18191354e-01, 1.93815500e-01,
          -2.59694219e-01, 3.70740473e-01, 2.13153139e-01,
          -5.76660708e-02, 3.04520177e-03, 2.29083560e-02,
          1.84396747e-02, 1.04311518e-02, -1. ]
      - [ 1.32775927e+00, -1.56399217e-02, 1.20071805e+00,
          1.37693715e+00, 9.72064018e-01, 9.98544395e-01, 3.14837724e-01,
          7.31441319e-01, -4.19360459e-01, 5.69086194e-01,
          -3.27791423e-01, 5.49215749e-02, -1.37802914e-01,
          -6.03382569e-03, 2.19516456e-02, 4.99002915e-03,
          -4.44438541e-03, -1. ]
      - [ 4.31944180e+00, -6.70627296e-01, -2.08954883e+00,
          -6.07448637e-01, -1.26690447e+00, 7.08123147e-01,
          -9.42926645e-01, 5.69666088e-01, -4.14765745e-01,
          1.93976849e-01, -1.78431105e-02, -4.32734154e-02,
          -8.47875550e-02, -9.56550241e-03, 5.74417994e-04,
          -1.64948516e-02, -1.30010266e-02, 1. ]
      - [ -1.59054315e+00, 7.51057744e-01, -8.49638045e-01,
          1.36862612e+00, -9.31309462e-01, -1.68019378e+00,
          4.21396308e-02, -8.25173780e-02, 5.40801048e-01,
          -2.19663084e-01, 1.08666398e-01, 1.02504618e-01,
          -6.75025210e-02, -9.62429717e-02, -3.66760120e-02,
          2.11008899e-02, 5.71666425e-03, -1. ]
      - [ 4.61574763e-01, 3.50080013e+00, 9.41612124e-01,
          -3.88961107e-01, -6.18483424e-01, 4.05304760e-01,
          -9.38462317e-01, 9.22472700e-02, 2.07127526e-01,
          -8.00854921e-01, -1.23692691e+00, 2.62500554e-01,
          6.25648141e-01, -1.14484131e-01, 9.84018669e-02,
          1.06167514e-02, 2.35333797e-02, -1. ]
      - [ 2.27775842e-01, 7.59133816e-01, 9.40142930e-01, 5.40245831e-01,
          -1.16350496e+00, 3.17282766e-01, 7.17369080e-01,
          7.83254266e-01, -3.42377663e-01, 6.24480426e-01,
          1.75558090e-01, 3.17520276e-02, -1.65591583e-01,
          -8.49958882e-03, -2.13297196e-02, -2.55250488e-03,
          4.65984602e-04, -1. ]
      - [ 2.92235160e+00, -1.76551044e+00, 4.90655936e-02,
          -1.58443749e+00, -1.01197183e+00, 6.52098715e-01,
          -2.32267812e-01, 1.55113116e-01, -1.89763289e-02,
          -4.37417090e-01, -1.17599480e-01, 2.75364220e-01,
          -1.76145971e-01, 3.23408097e-02, 1.57526042e-02,
          -6.71712914e-03, -6.84478693e-03, 1. ]
      - [ -7.24614561e-02, 2.50848532e-01, -8.65769461e-02,
          8.37809443e-01, -1.06395233e+00, 9.99894798e-01,
          1.55726969e+00, -6.71522737e-01, -5.08657277e-01,
          6.83559477e-01, 1.90368921e-01, -2.95361551e-03,
          -5.71345054e-02, -7.01411162e-03, 5.19665480e-02,
          7.27541605e-03, 1.45862010e-04, -1. ]
      - [ 3.97022200e+00, -9.12318900e-02, 5.81514060e-01,
          1.13902986e+00, 1.18877971e+00, -5.99501431e-01,
          -3.27455163e-01, 4.85179216e-01, -2.44256794e-01,
          -7.53430352e-02, -2.05112532e-01, 1.09896086e-01,
          -1.34680510e-01, 6.25679120e-02, 1.11035062e-02,
          -2.32722312e-02, 3.44079570e-03, -1. ]
      - [ 2.92339635e+00, -1.83374918e+00, 5.39210498e-01,
          -3.03316355e-01, 1.11591280e+00, 9.34594572e-01,
          -6.92459464e-01, 4.49297041e-01, 7.96825737e-02,
          -4.11134362e-01, 2.56501049e-01, 1.29370153e-01,
          -1.69478372e-01, 1.11763431e-02, 1.27545260e-02,
          -8.84924363e-03, -7.49200769e-03, 1. ]
      - [ 2.00336123e+00, -1.58183932e+00, 3.99763077e-01,
          -3.91844660e-01, -1.07706451e+00, -1.01030314e+00,
          7.93488085e-01, 1.15538228e+00, 1.96596563e-01, 1.91314276e-02,
          -3.58025469e-02, -3.62728611e-02, 1.37619721e-02,
          -5.80370054e-02, 1.60258766e-02, 4.72372957e-02,
          8.14850535e-03, -1. ]
      - [ -1.86861968e+00, 9.32963550e-01, -1.46090496e+00,
          3.48235995e-01, 3.40081275e-01, -2.06442714e+00,
          2.74332702e-01, -2.20155075e-01, 2.33593389e-01,
          -3.51062447e-01, 1.69494852e-01, 7.36393826e-03,
          -8.21904391e-02, -2.05813244e-01, 2.61895489e-02,
          1.15374729e-01, -3.29474267e-03, -1. ]
      - [ 2.15401101e+00, -5.56076467e-01, -3.63814974e+00,
          8.97059321e-01, -1.18172181e+00, -7.50690103e-01,
          -5.06844759e-01, 1.63203627e-01, 1.01407930e-01,
          -1.04915194e-01, 3.84416819e-01, 1.90157369e-01,
          -9.36309546e-02, -4.47554179e-02, 2.24794429e-02,
          3.34690325e-03, 1.20591186e-02, -1. ]
      - [ -1.75628138e+00, 5.65957248e-01, -7.66088784e-01,
          7.06280112e-01, 1.31902322e-01, -2.10034204e+00,
          4.44204241e-01, 1.57849014e+00, 3.69967937e-01, 3.26605201e-01,
          -2.38613501e-01, -3.96669805e-01, -6.29763529e-02,
          -4.94402528e-01, 2.09160037e-02, 2.91123599e-01,
          -3.95350866e-02, -1. ]
      - [ -2.05271673e+00, 1.85065436e+00, 2.55364227e+00,
          -1.12530899e+00, 1.70654014e-01, -1.85220659e-01,
          -6.81203425e-01, 1.87267625e+00, -3.52566928e-01,
          1.38297009e+00, 1.76227957e-01, -6.14972889e-01,
          1.82621256e-02, -4.35315706e-02, -1.38653014e-02,
          1.79171842e-02, -2.69007660e-03, -1. ]
      - [ -3.00866461e+00, 9.24228072e-01, 3.55609488e+00,
          -1.63300037e+00, 3.43100913e-02, -6.28422141e-01,
          -9.06410277e-01, 5.68746924e-01, 1.56382099e-01,
          -8.62956420e-02, 4.25609291e-01, -1.77560046e-01,
          -2.98437655e-01, 6.24973839e-03, -6.46939036e-03,
          1.61856338e-02, 1.83453012e-04, -1. ]
      - [ 3.24262559e-01, 2.09658718e+00, -1.04782808e+00,
          1.43538272e+00, 1.57814715e-02, 6.68712437e-01,
          -1.37097001e+00, 1.02230474e-01, -1.26969516e-01,
          -2.37912405e-02, -8.00025910e-02, -3.09797795e-03,
          -1.63517091e-02, -6.20586388e-02, 3.04014469e-03,
          1.33041972e-02, -1.77000277e-03, -1. ]
      - [ 2.17904544e+00, -2.06460738e+00, -1.31875706e+00,
          6.19919658e-01, 8.78942668e-01, -2.78565288e-02,
          -8.36245954e-01, -1.19509257e-01, 2.28994071e-01,
          -3.05997491e-01, 2.71787018e-01, 8.14740136e-02,
          -8.92896131e-02, -1.29641490e-02, -6.37213141e-03,
          -1.42921340e-02, 9.26497392e-03, -1. ]
      - [ 2.49637198e+00, -2.20068288e+00, -1.18375564e+00,
          -7.83776045e-01, -1.12006140e+00, 1.01340577e-01,
          -4.84455794e-01, 7.78566182e-01, 7.60154352e-02,
          7.92674944e-02, -2.32148111e-01, 8.62387568e-02,
          -1.03942819e-01, 1.36662638e-02, 3.95747367e-03,
          -1.65160298e-02, 5.86745003e-03, 1. ]
      - [ 3.67597079e+00, -7.65396237e-01, 1.46463525e+00,
          1.43312132e+00, 1.47718513e+00, 3.64744455e-01, 6.99524403e-01,
          9.33314085e-01, -7.63743222e-01, 4.55075413e-01,
          -3.41469824e-01, 1.15893170e-01, -4.41366918e-02,
          6.12494126e-02, 4.23898399e-02, -3.38697387e-03,
          2.50553247e-04, -1. ]
      - [ 2.54224229e+00, -2.14252472e+00, 7.13308871e-01,
          4.67367858e-01, 1.19166291e+00, 1.01689982e+00,
          -8.92808557e-01, 1.04636371e+00, -3.42370659e-01,
          6.32031322e-01, 1.90585598e-01, -1.02921978e-01,
          -7.51569122e-02, 1.76945340e-03, 4.28439677e-02,
          -1.24892581e-03, -6.43134583e-03, -1. ]
      - [ 1.43638921e+00, -1.11952341e+00, 1.54812783e-01,
          -2.09342197e-01, -1.19428051e+00, -2.23035276e-01,
          6.53173774e-02, 2.67765820e-01, -7.83896595e-02,
          5.82991183e-01, 2.40866363e-01, 1.83600858e-01,
          -1.05531968e-01, 1.00310063e-02, -5.01924641e-02,
          -1.68273747e-02, 6.56870008e-03, -1. ]
      - [ -1.62792575e+00, 3.01879859e+00, 2.85018611e+00,
          -2.65293145e+00, 9.47993398e-01, -9.75329399e-01,
          -9.14397061e-01, 2.86672235e-01, -4.93669242e-01,
          8.40406716e-02, 2.46485695e-01, 1.19766220e-01,
          -1.01739675e-01, -5.37277013e-02, -1.10987999e-01,
          -1.85674604e-03, -4.52335412e-03, -1. ]
      - [ -2.38278270e+00, 9.34186816e-01, 1.39761806e+00,
          7.36022890e-01, -3.36018875e-02, 7.13326395e-01,
          -5.14110267e-01, 1.31007373e-01, -7.82388747e-02,
          -2.79937685e-01, -4.28501755e-01, 1.86113700e-01,
          8.97414312e-02, 5.25111854e-02, -1.77349336e-02,
          5.96037619e-02, 6.13486022e-03, -1. ]
      - [ 4.81094313e+00, -1.25037026e+00, 1.13573122e+00,
          2.36660928e-01, 1.39506900e+00, -2.26476397e-02,
          1.01345372e+00, -1.32494235e+00, -3.70141417e-02,
          7.44608119e-02, -4.33009893e-01, -2.34657586e-01,
          5.69141507e-02, 6.49104118e-02, -3.66585851e-02,
          -4.25588638e-02, -1.23815099e-03, -1. ]
      - [ 2.01348085e-02, 1.14135206e+00, 1.96819377e+00,
          -3.93571667e-02, 2.47009352e-01, 5.00921488e-01,
          -7.18964636e-01, -9.59930662e-03, 1.61718726e-01,
          -6.26463830e-01, -3.68617505e-01, 1.25385955e-01,
          -2.58067369e-01, -5.52620403e-02, -1.06999524e-01,
          -7.66054774e-03, -7.00370362e-03, -1. ]
      - [ 3.42903924e+00, -1.40439129e+00, -1.33495653e+00,
          1.08047509e+00, 1.16921377e+00, 2.87799239e-01,
          -1.12565506e+00, -1.98170900e-01, -1.65665641e-01,
          2.54774749e-01, 3.32021743e-01, 9.75917280e-02,
          -1.06087834e-01, 4.79477644e-03, -3.74451168e-02,
          -3.16034704e-02, -6.07063936e-04, -1. ]
      - [ 4.63071537e+00, 4.09893245e-01, 2.00515822e-01, 9.01643872e-01,
          1.06582427e+00, -7.46214986e-01, -3.89772743e-01,
          3.47316086e-01, -1.27463952e-01, -4.70137537e-01,
          7.08734588e-05, 1.11813881e-01, -1.71234086e-01,
          7.20240548e-02, 2.05037054e-02, -2.83263400e-02,
          9.96890478e-04, -1. ]
      - [ 2.89797783e+00, -1.87193561e+00, 7.67407715e-01,
          2.77135223e-01, 1.23851264e+00, -6.14750624e-01,
          2.37429231e-01, 5.15044034e-01, 3.42968732e-01,
          -7.13674903e-01, -5.21251321e-01, 5.13847917e-02,
          -4.41483743e-02, -9.41124279e-03, -1.42780161e-02,
          1.11998450e-02, 9.69604682e-03, -1. ]
      - [ -1.56757200e+00, 9.88982320e-01, -1.01236463e+00,
          -1.96241832e+00, 1.47454119e+00, -1.71272337e+00,
          8.71360362e-01, 1.99801505e-01, -2.71539204e-02,
          -3.01767200e-01, 2.11189240e-01, -2.20343960e-03,
          -1.36381298e-01, -5.11600263e-02, -1.60054453e-02,
          2.26794295e-02, 1.32873729e-02, -1. ]
      - [ 8.56070900e+00, 2.48895049e+00, -2.49883175e+00,
          -7.68345296e-01, -1.34783709e+00, -2.82510072e-01,
          -7.36785889e-01, 2.27040276e-01, -1.28010452e+00,
          -1.75308919e+00, -1.00612581e-01, -6.32693529e-01,
          2.50300348e-01, 1.11007951e-01, -4.49955575e-02,
          4.90711667e-02, -1.24636702e-02, -1. ]
      - [ -2.56003618e+00, -3.13099712e-01, 2.06843182e-01,
          1.48315561e+00, 5.17866835e-02, -1.19382942e+00,
          1.88802645e-01, 1.93252146e-01, 4.09866720e-01,
          -4.80948359e-01, 2.87227958e-01, 1.76939666e-02,
          3.18711102e-02, -6.55760318e-02, 3.66529934e-02,
          2.69165244e-02, -5.89754665e-04, -1. ]
      - [ 2.59451294e+00, -1.00267601e+00, 5.81448488e-02,
          -6.63567007e-01, -1.08032906e+00, -7.27536321e-01,
          3.08480382e-01, 3.11168551e-01, 6.48129806e-02,
          -3.52385283e-01, 5.25749087e-01, 1.39481306e-01,
          -9.15896744e-02, 3.13584469e-02, 2.68929289e-03,
          -9.05883964e-03, 8.44213739e-03, -1. ]
      - [ -1.43893504e+00, 1.92901111e+00, -1.06470120e+00,
          -1.76737165e+00, 1.60887551e+00, -2.12951183e+00,
          1.05172396e+00, 3.90312135e-01, -2.34092057e-01,
          -1.57863900e-01, -5.51529467e-01, 1.19619019e-01,
          -1.68959990e-01, -3.19550931e-02, 4.18443466e-03,
          2.87176184e-02, 1.41583178e-02, -1. ]
      - [ -4.32475150e-01, 2.97801590e+00, -1.95807374e+00,
          -1.63005221e+00, 1.24401021e+00, -3.21374983e-01,
          -3.40883285e-01, 3.69514883e-01, -4.03409690e-01,
          3.15549016e-01, 5.10322787e-02, -3.64466198e-02,
          -2.41389215e-01, -3.28008048e-02, 2.95002125e-02,
          -9.49082058e-03, -7.26849260e-03, -1. ]
      - [ -2.39339876e+00, 1.83124471e+00, -7.43956268e-01,
          -5.89249253e-01, 6.29062593e-01, -5.96988976e-01,
          -1.17290236e-01, -1.32806420e-01, -3.95133138e-01,
          1.24967083e-01, -2.33127266e-01, 2.48494595e-01,
          -1.45342827e-01, 4.64130789e-02, 1.77487321e-02,
          -7.00729061e-03, 2.28183623e-03, -1. ]
      - [ -1.36857080e+00, -1.47171879e+00, -9.10061657e-01,
          9.40048277e-01, -1.14139926e+00, -9.10148144e-01,
          -1.58597738e-01, -1.55471325e+00, -1.20214611e-01,
          8.54920387e-01, 2.37041749e-02, -2.90832907e-01,
          2.23213673e-01, 3.17235757e-03, 3.79825570e-02,
          -2.17237957e-02, 2.21845647e-03, -1. ]
      - [ 2.36144686e+00, -6.83762074e-01, 4.32710379e-01,
          -2.07046252e-02, -1.20135713e+00, -1.07481086e+00,
          7.68808424e-01, 9.93722260e-01, -1.35535717e-01,
          1.74868062e-01, 3.29799712e-01, 5.27908616e-02,
          -2.07676478e-02, 1.05385324e-02, 2.55536959e-02,
          1.33685665e-02, 1.12263989e-02, -1. ]
      - [ 3.43829775e+00, -2.16512108e+00, 7.22182930e-01,
          5.71913971e-03, 1.43283868e+00, 9.59757268e-01,
          -7.82729864e-01, 3.43855202e-01, -3.02862316e-01,
          -1.51232913e-01, 1.19457908e-01, 8.19808915e-02,
          -1.02794267e-01, 2.29055919e-02, 2.90350430e-02,
          -4.73413942e-03, -8.53697490e-03, 1. ]
      - [ 3.50703776e-01, 2.23188353e+00, -2.72091657e-01,
          8.72487962e-01, -1.14172769e+00, 1.74218625e-01,
          -5.14756560e-01, 7.10980117e-01, -1.19714625e-01,
          3.50987554e-01, -3.88228178e-01, -7.73424748e-03,
          -2.03985751e-01, -6.22303188e-02, -1.18588053e-01,
          -2.35926155e-02, -4.04410344e-03, -1. ]
      - [ 2.70992541e+00, -1.44894898e+00, 2.64421493e-01,
          -5.98406792e-01, -1.04352832e+00, -1.35133564e+00,
          9.13061082e-01, 4.74337459e-01, 1.86780363e-01,
          -5.23384988e-01, -9.53347050e-03, 1.34428918e-01,
          8.29532649e-03, -8.14470351e-02, 6.10561110e-03,
          7.23655373e-02, 2.91756447e-03, -1. ]
      - [ 3.25972891e+00, -7.60630798e-03, 5.25305450e-01,
          -4.06087190e-01, -1.09994102e+00, -1.76660240e-01,
          1.07618678e+00, 8.71644974e-01, -1.28386706e-01,
          2.93920618e-02, -7.39538819e-02, 3.00794356e-02,
          -1.11189343e-01, 5.21595031e-02, 1.93856787e-02,
          -1.75983254e-02, 1.56416732e-03, -1. ]
      - [ -1.41812396e+00, 1.00646520e+00, -3.28858644e-01,
          8.20303977e-01, -6.54029787e-01, -8.93189251e-01,
          1.57795176e-02, -1.37692738e+00, 3.93355712e-02,
          2.72684485e-01, -3.77608001e-01, -1.44626811e-01,
          -6.64970279e-02, 2.91540585e-02, 2.55664680e-02,
          -2.49953829e-02, 8.10174271e-03, -1. ]
      - [ 3.76441073e+00, 3.55452210e-01, 2.36396313e+00, 5.63822567e-01,
          9.38025892e-01, -5.42256348e-02, 1.44686282e-01,
          1.56278896e+00, -1.35082528e-01, 6.58716202e-01,
          1.07092962e-01, -4.62618291e-01, -7.53905028e-02,
          3.49522717e-02, 1.87593680e-02, -2.14834940e-02,
          -7.71017000e-03, -1. ]
      - [ 6.05337238e+00, 1.93128109e+00, -5.47285795e-01,
          -8.81996989e-01, -1.12536597e+00, -3.71638626e-01,
          -4.86085638e-02, -1.74183831e-01, 2.10823305e-02,
          -5.22205174e-01, 1.76225483e-01, 3.62571608e-03,
          -1.16199687e-01, 3.27167474e-02, -2.26973910e-02,
          -3.53382938e-02, -1.68717634e-02, -1. ]
      - [ 2.56157184e+00, -1.88647056e+00, -2.03302264e+00,
          3.18987697e-01, -1.30812037e+00, -9.34525430e-01,
          -1.61434293e-01, -4.14573811e-02, -1.72715694e-01,
          6.32344902e-01, 3.12214196e-01, 4.86975163e-02, 6.69802204e-02,
          -5.25667928e-02, 7.59118330e-03, 2.23847665e-02,
          9.01309960e-03, 1. ]
      - [ 5.29536104e+00, 1.73154342e+00, -4.86931473e-01,
          -3.64669800e-01, -1.16632426e+00, -1.18080556e+00,
          1.62696630e-01, 4.54899222e-01, 5.22620343e-02,
          -5.50674438e-01, 9.76807401e-02, -2.81964783e-02,
          -1.99034706e-01, 7.47372955e-02, -1.30465701e-02,
          -4.39491086e-02, -3.23549006e-03, -1. ]
      - [ 3.28532743e+00, -2.11970854e+00, -5.86743504e-02,
          7.97485828e-01, 1.26240027e+00, -6.99308157e-01,
          -4.55415696e-01, 4.81768787e-01, -9.26183164e-02,
          -3.07978213e-01, 4.44367379e-01, 8.34235325e-02,
          -2.04164744e-03, -1.32918486e-03, 1.77550260e-02,
          1.06659196e-02, 9.58608557e-03, 1. ]
      - [ 3.41938448e+00, -1.40143788e+00, 9.63022336e-02,
          -1.32716596e-01, -1.33339787e+00, -1.60280967e+00,
          6.18409693e-01, 5.33821225e-01, -3.93559456e-01,
          2.13662654e-01, 3.40112954e-01, 1.75491467e-01, 7.39327446e-02,
          -3.46161872e-02, 8.54289625e-03, 5.13960980e-02,
          5.90083236e-03, 1. ]
      - [ -5.01912296e-01, 7.96388209e-01, -2.70862192e-01,
          4.06108886e-01, -1.10712957e+00, 7.64607191e-01,
          -7.27808416e-01, 2.69923583e-02, 3.33774537e-02,
          5.11279047e-01, -1.27630520e+00, 9.48805735e-02,
          -8.24831724e-02, -3.21564339e-02, -6.22969642e-02,
          4.23864927e-04, -2.58566695e-03, -1. ]
      - [ -2.50020194e+00, 1.28802609e+00, 6.76019713e-02,
          -1.54276133e+00, 9.30292308e-01, 7.82903433e-01,
          4.55248892e-01, 1.10758565e-01, -5.70906341e-01,
          -2.25248989e-02, 4.16805476e-01, 2.57307231e-01,
          -1.55790702e-01, -2.87524462e-02, 2.44474933e-02,
          2.96795368e-02, -4.51789051e-03, -1. ]
      - [ 3.80259991e+00, -2.14637327e+00, 8.72269928e-01,
          6.46889687e-01, 1.72103918e+00, 8.28279197e-01,
          -8.65327477e-01, 4.00219113e-01, -6.19412899e-01,
          4.88238871e-01, 5.15113652e-01, -1.69546921e-02,
          -2.62813643e-02, 2.26858519e-02, 2.86116470e-02,
          -5.90505358e-03, -9.11637954e-03, 1. ]
      - [ 5.59637451e+00, 1.13920391e+00, -4.75277513e-01,
          -5.70136160e-02, -1.55851555e+00, 3.37499708e-01,
          -6.20294809e-01, 2.21443391e+00, -8.49113584e-01,
          1.32045150e+00, -4.13461439e-02, -3.43784511e-01,
          2.86444098e-01, -4.76867594e-02, 4.76984605e-02,
          -2.10640859e-02, -1.13271940e-02, -1. ]
      - [ 7.00042105e+00, 2.50514627e+00, -1.60582376e+00,
          -4.60260898e-01, -1.34797454e+00, -2.16364369e-01,
          -6.72601879e-01, 5.76347113e-01, -8.62647355e-01,
          -8.66220236e-01, 6.21895194e-02, -3.07510048e-01,
          1.96290448e-01, 5.74094988e-03, 2.24084798e-02,
          -1.42045198e-02, -1.22021651e-02, -1. ]
      - [ -7.02402115e-01, 7.69156456e-01, 1.53687513e+00,
          3.73978585e-01, -1.22168052e+00, 3.29039574e-01,
          3.83081287e-02, -6.20904684e-01, -4.79740262e-01,
          8.89015317e-01, 1.58050790e-01, -8.01168829e-02,
          -7.72320405e-02, -9.69236717e-03, 1.05619626e-02,
          1.27695380e-02, -4.40382119e-03, -1. ]
      - [ 1.93030977e+00, -2.32577038e+00, -1.34678960e+00,
          -9.83314693e-01, -9.68798220e-01, 1.66086212e-01,
          -4.67458755e-01, 1.41450986e-01, 3.48460913e-01,
          -3.65631998e-01, -3.95648867e-01, 1.06414646e-01,
          -1.30166411e-01, 8.23365524e-03, 2.09062770e-02,
          -1.18755484e-02, 7.39925914e-03, -1. ]
      - [ 2.87964129e+00, -1.96891665e+00, 1.82826370e-01,
          -4.95235711e-01, -1.39676285e+00, 9.92909819e-02,
          -7.70583227e-02, -2.00023176e-03, -6.33679688e-01,
          1.40309894e+00, 2.58964151e-01, -1.05994828e-01,
          3.72858644e-02, 3.88704911e-02, 3.05087995e-02,
          -1.10941008e-02, -2.00646976e-03, -1. ]
      - [ 3.38184738e+00, -6.05726503e-02, 1.38418853e+00,
          1.29263401e+00, 1.36124599e+00, 5.36924422e-01, 4.23638731e-01,
          3.63039255e-01, -7.14779913e-01, 2.01727957e-01,
          2.92299598e-01, 2.80699849e-01, -1.10918425e-01,
          3.92157212e-02, 2.27655005e-02, 2.13610969e-04,
          -6.47722650e-03, -1. ]
      - [ 2.87294364e+00, -1.09926414e+00, 2.08772793e-02,
          -1.17289340e+00, -1.12380898e+00, 7.54696131e-01,
          -3.27221394e-01, 2.33222812e-01, -2.45647207e-01,
          -5.78982495e-02, 4.32731360e-01, 3.33284259e-01,
          -1.53859675e-01, 1.09611005e-02, 2.58427206e-02,
          1.72851630e-03, -1.11367237e-02, -1. ]
      - [ 3.08036947e+00, -1.32428801e+00, 9.07030422e-03,
          -1.49463847e-01, -1.24933589e+00, -1.56764960e+00,
          5.85242748e-01, 9.15616393e-01, -7.39331841e-02,
          1.74954236e-01, 3.00977528e-01, 9.37111005e-02, 4.66206148e-02,
          -6.68340698e-02, 9.80148278e-03, 6.09043278e-02,
          4.55677416e-03, -1. ]
      - [ -1.52204943e+00, 1.04241192e+00, -1.01803757e-01,
          -6.42783105e-01, 3.92374508e-02, 1.00715220e+00,
          2.29256988e-01, 5.62216461e-01, 2.16306403e-01,
          -3.22546363e-01, 5.62629282e-01, -4.05571461e-01,
          -1.94309846e-01, -7.05656931e-02, 1.43329138e-02,
          2.98548315e-04, -4.66422830e-03, -1. ]
      - [ -2.82647729e-01, 4.93478012e+00, 2.13772225e+00,
          -1.16334975e+00, 3.38798702e-01, -1.02500093e+00,
          -9.49506283e-01, -5.21646321e-01, -8.20290148e-02,
          -3.19020003e-01, -6.60508685e-03, 2.41258871e-02,
          4.07466471e-01, -8.86892080e-02, 7.64334351e-02,
          -6.33950951e-03, 1.32204164e-02, -1. ]
      - [ -2.70062947e+00, -1.63502145e+00, -1.13064671e+00,
          -4.02613848e-01, -3.99610192e-01, 4.84689564e-01,
          -8.36525202e-01, -8.77806917e-02, 4.23052818e-01,
          -5.05343497e-01, 6.58582091e-01, -1.15029596e-01,
          1.97027139e-02, 1.94672942e-02, 4.78021987e-02,
          -1.98616553e-02, 4.25734790e-04, -1. ]
      - [ -1.14318681e+00, 1.14185166e+00, -3.03751636e+00,
          -1.02371752e+00, 7.30602980e-01, 3.35163653e-01,
          -9.43288326e-01, 1.62515640e-01, -3.03425074e-01,
          8.93167406e-02, 5.48906624e-01, 6.34772284e-03,
          -1.50613338e-01, -3.87908481e-02, 9.68919601e-03,
          -8.63822177e-03, -3.78665328e-03, -1. ]
      - [ 3.66971827e+00, -1.66592288e+00, 7.52737582e-01,
          3.83720309e-01, 1.23819304e+00, -3.71824622e-01,
          -1.40882254e-01, 8.84222627e-01, 1.04558125e-01,
          -1.22085087e-01, 4.88118052e-01, -7.92065561e-02,
          -4.20433581e-02, 3.43824327e-02, 2.63606268e-03,
          -1.92451477e-02, 6.16332470e-03, 1. ]
      - [ -3.96655977e-01, 6.13475978e-01, -5.94544470e-01,
          -1.50036168e+00, 8.49059582e-01, 1.51724255e+00,
          1.48584211e+00, 1.71099353e+00, -3.34002942e-01,
          3.94614071e-01, 5.05115986e-01, -3.40646863e-01,
          -1.05049416e-01, -6.64810687e-02, 2.94393823e-02,
          2.62034056e-03, -8.65578279e-03, -1. ]
      - [ 5.57204247e+00, 7.02881992e-01, 1.02671826e+00, 9.61534381e-01,
          1.38428509e+00, -4.00945634e-01, 2.73335427e-01,
          4.24245954e-01, -3.52790147e-01, -2.37182915e-01,
          3.58983070e-01, 1.50864616e-01, -1.26718432e-01,
          7.25394413e-02, -1.59066375e-02, -3.17999870e-02,
          -6.48654951e-03, 1. ]
      - [ 2.42516398e-01, 8.85092080e-01, -3.24422264e+00,
          1.28152740e+00, -8.75590086e-01, 1.08830273e-01,
          -1.03205776e+00, 1.53013957e+00, 4.47136998e-01,
          7.51106024e-01, -1.69544220e-01, -2.30383351e-01,
          -1.16506740e-01, -2.41441298e-02, 9.68768261e-03,
          -4.45717573e-02, 1.71439000e-03, -1. ]
      - [ 5.37501097e+00, -1.07024300e+00, 1.22424698e+00,
          2.92567044e-01, 1.17661774e+00, -8.11592937e-01,
          4.52567399e-01, 1.94056535e+00, 3.16279113e-01, 3.33417058e-01,
          2.77127564e-01, -6.23195648e-01, 6.00432046e-02,
          4.13895249e-02, -1.51962088e-02, -4.18661050e-02,
          4.56258887e-03, -1. ]
      - [ -2.59399652e+00, 7.97356367e-01, -1.45207703e+00,
          2.38664821e-01, 2.21539229e-01, -7.24074662e-01,
          -6.20775700e-01, 3.00278395e-01, 8.93000886e-02,
          -1.29284233e-01, -3.15574765e-01, 1.82790533e-01,
          1.36755437e-01, 1.08366325e-01, -1.49500547e-02,
          -3.34877595e-02, -2.13188725e-03, -1. ]
      - [ -1.36729372e+00, 2.60933232e+00, -7.32900262e-01,
          -4.58717644e-01, 4.54055697e-01, 2.00590476e-01,
          -3.47782046e-01, 3.21584582e-01, -2.34326705e-01,
          5.17145917e-02, -3.25788081e-01, 1.34133801e-01,
          -1.84821993e-01, -2.66212188e-02, 2.44018417e-02,
          1.34365521e-02, -3.09948996e-03, -1. ]
      - [ 4.63864470e+00, -2.08599710e+00, 7.42628217e-01,
          1.13395739e+00, 1.76599836e+00, -1.61611068e+00,
          2.68173248e-01, 1.59619570e-01, -1.27639964e-01,
          -2.39690587e-01, 3.04309070e-01, 7.89256915e-02,
          1.16807766e-01, -1.56955078e-01, 4.20431374e-03,
          1.27549797e-01, -1.09253284e-02, 1. ]
      - [ 5.54230499e+00, 1.09068906e+00, 5.48463404e-01, 3.02770972e-01,
          1.14002228e+00, -2.86098927e-01, -1.63586900e-01,
          5.42751491e-01, 2.60144621e-01, -4.19275999e-01,
          4.05035228e-01, -3.29857349e-01, -1.40419707e-01,
          3.66737135e-02, -2.04765610e-02, -4.56916466e-02,
          -1.14995586e-02, -1. ]
      - [ 3.16245270e+00, -1.58914149e+00, 4.28120315e-01,
          5.94804823e-01, 1.18615508e+00, -4.58337188e-01,
          -3.00229341e-01, -8.95273164e-02, -8.04526284e-02,
          -3.27411056e-01, 4.50995505e-01, 1.87921867e-01,
          -6.97025806e-02, 4.22051437e-02, 2.49239877e-02,
          -6.82401098e-03, 7.52200605e-03, 1. ]
      - [ 3.37532234e+00, -1.38942599e+00, 4.95144337e-01,
          3.63281608e-01, 1.11321235e+00, -4.99778032e-01,
          -1.62148207e-01, 7.53471673e-01, 2.74513036e-01,
          -3.07921350e-01, 4.94297117e-01, -7.64774308e-02,
          -6.77672029e-02, 2.59600580e-02, 5.32172201e-03,
          -1.80921648e-02, 7.42952293e-03, -1. ]
      - [ -2.37666965e+00, -1.99484229e-01, -1.75394252e-01,
          5.35164177e-01, -6.73554063e-01, -7.51344800e-01,
          -3.23024541e-02, 5.66739023e-01, 7.20422804e-01,
          -3.52294564e-01, -6.89198613e-01, -6.33242577e-02,
          -7.55466744e-02, -1.74850523e-02, -1.23152342e-02,
          -2.14980021e-02, 8.20412580e-03, -1. ]
      - [ -2.27070284e+00, 1.47942114e+00, -2.81391323e-01,
          4.22325671e-01, 1.73648484e-02, -2.81462044e-01,
          -3.80966276e-01, 4.54478294e-01, 1.74297728e-02,
          -1.14194006e-01, -2.42801294e-01, 1.95261866e-01,
          -6.99877143e-02, 4.11167964e-02, -6.02694042e-02,
          -1.71210170e-02, 2.43662857e-03, -1. ]
      - [ -2.07679582e+00, 2.22339725e+00, 1.78355074e+00,
          5.16661525e-01, -9.91434097e-01, -2.97181960e-02,
          -5.96577942e-01, -3.43814492e-02, -2.07262784e-01,
          -1.00239456e-01, 1.52180225e-01, 1.11414529e-01,
          -4.64776866e-02, 1.97323281e-02, -5.57546911e-04,
          4.30517346e-02, 2.54451344e-03, -1. ]
      - [ 3.08189821e+00, -1.68099368e+00, -1.75676763e+00,
          -4.71624762e-01, -1.18479133e+00, -1.38675123e-01,
          -4.77784902e-01, 2.47598842e-01, -7.70855546e-02,
          7.16830343e-02, -2.41124742e-02, 1.06040835e-01,
          -8.77450705e-02, 2.05046162e-02, -2.33649928e-03,
          -2.18022075e-02, 5.21724578e-03, -1. ]
      - [ -2.84582114e+00, 4.34493333e-01, 9.15998220e-02,
          1.40346420e+00, 7.00116605e-02, 1.61591038e-01, 1.16932917e+00,
          3.86098772e-02, 2.22270072e-01, -4.91824985e-01,
          2.42313564e-01, 4.40465286e-02, 1.91191696e-02, 3.26220430e-02,
          5.36951534e-02, -1.81310382e-02, 3.30218254e-03, -1. ]
      - [ 4.38287163e+00, -1.31740403e+00, 5.94228804e-01,
          8.71092796e-01, 1.46182418e+00, -8.52729559e-01,
          -2.00468391e-01, 3.30552310e-01, -2.28094608e-01,
          -2.89829314e-01, 3.39309037e-01, 1.18079260e-01,
          -2.55600251e-02, 5.64198792e-02, 2.31233072e-02,
          -9.88564640e-03, 7.53181102e-03, -1. ]
      - [ 3.69891357e+00, -5.57893872e-01, 1.45729744e+00,
          8.92818272e-01, 1.35080445e+00, 5.63663542e-01, 5.40540695e-01,
          -7.53856122e-01, -7.16406345e-01, 2.25972176e-01,
          -3.18401903e-01, 6.58742487e-02, -3.33465189e-02,
          4.18336540e-02, -1.84259582e-02, -1.40659790e-02,
          -7.70463189e-03, -1. ]
      - [ 4.38238382e-01, 3.34518100e-03, 9.60480496e-02, 3.61871213e-01,
          -9.89419520e-01, 7.99444795e-01, 1.35522139e+00,
          -3.55529785e-01, 1.17264986e-02, 6.38177156e-01,
          -3.30688238e-01, 1.70094132e-01, -1.19972259e-01,
          -6.96882382e-02, -2.95022458e-01, -5.53859212e-02,
          1.52748590e-03, -1. ]
      - [ -2.07518625e+00, -8.56014371e-01, -3.24404567e-01,
          -9.49463964e-01, 1.82039320e-01, 1.55936408e+00,
          -8.28068733e-01, -3.09524655e-01, 5.14915943e-01,
          -5.34259021e-01, 3.47101808e-01, -3.12905639e-01,
          -1.29310340e-01, -7.12246150e-02, 2.16659084e-02,
          9.14044864e-03, -5.04149962e-03, -1. ]
      - [ -3.96925139e+00, -1.24258518e+00, -7.65039146e-01,
          -1.43690145e+00, 9.55636561e-01, -5.15861928e-01,
          -2.22735971e-01, 1.19462729e+00, -5.26714385e-01,
          6.28648400e-01, 4.29523259e-01, 2.05411479e-01, 4.41575825e-01,
          1.69017687e-01, 8.06872547e-03, -6.63561746e-03,
          -8.93799681e-03, -1. ]
      - [ -3.92583370e+00, -1.86728835e+00, -9.37819332e-02,
          -1.43985033e-01, 1.64142296e-01, -4.89785314e-01,
          -8.81672949e-02, 2.05332518e-01, 5.67415237e-01,
          -7.18188882e-01, -4.98386621e-01, 8.72427076e-02,
          2.13873491e-01, 6.97868243e-02, 1.56848859e-02,
          -4.85157520e-02, -1.69124771e-02, -1. ]
      - [ 4.32902384e+00, -5.18269002e-01, -7.95034885e-01,
          1.63838613e+00, 1.51044786e+00, 2.28989077e+00, 3.09317994e+00,
          -5.82748413e-01, -9.64706361e-01, -1.83232009e-01,
          -2.99401790e-01, 7.06186444e-02, 7.61217475e-02,
          4.54169139e-03, 9.90962703e-03, -1.29109677e-02,
          -8.40939581e-03, -1. ]
      - [ 2.58066297e+00, -1.47487700e+00, 3.82829785e-01,
          -4.48554456e-01, -1.20454693e+00, -7.55428731e-01,
          5.66401362e-01, 2.45212808e-01, -2.03461155e-01,
          1.91855535e-01, -1.39522389e-01, 2.78249651e-01,
          -3.24067026e-02, 3.68448123e-02, 1.05748447e-02,
          5.17866947e-03, 9.83170886e-03, -1. ]
      - [ -1.88487625e+00, 1.56469500e+00, -2.26127401e-01,
          -3.79936881e-02, 2.77541310e-01, -1.01149595e+00,
          6.63199067e-01, -1.09319973e+00, -1.50716797e-01,
          3.44948262e-01, 3.54031101e-02, -1.92876264e-01,
          -8.81630555e-02, -1.06910113e-02, -1.02323227e-01,
          -3.72848250e-02, 9.87779349e-03, -1. ]
      - [ 3.72467232e+00, -2.25721860e+00, 2.98114449e-01,
          -1.27144313e+00, -1.30073071e+00, 5.27766228e-01,
          -7.67773539e-02, -6.56401277e-01, -7.63528168e-01,
          6.54152095e-01, -1.52721405e-01, 5.33242971e-02,
          1.67011432e-02, 4.87755761e-02, 2.36915424e-02,
          -6.73163636e-03, -9.52249579e-03, -1. ]
      - [ 4.20525980e+00, -2.06722226e-02, 1.54656172e+00,
          9.87912178e-01, 1.12497914e+00, 5.59172928e-01, 3.83813322e-01,
          -1.56330132e+00, -1.06593513e+00, 7.39182711e-01,
          1.16018392e-01, -1.81580648e-01, 1.10763915e-01,
          1.53652178e-02, -2.46452447e-02, -1.60890780e-02,
          -1.46930004e-02, -1. ]
      - [ 3.17044330e+00, -7.04881668e-01, 4.80968297e-01,
          -6.46770179e-01, -1.08880544e+00, -6.67670310e-01,
          9.78877485e-01, 4.38377522e-02, -1.93580553e-01,
          -3.97748023e-01, 3.66848379e-01, 1.05234616e-01,
          -4.76223864e-02, 5.19336760e-02, 5.43762092e-03,
          -1.08757103e-02, 6.87374966e-03, -1. ]
      - [ -2.22144008e+00, 1.86289048e+00, 4.04289627e+00,
          -8.78939033e-03, 1.87813137e-02, -1.92098588e-01,
          -1.75919044e+00, -4.65991765e-01, 1.38371944e-01,
          -4.62333262e-02, -3.17506790e-01, -4.67069745e-02,
          6.47205487e-02, 2.26389547e-03, 1.51267406e-02, 6.31940290e-02,
          5.60989184e-03, -1. ]
      - [ -7.44053483e-01, 1.69988096e+00, -1.85826254e+00,
          1.72396886e+00, -1.12992585e+00, -1.04278147e+00,
          -7.28306472e-01, 8.96580741e-02, -1.92183480e-02,
          -1.35335803e-01, -4.02706444e-01, 1.73994556e-01,
          -7.54942521e-02, 5.50295226e-02, 1.74252260e-02,
          -4.15133052e-02, 4.30787215e-03, -1. ]
      - [ -4.44277239e+00, -2.65618849e+00, -3.18889856e-01,
          -8.48210096e-01, 1.46180555e-01, 3.67327668e-02,
          -4.46385801e-01, 8.12675178e-01, 4.09358323e-01,
          -4.14844185e-01, -9.66328502e-01, 1.60094738e-01,
          7.12032199e-01, 2.50484079e-01, -2.57678721e-02,
          1.43312383e-02, -1.88829936e-02, -1. ]
      - [ -7.37846076e-01, 1.98711741e+00, -7.13952422e-01,
          5.81856191e-01, -6.30250931e-01, 2.49631628e-01,
          -6.76471472e-01, -1.29424810e+00, -3.87709111e-01,
          3.51355076e-01, -3.17828417e-01, 1.93776682e-01,
          -4.14858386e-03, 2.56808032e-03, 2.23707240e-02,
          2.48322580e-02, -1.48271932e-03, -1. ]
      - [ -2.74374652e+00, -6.72113240e-01, 9.38251689e-02,
          6.22798145e-01, 9.55048874e-02, 8.10580075e-01,
          -9.00382221e-01, -9.44429785e-02, 3.45410287e-01,
          -5.70703782e-02, 5.29343486e-01, 1.63679272e-02,
          3.57080519e-01, 9.20273289e-02, -9.13070515e-02,
          4.59609479e-02, 7.31594115e-03, -1. ]
      - [ -1.92032468e+00, -1.13807368e+00, -9.82593119e-01,
          2.16031760e-01, -1.12061061e-01, 9.21238303e-01,
          -1.21752322e+00, 1.19184124e+00, 2.80837923e-01,
          1.92763105e-01, 3.98928106e-01, -4.23863471e-01,
          1.38194680e-01, 3.66047886e-03, -1.76721066e-02,
          -6.20353175e-03, 2.22511560e-04, -1. ]
      - [ 2.95962286e+00, -2.33137608e+00, 7.07904816e-01,
          -3.87384176e-01, 6.61353111e-01, 8.41558993e-01,
          -1.35454878e-01, -2.57494712e+00, -2.04827890e-01,
          9.16267872e-01, 1.19750071e-02, -5.60406506e-01,
          1.13723844e-01, 1.47949774e-02, 1.79653354e-02,
          -2.43169181e-02, -1.12488410e-02, -1. ]
      - [ 2.16759777e+00, -2.06956720e+00, -1.17593038e+00,
          2.10390821e-01, 7.85805881e-01, 1.98568717e-01,
          -8.34437132e-01, -2.48573884e-01, 3.24239999e-01,
          -4.81302679e-01, 1.85441285e-01, 4.75870036e-02,
          -1.22429535e-01, -2.86873803e-03, -1.04542903e-03,
          -1.94238983e-02, 6.81532174e-03, -1. ]
      - [ -3.32726622e+00, -2.64882350e+00, -4.42645818e-01,
          -1.53338194e+00, 3.62632841e-01, 1.21641314e+00,
          -7.91025519e-01, -3.22585642e-01, 4.30092931e-01,
          -4.88911837e-01, -8.33187103e-01, -1.41630679e-01,
          2.80903541e-02, 3.12609598e-02, 5.95347025e-02, 7.08846026e-04,
          -4.59273433e-04, -1. ]
      - [ 2.05537677e+00, -2.14800954e+00, -7.75802672e-01,
          -6.01800755e-02, 5.70646346e-01, 5.40269434e-01,
          -6.89499259e-01, -1.41783643e+00, 1.91832840e-01,
          1.87171966e-01, 2.52522051e-01, -4.00732428e-01,
          -2.28490587e-02, -3.72847426e-03, 1.43086230e-02,
          -2.77304929e-02, -5.26230782e-04, -1. ]
      - [ -3.73839855e+00, -2.05816388e+00, -1.56640317e-02,
          -3.90657812e-01, 6.35523200e-02, 8.58992875e-01,
          -7.69808650e-01, -4.68666740e-02, 3.18132132e-01,
          -5.20690918e-01, 3.02989423e-01, -2.41356380e-02,
          4.21924204e-01, 1.40757322e-01, 1.49934152e-02, 4.34709974e-02,
          2.38971156e-03, -1. ]
      - [ 3.19371581e+00, -1.79518247e+00, 5.67920879e-02,
          -1.52506173e+00, -1.06690776e+00, 5.71723640e-01,
          -1.94022253e-01, -7.50681832e-02, -1.37164295e-01,
          -2.28754863e-01, -2.25956063e-03, 2.35245317e-01,
          -1.37430042e-01, 3.60401198e-02, 1.22026438e-02,
          -8.90051108e-03, -7.55536370e-03, 1. ]
      - [ 2.12852097e+00, -2.16369128e+00, -1.49677646e+00,
          5.22131801e-01, 8.18779826e-01, -2.20063657e-01,
          -7.30746567e-01, -5.00563234e-02, 3.92750651e-01,
          -5.29600918e-01, 1.44887447e-01, 1.07563630e-01,
          -8.18982571e-02, -3.46196182e-02, -1.29170539e-02,
          -3.19094281e-03, 1.06662847e-02, -1. ]
      - [ 2.43797827e+00, -1.22655046e+00, 1.22786053e-01,
          -6.17782831e-01, -1.16501713e+00, -4.06464636e-01,
          1.67045087e-01, -2.62580793e-02, -2.16918990e-01,
          -4.63283099e-02, 3.70307535e-01, 2.40608603e-01,
          -9.56370011e-02, 4.16735522e-02, -1.09697669e-03,
          -9.84436926e-03, 5.76353073e-03, -1. ]
      - [ 1.24627793e+00, 3.89502597e+00, -3.97278404e+00,
          5.29662669e-01, 2.47338638e-01, 3.29360574e-01,
          -1.23447633e+00, 1.39568901e+00, -3.65187377e-01,
          1.20662391e+00, 1.05709650e-01, -4.42050636e-01,
          3.79674822e-01, -9.12354365e-02, 3.09623368e-02,
          1.68370530e-02, 6.68613100e-03, -1. ]
      - [ -1.13798536e-01, 2.29496980e+00, 2.02950716e+00,
          -1.29633343e+00, 6.64038062e-02, 2.40077898e-01,
          -9.05075192e-01, 1.95460021e-01, 4.18070108e-01,
          -7.83814788e-01, -1.02607952e-02, 1.14030980e-01,
          -5.04947267e-02, -7.87352994e-02, 2.53901035e-02,
          3.72301717e-03, -3.80198355e-03, -1. ]
      - [ 2.20601630e+00, -2.17034888e+00, -1.06746531e+00,
          2.46650055e-01, 8.04276943e-01, 1.38454884e-01,
          -7.58554697e-01, -4.58586425e-01, 3.03003371e-01,
          -3.07581037e-01, 2.33455926e-01, -2.18946654e-02,
          -8.54980126e-02, -3.01830214e-03, 2.28104851e-04,
          -1.98048484e-02, 6.94380375e-03, -1. ]
      - [ 2.20895648e+00, -1.18962431e+00, -1.27388310e+00,
          -4.93976623e-01, -1.12402308e+00, 1.91111565e-01,
          -5.68484962e-01, -4.29676026e-02, 3.69468704e-02,
          1.05527066e-01, 3.47631812e-01, 1.98083907e-01,
          -1.64693445e-01, 9.36071388e-03, 3.93148366e-04,
          -1.80828888e-02, 3.07498587e-04, -1. ]
      - [ 3.67777681e+00, -2.52841210e+00, -1.91884369e-01,
          -1.92746252e-01, -1.49768531e+00, -9.28389907e-01,
          2.87022680e-01, -5.29586852e-01, -7.55087197e-01,
          1.60238993e+00, 1.68240607e-01, -2.72726387e-01,
          2.27021351e-01, 3.55930291e-02, 3.91078442e-02,
          -1.52717810e-03, 7.09728850e-03, -1. ]
      - [ 2.94481802e+00, -2.62916851e+00, 1.26067013e-01,
          -1.59718978e+00, -1.10737693e+00, 8.14565122e-01,
          -2.51246214e-01, -2.50486016e-01, -1.90408587e-01,
          2.79827476e-01, -9.30676281e-01, 1.28677160e-01,
          -8.43639076e-02, 4.04371060e-02, 2.97337659e-02,
          -6.56922394e-03, -6.71233376e-03, -1. ]
      - [ 3.13438106e+00, -2.18922162e+00, -6.28589690e-01,
          -1.62442282e-01, -1.29016554e+00, -1.32101321e+00,
          3.35313857e-01, 4.34380978e-01, 1.65783148e-02, 8.28709662e-01,
          2.60816425e-01, 6.02495000e-02, 1.08376190e-01,
          -8.66408348e-02, -5.84717793e-03, 5.77456765e-02,
          2.72439769e-03, -1. ]
      - [ 1.30338594e-01, 2.15302515e+00, -3.75103974e+00,
          -7.03514740e-02, 3.81259352e-01, 1.83371574e-01,
          -9.77620542e-01, -4.40531969e-01, -1.22372188e-01,
          4.88689914e-02, -1.03437426e-02, -1.04100004e-01,
          -1.95690364e-01, -4.56902683e-02, 2.33115572e-02,
          -2.06178371e-02, -5.03024971e-03, -1. ]
      - [ -2.69693756e+00, 1.91487420e+00, 1.63366413e+00,
          -7.86838472e-01, 2.25622401e-01, 1.01978451e-01,
          -6.36811018e-01, -4.96359348e-01, -2.15356290e-01,
          -1.09175652e-01, -6.95584357e-01, 1.31466642e-01,
          -2.77874917e-02, 1.56679135e-02, -1.84300076e-02,
          4.59335111e-02, 2.40671844e-03, -1. ]
      - [ -2.43444276e+00, -2.57016873e+00, -1.09240979e-01,
          -1.34667531e-01, -1.66319162e-01, 1.55094266e-01,
          -2.75018573e-01, -2.40282011e+00, -2.85652727e-01,
          9.70327973e-01, -1.85699597e-01, -4.89830375e-01,
          3.48283827e-01, 6.71496317e-02, 3.95349897e-02,
          -3.23081315e-02, -3.73067008e-03, -1. ]
      - [ -1.14006972e+00, 1.45440968e-02, -3.59927028e-01,
          -1.18859839e+00, 3.46223623e-01, 6.78356886e-01,
          -1.53812930e-01, -1.37868953e+00, -1.62310362e-01,
          2.60846466e-01, 3.64959389e-02, -2.98477888e-01,
          -1.05688773e-01, -4.15440276e-02, -1.75590664e-02,
          -8.94756336e-03, -5.85197611e-03, -1. ]
      - [ -2.90837979e+00, 9.79666635e-02, -3.71830426e-02,
          4.67262447e-01, 8.11977312e-02, 1.16609597e+00, 8.51084769e-01,
          -4.69245553e-01, -6.54250756e-02, -3.00602376e-01,
          3.31643611e-01, -9.46577862e-02, 9.64426771e-02,
          8.48369393e-03, -3.94042432e-02, 2.57927924e-04,
          3.69920192e-04, -1. ]
      - [ 7.87756205e+00, 3.48295927e+00, 1.66334891e+00,
          -2.05925131e+00, -1.05824995e+00, -6.69254243e-01,
          -2.85942227e-01, 4.96782780e-01, 4.63806868e-01,
          -8.88759613e-01, 2.23431453e-01, -6.95419535e-02,
          1.71504307e+00, -1.15436353e-01, 3.01563758e-02,
          -8.26387182e-02, 4.24999706e-02, -1. ]
      - [ -2.33321571e+00, 7.82924473e-01, -1.77668706e-01,
          -3.54704410e-01, 2.21016809e-01, 2.98259676e-01,
          6.47174418e-01, -4.37382221e-01, -5.18213883e-02,
          -3.10176849e-01, -1.17264903e+00, 2.12302089e-01,
          -1.90616697e-01, 2.25019921e-02, 1.51069816e-02,
          -4.22509713e-03, 4.45191329e-03, -1. ]
      - [ 1.65294993e+00, 3.47665977e+00, -1.55452704e+00,
          -1.22343040e+00, 5.56707442e-01, -2.31903180e-01,
          -3.02618861e-01, -5.93633175e-01, -1.23500168e-01,
          -4.18953121e-01, -9.91169289e-02, 1.83278114e-01,
          -1.81132033e-01, -4.01587822e-02, 7.52779469e-03,
          -1.92520525e-02, -1.08311074e-02, -1. ]
      - [ -1.03405023e+00, -1.13561249e+00, 3.18114966e-01,
          9.04120445e-01, 7.86168098e-01, 9.44433451e-01,
          -9.15427625e-01, -2.76301559e-02, 3.96846503e-01,
          6.24802649e-01, 4.39956307e-01, -6.80906922e-02,
          -6.80449158e-02, -8.10822174e-02, -2.59044945e-01,
          -5.17636277e-02, -1.50499237e-03, -1. ]
      - [ -3.32662225e+00, -2.20188093e+00, -9.09985185e-01,
          -2.46879816e+00, 1.13636029e+00, 3.72044235e-01,
          -3.19522202e-01, -5.86056173e-01, -3.52516562e-01,
          2.64194667e-01, -9.82647181e-01, 1.88679602e-02,
          4.87866551e-02, 2.28511374e-02, -7.29348958e-02,
          -2.84493249e-02, 9.43624706e-04, -1. ]
      - [ 5.34847927e+00, 8.88131380e-01, -2.38437638e-01,
          7.04883039e-01, 9.61561441e-01, 7.06809759e-01,
          -1.11413383e+00, -5.15569687e-01, -7.97885537e-01,
          -2.06560865e-01, -1.32402375e-01, 3.26968729e-01,
          3.09830397e-01, -4.03314792e-02, 7.56931081e-02,
          -9.39448737e-03, -7.58861983e-03, 1. ]
      - [ -6.54568195e-01, -4.43880975e-01, -1.95984058e-02,
          -2.71773823e-02, 2.08601415e-01, 1.49480581e+00,
          -9.52554941e-01, 3.32222879e-01, 2.96892077e-01,
          -3.35050434e-01, 2.85667032e-01, 8.73023421e-02,
          -1.94260940e-01, -7.15691447e-02, 7.60331843e-03,
          1.16638355e-02, -6.62803836e-03, -1. ]
      - [ 3.20710993e+00, -1.91359460e+00, 5.39485216e-01,
          1.29817784e-01, 1.12977707e+00, 5.97356021e-01,
          -5.62214434e-01, -8.76796067e-01, -2.37478673e-01,
          2.55828351e-01, 5.54121971e-01, -4.98156212e-02,
          -4.29353192e-02, 2.49368083e-02, 1.55530227e-02,
          -1.50603699e-02, -7.05765095e-03, 1. ]
      - [ -7.71782100e-01, 3.28703523e+00, -3.18869859e-01,
          9.34513450e-01, 1.14855148e-01, 5.21825194e-01, 1.09680772e+00,
          2.21234541e-02, 4.14707810e-01, -4.72150028e-01,
          2.09541559e-01, -2.37191677e-01, -2.84570158e-01,
          -5.29273674e-02, 3.63588869e-03, -1.34281814e-02,
          -2.18292954e-03, -1. ]
      - [ 2.69725204e+00, -1.72850502e+00, -1.71895540e+00,
          -5.10214984e-01, -1.10733640e+00, -1.95942536e-01,
          -4.40358341e-01, 6.44249201e-01, 1.45624429e-01,
          -1.04282588e-01, 5.27153863e-03, 4.67336252e-02,
          -9.71315205e-02, 3.72929801e-03, -8.47455114e-03,
          -2.01451406e-02, 7.80522591e-03, -1. ]
      - [ -3.15314221e+00, -1.00328660e+00, -9.70028862e-02,
          6.97741210e-01, -1.11155231e-02, -7.71858752e-01,
          -1.50155261e-01, 3.89384210e-01, 6.06058717e-01,
          -5.13743341e-01, 4.93367046e-01, 3.98306325e-02,
          8.28584284e-02, 3.05839186e-03, 5.39648999e-03,
          -2.97429562e-02, -4.52551618e-03, -1. ]
      - [ -3.27735066e+00, -2.02276659e+00, -2.85776049e-01,
          -3.14646155e-01, 1.70645133e-01, -5.21895885e-01,
          -1.04980290e-01, 1.20192981e+00, 4.92902219e-01,
          -1.22907035e-01, 3.64507109e-01, -2.24763528e-01,
          9.54230726e-02, -4.45749089e-02, 4.50550243e-02,
          7.58933544e-04, -6.92143454e-04, -1. ]
      - [ 3.03505778e+00, -3.88651341e-01, 4.53252107e-01,
          -6.50921881e-01, -1.02286470e+00, -6.88294828e-01,
          9.34451461e-01, 1.48450926e-01, 1.22223973e-01,
          -3.86051953e-01, 3.29146475e-01, 1.18002161e-01,
          -9.36953798e-02, 4.55982983e-02, -9.56784096e-03,
          -1.78721733e-02, 6.65901089e-03, -1. ]
      - [ -1.57976151e+00, 5.19383252e-01, -5.96879065e-01,
          -1.41482913e+00, 4.88384336e-01, 1.51340556e+00,
          -4.19662654e-01, 1.51668862e-01, -1.26579449e-01,
          -4.06891167e-01, 2.98205078e-01, 2.15874135e-01,
          -5.69173023e-02, -8.97412077e-02, 1.52104697e-03,
          2.59743463e-02, -5.17090457e-03, -1. ]
      - [ 3.50869274e+00, 1.86583650e+00, -1.15373063e+00,
          4.36322503e-02, -1.34454763e+00, 6.35724604e-01,
          -1.01740992e+00, -1.51588321e-01, -6.82146192e-01,
          -8.72224569e-02, 2.03347906e-01, 6.52577341e-01,
          4.55848604e-01, -1.09279186e-01, 3.46477851e-02,
          -1.48647754e-02, 4.47716983e-03, -1. ]
      - [ -1.84543431e+00, 1.13241518e+00, 2.32641268e+00,
          3.43224376e-01, -2.86736429e-01, 1.36013731e-01,
          -6.70267761e-01, 1.35564291e+00, -1.33990079e-01,
          4.91421610e-01, 2.03164324e-01, -2.94085294e-01,
          -1.07755944e-01, -1.38457753e-02, -6.86501758e-03,
          1.61303207e-02, -6.79752207e-04, -1. ]
      - [ 3.49635291e+00, -1.33558333e+00, 9.15320441e-02,
          -8.78352582e-01, -1.11552882e+00, -8.86973381e-01,
          4.29466218e-01, 1.80842504e-01, 4.02515717e-02,
          -2.34476835e-01, 3.81664366e-01, 1.58182904e-01,
          -4.24654856e-02, 4.45353538e-02, 3.41092609e-03,
          -9.79265757e-03, 7.45269842e-03, -1. ]
      - [ -2.50971580e+00, 1.22281063e+00, -3.39672834e-01,
          -7.20745802e-01, 5.60225964e-01, 5.30655086e-01,
          6.70027614e-01, -3.35335642e-01, -3.45556408e-01,
          -3.14773917e-02, 2.72396952e-01, -3.66630219e-02,
          -1.24817505e-01, -1.25679309e-02, 1.35742603e-02,
          5.05244080e-03, -7.89189828e-04, -1. ]
      - [ -3.35377383e+00, -1.51851976e+00, -3.04351430e-02,
          -4.22155917e-01, -2.61967570e-01, 3.19916522e-03,
          -1.06283791e-01, 1.04003817e-01, 5.67872524e-01,
          -7.00693727e-01, 1.42103106e-01, -9.00604874e-02,
          -1.44588882e-02, 2.57587153e-03, 1.79948919e-02,
          -2.01700944e-02, 4.57155704e-03, -1. ]
      - [ -2.24089956e+00, -2.42990777e-01, -2.31809333e-01,
          2.32228184e+00, 2.37835199e-01, -1.50736475e+00,
          -3.17180961e-01, -3.28899026e-01, 3.15364480e-01,
          2.73866296e-01, -5.36787212e-01, -5.54175973e-02,
          3.99642289e-01, 1.23240486e-01, 1.67330746e-02,
          -7.81897828e-02, -2.91354880e-02, -1. ]
      - [ 5.04661441e-01, 2.04216862e+00, -3.79287481e+00,
          5.09785593e-01, -2.30973348e-01, 3.42994988e-01,
          -1.15769756e+00, 4.83254462e-01, 1.91747963e-01,
          -1.92400783e-01, 1.91538911e-02, -5.77760860e-02,
          -2.61616588e-01, -5.39871491e-02, 2.13853084e-02,
          -2.26807762e-02, -3.59187135e-03, -1. ]
      - [ -3.19743919e+00, -9.98869658e-01, -1.95261538e+00,
          -6.15493357e-01, 5.41792750e-01, -4.95455861e-01,
          -6.47684693e-01, 4.53525692e-01, -1.48899145e-02,
          -1.21571504e-01, 2.14081720e-01, 2.22377241e-01,
          2.88162768e-01, 1.17297746e-01, -1.81225929e-02,
          -4.38997149e-02, -1.05660455e-02, -1. ]
      - [ 2.61838269e+00, -6.79002643e-01, 4.78812456e-01,
          -4.08374846e-01, -1.11793005e+00, -5.09394765e-01,
          9.51294363e-01, -1.20611206e-01, -2.02270985e-01,
          -4.07986417e-02, 3.16115081e-01, 1.67573735e-01,
          -5.66363074e-02, 3.94822359e-02, -2.61919834e-02,
          -1.44043630e-02, 6.79952838e-03, -1. ]
      - [ -2.66956162e+00, -1.59080720e+00, -1.56611121e+00,
          -1.81165189e-01, 9.13948417e-02, 7.56119564e-02,
          -8.44253659e-01, 7.20978439e-01, 3.73785049e-01,
          -3.68839324e-01, 4.47454482e-01, -9.02213156e-02,
          8.69618282e-02, 3.24211679e-02, 2.82634795e-02,
          -3.89878415e-02, -1.85880170e-03, -1. ]
      - [ -2.21096492e+00, 1.64721680e+00, 2.05855203e+00,
          -3.61750126e-01, -4.14095551e-01, 2.78933764e-01,
          -1.09475350e+00, 1.26740825e+00, -5.88753164e-01,
          6.42692566e-01, 1.96534440e-01, 1.87500656e-01, 3.96150291e-01,
          5.88843152e-02, -7.38290027e-02, 1.26764074e-01,
          1.76751651e-02, -1. ]
      - [ 3.26250267e+00, -1.62736392e+00, 3.55604768e-01,
          8.06073964e-01, 1.23755276e+00, -8.31514180e-01,
          -2.20605820e-01, 2.26088241e-01, -6.25799596e-02,
          -3.92145604e-01, 4.11829740e-01, 2.00265735e-01,
          -3.44300568e-02, 1.41995884e-02, 6.20934227e-03,
          6.58156304e-03, 9.76702012e-03, -1. ]
      - [ -1.83448792e+00, 6.32965326e-01, 1.72731802e-01,
          1.24627423e+00, 3.17360610e-02, -2.69915462e-01,
          -3.78600776e-01, 1.52559690e-02, 2.39134863e-01,
          -3.36651593e-01, -2.02993661e-01, 4.18883599e-02,
          -1.21569134e-01, 3.32549289e-02, 2.90460493e-02,
          -1.86077245e-02, 5.51054580e-03, -1. ]
      - [ -1.13604069e-01, 1.74912119e+00, -6.32064044e-01,
          -3.42459232e-01, 1.53297797e-01, -2.56651431e-01,
          -1.46453246e-01, -7.37265885e-01, 2.77218342e-01,
          -4.36826736e-01, 2.51647353e-01, -1.17745191e-01,
          -2.82408297e-01, -9.95543506e-03, 1.19693168e-02,
          -1.84759013e-02, -2.43576331e-04, -1. ]
      - [ 3.43383598e+00, -2.03591132e+00, 8.74842763e-01,
          6.07989132e-01, 1.41067219e+00, -9.46441591e-01,
          3.85868907e-01, 5.07846415e-01, 9.96007696e-02,
          -5.82248449e-01, -1.73640966e-01, 1.49469018e-01,
          1.92473885e-02, -4.35490794e-02, 7.62409391e-03,
          5.02691865e-02, 5.53846871e-03, -1. ]
      - [ -8.89228404e-01, 1.19781113e+00, 1.15518653e+00,
          5.50109684e-01, -1.15583527e+00, 4.03259665e-01,
          8.80198255e-02, 4.89716083e-02, -4.62073445e-01,
          2.98019469e-01, -2.81569064e-01, 3.52907963e-02,
          -1.48388013e-01, 3.51419512e-05, 4.33109999e-02,
          2.02327836e-02, -2.13014195e-03, -1. ]
      - [ -1.31244278e+00, 1.32202840e+00, -4.59684163e-01,
          4.78298403e-02, -6.55765235e-01, 1.20136368e+00,
          -7.94722736e-01, 1.02051467e-01, 7.94312134e-02,
          -3.35334629e-01, 1.12842262e-01, 1.26524657e-01,
          6.16664067e-02, -5.45699857e-02, -1.24991918e-02,
          4.45087813e-02, 2.18309509e-03, -1. ]
      - [ 5.15541553e-01, 3.28749156e+00, -3.18890166e+00,
          -3.72043520e-01, 7.43416846e-01, -9.23674285e-01,
          -3.44205469e-01, -9.65839744e-01, -5.48672915e-01,
          6.01705670e-01, -1.69292092e-02, -1.56747073e-01,
          -2.02217340e-01, -2.84992298e-03, 2.43443232e-02,
          -3.08647510e-02, -2.91678053e-03, -1. ]
      - [ -2.49098492e+00, -2.70821154e-01, -8.24935794e-01,
          1.42906338e-01, -3.72411124e-02, 4.13799047e-01,
          -9.41006780e-01, 9.95046675e-01, 2.63183892e-01,
          2.62976557e-01, 4.53839630e-01, -2.55961835e-01,
          2.56467193e-01, 5.14473580e-02, -8.90782550e-02,
          3.44977278e-04, 2.83664116e-03, -1. ]
      - [ 8.13228011e-01, -9.32448566e-01, -1.52675045e+00,
          8.60784769e-01, 1.88049212e-01, 4.93013293e-01,
          -1.08798659e+00, 1.34464955e+00, 3.57167691e-01,
          4.36251581e-01, 4.88266349e-01, -3.00727904e-01,
          -1.51307806e-01, -5.00279851e-02, -1.87751520e-02,
          -3.06080338e-02, 3.95985786e-03, -1. ]
      - [ 2.07845163e+00, -2.86092162e+00, -1.64662802e+00,
          -9.30133164e-01, -9.71439958e-01, -2.04497904e-01,
          -3.35551798e-01, 1.61978215e-01, 3.86391252e-01,
          -4.93879586e-01, -9.17306542e-01, 1.48180142e-01,
          -6.54915199e-02, -2.29847729e-02, 2.52293088e-02,
          1.37842884e-02, 1.03646070e-02, -1. ]
      - [ -3.22015929e+00, -1.08919978e-01, -3.88778001e-01,
          -1.18243241e+00, 9.45718467e-01, -8.94425333e-01,
          8.55919480e-01, -9.07859579e-02, -2.26748019e-01,
          -1.18830696e-01, 3.41836631e-01, 4.76738401e-02,
          -3.84489298e-02, -3.74595784e-02, -5.18121012e-02,
          1.80067134e-03, 1.10829473e-02, -1. ]
      - [ 3.66605568e+00, -1.82125187e+00, -1.67805481e+00,
          -1.09336235e-01, -1.40906751e+00, 1.19199902e-02,
          -5.70736229e-01, 1.43660438e+00, -4.75262433e-01,
          1.11684275e+00, -1.54587433e-01, -3.07503879e-01,
          1.33883543e-02, 1.91913657e-02, 2.83683501e-02,
          -2.42307149e-02, 2.38455529e-03, 1. ]
      - [ 2.08876443e+00, 2.09866595e+00, 2.16671681e+00, 1.36570442e+00,
          5.72742879e-01, -9.03253034e-02, -6.74829185e-01,
          -1.21139157e+00, -8.24252486e-01, 6.64914668e-01,
          -6.58409968e-02, -5.23851737e-02, 6.40422255e-02,
          -2.69656722e-02, -1.30133668e-03, -1.95462327e-03,
          -9.07123461e-03, -1. ]
      - [ 8.16403484e+00, 1.53586709e+00, -1.81147921e+00,
          6.92863822e-01, 1.34626281e+00, -4.13092077e-02,
          -8.83544683e-01, -5.17037511e-01, -2.39197016e-01,
          -5.33731937e-01, 3.87280703e-01, -5.79673648e-01,
          1.88126378e-02, 7.69802108e-02, -3.89238223e-02,
          -4.18249192e-03, -2.02573985e-02, -1. ]
      - [ 3.60859489e+00, -1.40462983e+00, 2.04409957e-02,
          -9.77461517e-01, -1.22564292e+00, 3.12187932e-02,
          -1.16227396e-01, 7.20174611e-01, -3.03372622e-01,
          2.96965778e-01, 4.08117563e-01, 2.51798052e-03,
          -7.59022236e-02, 4.09100540e-02, 7.73611479e-03,
          -1.82464700e-02, -3.35982651e-03, -1. ]
      - [ 2.04767561e+00, -2.19661975e+00, 3.20071101e-01,
          -3.31484109e-01, -1.31990206e+00, -3.26860517e-01,
          1.71681970e-01, 4.38225985e-01, -4.11817580e-01,
          1.04182923e+00, -4.51440781e-01, -6.10547923e-02,
          3.68541442e-02, 3.51756737e-02, 4.73507978e-02, 2.06984906e-03,
          8.79834685e-03, -1. ]
      - [ -4.07838896e-02, 2.51529145e+00, 2.59871078e+00,
          -5.71408808e-01, -1.04531407e+00, -5.70272990e-02,
          -1.05500877e+00, -1.96540967e-01, 1.11831099e-01,
          -1.58076420e-01, -2.14308053e-01, -1.29991412e-01,
          1.02966070e-01, -6.97196871e-02, 6.55287951e-02,
          1.11128855e-02, -4.60464275e-04, -1. ]
      - [ -2.54308581e+00, 3.14400196e-02, -1.96835380e-02,
          -1.91971645e-01, 8.38532969e-02, 2.75406629e-01,
          -3.44838828e-01, 8.91535342e-01, -9.74052250e-02,
          -4.08220030e-02, 8.19860771e-02, 3.59773263e-02,
          -3.44845131e-02, 1.47260977e-02, -6.28132522e-02,
          -1.39820725e-02, 1.69978035e-03, -1. ]
      - [ 2.55595040e+00, -1.55563176e+00, -6.67251507e-03,
          -1.10689509e+00, -1.09770501e+00, 4.00096089e-01,
          -1.41427264e-01, -5.75694084e-01, -1.41776934e-01,
          1.72773317e-01, 3.64157021e-01, 6.10043369e-02,
          -9.43335444e-02, 2.48078145e-02, 1.00108497e-02,
          -1.26592750e-02, -5.41159976e-03, 1. ]
      - [ -2.69017076e+00, 1.02584958e+00, -6.56533778e-01,
          -2.34075367e-01, 5.77176392e-01, -1.69913614e+00,
          4.92306530e-01, 3.99270475e-01, 9.36967805e-02,
          -2.99930811e-01, -7.92360306e-01, 1.23012133e-01,
          -1.04694225e-01, -4.19033840e-02, 2.52514016e-02,
          2.54307650e-02, 9.14412830e-03, -1. ]
      - [ 6.86268806e-01, 3.58305073e+00, 3.19654584e-01, 1.65888239e-02,
          -5.32202303e-01, 5.11869788e-01, 2.88025320e-01,
          -1.41540810e-01, 3.74029070e-01, -8.33144903e-01,
          -3.44527632e-01, 2.24601422e-02, -1.59614608e-01,
          -7.51376227e-02, 2.07985509e-02, -6.34499313e-03,
          -7.11455848e-03, -1. ]
      - [ -2.90357995e+00, 2.69563556e-01, 1.70860851e+00,
          -1.58506244e-01, -8.52362633e-01, 8.11676323e-01,
          -5.89660645e-01, 2.12824211e-01, 1.16796575e-01,
          -2.45286077e-02, -2.07192346e-01, 4.25974578e-02,
          1.69356599e-01, 4.72482219e-02, -5.35397232e-02,
          6.71188608e-02, 7.34590972e-03, -1. ]
      - [ -3.77672374e-01, 6.52774751e-01, -2.04771295e-01,
          9.60867882e-01, -8.41420963e-02, 8.26135755e-01,
          -9.01551366e-01, -1.32838237e+00, -2.46265471e-01,
          5.15995443e-01, -1.44731432e-01, 7.24844187e-02,
          2.54501961e-02, -3.67750786e-02, -4.61747162e-02,
          9.02794302e-03, -3.94757185e-03, -1. ]
      - [ -1.55515206e+00, 1.33836794e+00, -2.28512859e+00,
          -3.41112638e+00, 2.53196359e+00, -1.55635989e+00,
          4.22608852e-01, 7.33593762e-01, -1.06258035e+00,
          6.50089204e-01, -3.84925008e-02, 3.03099453e-01,
          -1.86425418e-01, 2.79164053e-02, -2.52027605e-02,
          -1.30521562e-02, 9.79806576e-03, -1. ]
      - [ -2.95830393e+00, -3.22474390e-01, -1.30383551e+00,
          -8.58708285e-03, 1.71430647e-01, -1.17581224e+00,
          -2.05131367e-01, 3.48546833e-01, 3.28615755e-01,
          -2.70452589e-01, 3.92869234e-01, 2.32840300e-01,
          4.11196835e-02, 9.57954396e-03, -1.01957684e-02,
          -3.48928012e-02, -2.74259341e-03, -1. ]
      - [ -3.59592485e+00, -9.55412015e-02, 9.18408111e-02,
          1.35118395e-01, 2.61979371e-01, -5.21663129e-01,
          5.67766309e-01, 5.92671096e-01, 1.20617926e-01,
          -2.96216667e-01, -5.46205081e-02, 4.60582152e-02,
          1.11408077e-01, 6.48336932e-02, 1.30880037e-02,
          -3.59856039e-02, -3.07907211e-03, -1. ]
      - [ 4.66298699e-01, 3.89080882e+00, -9.60079312e-01,
          6.57996356e-01, -2.45301221e-02, -6.00177765e-01,
          -3.71081263e-01, 5.43475211e-01, 2.59654194e-01,
          -1.12687461e-01, -1.04594231e-01, -3.48318666e-01,
          -3.15535605e-01, -3.33537012e-02, 4.92469827e-03,
          -2.79983692e-02, -2.97014089e-03, -1. ]
      - [ -2.97779775e+00, -1.09550500e+00, -9.77448165e-01,
          -4.73939449e-01, 2.32234687e-01, -1.21198140e-01,
          -5.76662421e-01, -3.03610951e-01, 6.91145062e-02,
          -2.78453797e-01, 8.03864300e-02, -3.71186770e-02,
          1.09997526e-01, 5.45146167e-02, -4.14982904e-03,
          -3.54708135e-02, -1.50925259e-03, -1. ]
      - [ -1.53526735e+00, 5.39174639e-02, -4.02626246e-01,
          -1.83049893e+00, 8.46435905e-01, 5.86752258e-02,
          3.88975620e-01, -1.01892376e+00, -2.66053975e-01,
          3.00289720e-01, 3.27693850e-01, -1.18021779e-01,
          -1.38661802e-01, -1.65095795e-02, -4.90532592e-02,
          -1.66302770e-02, 9.95375798e-04, -1. ]
      - [ 4.00781822e+00, -2.03886652e+00, 7.95182168e-01,
          4.00125176e-01, 1.55522120e+00, -2.01804444e-01,
          -2.82988131e-01, 6.84045628e-02, -1.27294317e-01,
          -2.56475806e-01, 9.39352810e-03, 1.91480175e-01,
          -5.77694252e-02, 6.08243197e-02, 1.16656497e-02,
          -1.49650211e-02, 4.37799841e-03, -1. ]
      - [ -1.19505000e+00, 1.58631814e+00, 1.01057911e+00,
          -1.31525517e-01, -7.67662227e-01, 8.97248685e-01,
          -1.45001292e-01, -4.20392901e-01, 1.07033819e-01,
          -3.20330113e-01, -3.85832526e-02, -2.46059090e-01,
          -1.03521407e-01, -6.78190514e-02, 2.02339664e-02,
          1.54040447e-02, -5.42770280e-03, -1. ]
      - [ -1.94674718e+00, 5.65145850e-01, -2.52668917e-01,
          -1.09001160e+00, 4.72876936e-01, 2.04800296e+00,
          3.79848361e-01, 5.42692304e-01, -1.97493315e-01,
          -1.96336582e-01, 6.64005280e-01, 5.27062006e-02,
          8.50711986e-02, -1.06133446e-01, 1.06437234e-02,
          3.87610309e-02, -2.99417111e-03, -1. ]
      - [ 9.01453376e-01, 1.62013829e+00, -5.44864511e+00,
          1.02100158e+00, 6.17179945e-02, -5.93054295e-01,
          -5.61699092e-01, -1.57919860e+00, -5.16946554e-01,
          9.84023333e-01, 1.44042492e-01, -2.02193558e-01,
          -3.91999539e-03, 2.97716539e-03, 3.22369374e-02,
          -4.86182496e-02, 1.92553096e-03, -1. ]
      - [ -7.31607378e-01, 1.52152646e+00, 7.09613919e-01,
          -1.62757874e-01, -6.70843363e-01, 8.50687861e-01,
          3.92512292e-01, -6.27399310e-02, 2.91160554e-01,
          -5.97689271e-01, 7.28359371e-02, -2.97329485e-01,
          -2.28849038e-01, -5.45206405e-02, 1.48291280e-02,
          1.66652398e-03, -5.55490563e-03, -1. ]
      - [ 4.58276272e+00, 1.60359645e+00, 1.40012300e+00,
          -1.53391898e+00, -1.08015764e+00, 2.99539894e-01,
          -2.84930050e-01, 4.68489885e-01, -2.80989446e-02,
          -6.79460883e-01, 4.74749595e-01, 5.15638649e-01,
          3.40887547e-01, -5.41006811e-02, 4.79883663e-02,
          -1.77694634e-02, -2.81504169e-03, -1. ]
      - [ -4.58527863e-01, 1.48735213e+00, -4.65210533e+00,
          -1.77576110e-01, 8.18777263e-01, -1.08060896e+00,
          -4.62275445e-01, -5.92678003e-02, -4.80833203e-01,
          1.92975655e-01, 3.24501097e-01, 2.73761868e-01,
          -1.36728436e-01, -7.32994592e-03, -2.49701478e-02,
          -4.04166616e-02, 8.49780347e-03, -1. ]
      - [ 3.54029465e+00, -2.25843859e+00, -1.28509283e+00,
          1.19581211e+00, 1.45161676e+00, 1.57785758e-01,
          -1.08353734e+00, -1.10474862e-01, -2.41952896e-01,
          3.62806320e-01, -1.76861569e-01, -2.78545339e-02,
          -2.36848220e-02, 1.81452595e-02, 8.20605457e-03,
          -2.36797109e-02, 4.78932867e-03, -1. ]
      - [ -3.14102769e+00, -1.86657727e+00, 1.78618208e-01,
          -1.32404494e+00, 3.33233923e-01, 1.52217638e+00,
          -3.18803549e-01, 6.64788127e-01, 3.80642414e-01,
          -5.95753193e-01, -8.13859403e-01, -1.54235497e-01,
          -9.94141847e-02, -9.02091339e-03, 3.90692353e-02,
          1.00449594e-02, 5.19362278e-04, -1. ]
      - [ 2.30180192e+00, -2.48696947e+00, -1.45656490e+00,
          -4.68447059e-02, -1.28865576e+00, -6.06467605e-01,
          -9.26552415e-02, -1.16838109e+00, -2.61933506e-01,
          9.87144649e-01, 8.95148441e-02, -8.62719268e-02,
          1.23707607e-01, -1.83514301e-02, -9.72379837e-03,
          -2.15824530e-03, 9.01591964e-03, -1. ]
      - [ -2.85360622e+00, -1.82539713e+00, -6.53801203e-01,
          -1.56139225e-01, -5.89031935e-01, 2.38640279e-01,
          -5.72693348e-01, -5.48536479e-01, 5.83262026e-01,
          -7.40318000e-02, 3.55566800e-01, -8.69146585e-02,
          1.11951038e-01, 4.36175019e-02, 3.51991355e-02,
          -3.17973159e-02, -2.09014281e-03, -1. ]
      - [ -1.66709483e+00, 1.68681550e+00, 4.42718416e-01,
          1.65032908e-01, -4.36673343e-01, 8.10322762e-01,
          6.28876746e-01, -6.21740341e-01, 1.36405751e-01,
          -3.46995264e-01, 2.17996925e-01, -3.31700534e-01,
          -1.57620192e-01, -7.76614398e-02, -1.18605085e-01,
          -1.91065446e-02, -3.11900163e-03, -1. ]
      - [ 3.61743140e+00, -8.98056746e-01, 5.53991079e-01,
          -6.98892236e-01, -1.19940162e+00, -4.40250695e-01,
          7.59463251e-01, -7.20022619e-02, -3.77729744e-01,
          9.63594615e-02, 4.13264222e-02, 1.97555393e-01,
          -5.39779216e-02, 7.50229433e-02, 2.62936652e-02,
          -1.20278932e-02, 2.47808476e-03, -1. ]
      - [ 3.37768269e+00, -7.45179355e-01, -1.85763860e+00,
          -1.61886811e-01, -1.25891483e+00, 6.64753765e-02,
          -6.41821086e-01, 7.29385912e-01, -1.63993761e-01,
          4.33542490e-01, 2.94531107e-01, -2.13214941e-02,
          -1.22036830e-01, 6.38006069e-03, -1.67318936e-02,
          -2.95974836e-02, -1.76864234e-03, -1. ]
      - [ -2.11626673e+00, 8.80845129e-01, -1.01800561e+00,
          2.80519038e-01, 1.81041241e-01, -1.04140747e+00,
          -2.03642771e-01, 1.95995331e-01, 4.60343450e-01,
          -4.52334821e-01, -3.05234432e-01, 4.93697217e-03,
          -1.57700375e-01, -1.69655040e-03, 2.35448908e-02,
          -1.98315252e-02, 1.08493883e-02, -1. ]
      - [ -3.69635987e+00, -1.61233366e+00, -2.44899020e-02,
          2.35548094e-01, 8.20172057e-02, -4.37159508e-01,
          -1.88322872e-01, 6.60353839e-01, 8.61467361e-01,
          -3.33620667e-01, -1.63514227e-01, -1.02348821e-02,
          2.31252104e-01, 6.09112158e-02, -5.08296080e-02,
          -6.76541403e-02, -1.66001730e-02, -1. ]
      - [ 3.88358665e+00, -8.58045816e-01, 5.82966626e-01,
          -4.33763087e-01, -1.32412779e+00, -7.30198085e-01,
          7.74036109e-01, 8.48913044e-02, -6.55573428e-01,
          3.21676791e-01, 3.05296481e-01, 1.83665529e-01,
          -3.61353951e-03, 7.67177716e-02, 1.57507826e-02,
          -1.13274027e-02, 4.19253390e-03, -1. ]
      - [ 2.89343929e+00, -1.76742089e+00, 4.08853054e-01,
          -4.19245809e-01, -1.36116636e+00, -3.59018713e-01,
          2.80826986e-01, -1.19036578e-01, -5.82899094e-01,
          1.02539849e+00, 9.28556547e-02, 4.33852747e-02, 3.21766287e-02,
          5.09810336e-02, 7.00501492e-03, -1.17905550e-02,
          4.02529771e-03, -1. ]
      - [ -2.96456289e+00, -1.16944158e+00, -3.91162813e-01,
          5.55175006e-01, -6.77370727e-01, -1.03861547e+00,
          -2.76056100e-02, 4.88160312e-01, 6.18744135e-01,
          -4.92985368e-01, 2.77352601e-01, -3.38504128e-02,
          7.49593675e-02, -7.70922378e-02, 3.71092785e-04,
          1.05314367e-02, -6.13084342e-03, -1. ]
      - [ -2.31725645e+00, 1.39854169e+00, 1.75849700e+00,
          6.46825060e-02, -5.34780025e-02, 6.10945284e-01,
          -7.32326686e-01, -4.46807176e-01, 1.35179773e-01,
          -3.60307872e-01, -2.42233366e-01, -1.17708176e-01,
          -2.86240000e-02, -1.74473953e-02, -3.34019633e-03,
          3.87738682e-02, 9.16620076e-04, -1. ]
      - [ 1.29982710e+00, -1.69168758e+00, 5.07598341e-01,
          4.43689018e-01, 1.03881443e+00, 7.92278051e-02,
          -3.02277178e-01, 2.45363498e-03, 4.08246785e-01,
          -1.60775155e-01, -2.14394853e-02, 1.83400795e-01,
          -1.43354177e-01, -1.47608118e-02, -1.03267424e-01,
          -2.52151676e-02, 8.69962852e-03, -1. ]
      - [ -2.22149205e+00, -4.35010731e-01, 5.88829041e-01,
          8.52283597e-01, 4.15292159e-02, 1.18192315e+00,
          -2.45241150e-01, 1.00194526e+00, -3.53455693e-02,
          3.02560896e-01, 2.44622424e-01, -2.42188364e-01,
          1.87358543e-01, 2.52724495e-02, -1.13162510e-02,
          2.76645031e-02, 2.32999353e-03, -1. ]
      - [ -7.89676011e-01, 1.62254298e+00, -1.61891115e+00,
          -1.14904416e+00, 7.41624057e-01, -2.50770628e-01,
          -3.38945746e-01, -3.37894648e-01, 9.28464532e-02,
          -1.61812708e-01, -1.06734179e-01, -1.73795328e-01,
          -2.68116683e-01, -1.91169064e-02, 5.16170822e-03,
          -2.23173779e-02, -1.67095335e-04, -1. ]
      - [ -1.76197600e+00, -1.22661483e+00, -8.95965770e-02,
          -2.92623997e-01, -8.00815165e-01, 6.15492702e-01,
          -4.14702415e-01, -5.23766041e-01, 4.87246156e-01,
          7.07503259e-02, 1.03972763e-01, 7.66647533e-02,
          -1.48254320e-01, -1.15675582e-02, -1.06306303e-04,
          -1.02121523e-02, 2.99073802e-03, -1. ]
      - [ 3.29533172e+00, -8.98679197e-01, 1.71359271e-01,
          -1.04264486e+00, -9.46036518e-01, -7.78823733e-01,
          5.06243408e-01, 8.47201347e-01, 5.29918313e-01,
          -3.93844336e-01, 3.68420154e-01, -2.43351519e-01,
          -6.57625943e-02, 2.58412044e-02, -1.48729025e-03,
          -2.45444756e-02, 7.07653817e-03, -1. ]
      - [ -3.29453516e+00, -1.13617790e+00, -1.47791818e-01,
          3.31060797e-01, -8.24516952e-01, 1.52146459e-01,
          -5.89212537e-01, -3.54921669e-02, 3.13286871e-01,
          -9.98691618e-02, 3.53036255e-01, 2.71249991e-02,
          5.27176976e-01, 1.71083733e-01, -5.96589558e-02,
          2.46936306e-02, 5.09446720e-04, -1. ]
      - [ 3.80285144e+00, -2.59155542e-01, 6.60819530e-01,
          2.03214332e-01, 9.71170366e-01, -1.73480347e-01,
          -1.02487519e-01, 8.74267459e-01, 4.21740383e-01,
          -1.93799347e-01, 4.85541999e-01, -2.37186238e-01,
          -1.40275583e-01, 2.59276163e-02, -2.95847990e-02,
          -4.01679538e-02, -1.41803443e-03, -1. ]
      - [ 1.25389135e+00, -2.79683352e-01, 5.05316973e-01,
          1.59905717e-01, -1.20562971e+00, 1.55623600e-01,
          5.59068978e-01, -9.38760117e-02, -1.36796504e-01,
          1.15520346e+00, 1.99364170e-01, 1.02262966e-01,
          -8.85732546e-02, -4.10644189e-02, -2.46316671e-01,
          -5.11622839e-02, 3.95458250e-04, -1. ]
      - [ -1.08107984e+00, 2.58985043e+00, 1.96454152e-01,
          1.94749439e+00, -1.41450405e-01, -5.18984616e-01,
          -2.09305778e-01, 1.99025422e-01, -7.33252242e-02,
          -1.58340931e-01, -3.10547501e-01, 1.29946381e-01,
          -2.06181452e-01, 4.80616763e-02, 8.71676877e-02,
          1.31703870e-04, 4.36395174e-03, -1. ]
      - [ -2.43861961e+00, -2.38019252e+00, 3.75244915e-02,
          9.42235410e-01, -9.59429502e-01, -8.08673978e-01,
          -1.48815498e-01, 3.34527969e+00, 3.16102564e-01,
          1.79178762e+00, 9.84393209e-02, -9.73283768e-01,
          5.58534205e-01, 4.49486561e-02, 2.56408080e-02,
          -7.80208632e-02, -2.87589058e-02, -1. ]
      - [ -3.39321423e+00, -5.81936538e-01, -2.15544537e-01,
          -1.12397337e+00, 5.88950872e-01, 2.00436667e-01,
          -1.26677513e-01, 4.19465840e-01, -1.24484576e-01,
          -2.59363174e-01, 2.63908803e-01, -3.85214761e-02,
          -1.87254567e-02, 2.93152854e-02, 1.24733103e-02,
          -9.92328301e-03, 1.97162246e-03, -1. ]
      - [ 2.61165166e+00, -1.69690478e+00, -1.67876732e+00,
          -5.08856475e-01, -1.12138319e+00, -8.03131014e-02,
          -5.01820803e-01, 5.66195965e-01, 8.40421095e-02,
          -6.08143136e-02, 1.05288066e-02, 7.35453740e-02,
          -1.11052811e-01, 8.82133655e-03, 6.43468462e-04,
          -1.97028238e-02, 6.56294450e-03, -1. ]
      - [ 1.64828455e+00, -2.10382533e+00, -1.35289991e+00,
          7.80158222e-01, 8.37568521e-01, 2.10996315e-01,
          -9.99565244e-01, -1.52176008e-01, 1.38959795e-01,
          -7.92944208e-02, 1.09231330e-01, 1.37869507e-01,
          -1.09721385e-01, -1.59216933e-02, -1.65224485e-02,
          -1.68598909e-02, 8.61094147e-03, -1. ]
      - [ -2.58279824e+00, 2.59840488e-01, -1.52149089e-02,
          1.44809449e+00, -9.65874016e-01, -1.59605908e+00,
          3.32718402e-01, -6.02264583e-01, 1.55810446e-01,
          6.31200969e-02, 1.52024627e-01, -3.89965280e-05,
          1.81830943e-01, 3.70316766e-02, 4.28062491e-02,
          -2.86898557e-02, -8.44144635e-03, -1. ]
      - [ -2.16315961e+00, -1.03325224e+00, -2.41765827e-02,
          -3.74354422e-01, -2.04123231e-03, -6.78648174e-01,
          5.75031161e-01, -1.94484305e+00, -8.24955106e-02,
          6.25833035e-01, -3.77569795e-01, -4.89982903e-01,
          1.14944220e-01, -1.89959928e-02, 2.63317302e-03,
          -8.73726979e-03, 9.84459650e-03, -1. ]
      - [ -8.81362796e-01, -1.86051321e+00, 2.66350657e-01,
          1.71766967e-01, 3.26897353e-01, 1.20346141e+00,
          -8.05287242e-01, -9.34064865e-01, -7.95072466e-02,
          2.16374964e-01, 1.87834457e-01, -1.52943522e-01,
          -6.79390728e-02, -2.71619707e-02, 1.65853500e-02,
          2.46031233e-03, -2.70565669e-03, -1. ]
      - [ 6.81798220e-01, 2.37471843e+00, -2.98893905e+00,
          9.21306312e-01, 2.24359427e-02, -1.22842205e+00,
          -3.86590302e-01, 8.06425691e-01, 4.44996357e-01,
          -1.75072819e-01, 2.21130013e-01, -2.25015298e-01,
          -2.43546665e-01, -2.34581716e-02, 3.29305008e-02,
          -3.24415788e-02, 1.26858717e-02, -1. ]
      - [ 1.65237665e-01, 2.51761055e+00, -1.08685672e+00,
          1.14312243e+00, -1.08334684e+00, -4.12683129e-01,
          -7.29352176e-01, -6.17366619e-02, -9.58470106e-02,
          -2.66069502e-01, -2.39571780e-01, 2.56953359e-01,
          -3.12982589e-01, 4.46754135e-03, 3.01524606e-02,
          -7.19692325e-03, 8.67985364e-04, -1. ]
      - [ -8.96864057e-01, 2.22435698e-01, -1.00667834e+00,
          -1.38653827e+00, 4.68683779e-01, 6.69151172e-02,
          -1.36805668e-01, -9.95843172e-01, 2.45259210e-01,
          4.93749157e-02, 5.49702525e-01, -4.30212855e-01,
          -1.58409730e-01, -2.95643341e-02, -1.04690494e-03,
          -2.41317376e-02, 1.11141999e-04, -1. ]
      - [ -3.30913901e+00, -3.45389247e-01, 2.70274043e-01,
          4.02437419e-01, 4.13817018e-02, 4.88492042e-01, 3.02180797e-01,
          -1.27475504e-02, 2.11213514e-01, -4.64400083e-01,
          4.65942591e-01, 1.40851185e-01, 8.54681283e-02, 5.70033267e-02,
          -5.43149095e-03, -1.00337062e-02, -2.07556906e-04, -1. ]
      - [ -2.11893702e+00, 3.26608062e-01, -3.31682801e-01,
          1.26535940e+00, -8.34699795e-02, -3.34876239e-01,
          -6.57638550e-01, -4.25630420e-01, 2.13088363e-01,
          -9.05060843e-02, 3.27345282e-01, -4.55313176e-02,
          9.26234424e-02, 6.16978370e-02, -1.75266620e-02,
          -3.32265049e-02, -2.12293700e-04, -1. ]
      - [ -7.31542945e-01, 4.60772395e-01, -3.77873361e-01,
          1.69660521e+00, 1.83804974e-01, 6.80490211e-02,
          -1.02211261e+00, -4.86012757e-01, -3.02188039e-01,
          3.21593165e-01, 3.21590394e-01, -2.97250226e-02,
          -1.03729144e-02, 2.79627275e-02, 3.32944989e-02,
          -5.87994838e-03, 2.73515237e-04, -1. ]
      - [ -3.00397968e+00, -6.83663905e-01, -8.72867778e-02,
          -5.65021753e-01, -3.47863883e-01, 1.30288613e+00,
          -7.33901501e-01, 3.62866908e-01, 3.19571018e-01,
          -2.96867698e-01, 3.22889000e-01, -6.65906891e-02,
          1.90754488e-01, 3.24906521e-02, -2.00328343e-02,
          5.50904311e-02, 5.24620386e-03, -1. ]
      - [ -3.06858850e+00, -7.74830401e-01, 2.52533793e-01,
          7.30084538e-01, -1.56699196e-01, -9.67843086e-02,
          -4.16070729e-01, 1.28198838e+00, 3.01445961e-01,
          3.23636174e-01, 1.40393883e-01, -1.65242612e-01,
          4.14968222e-01, 1.39398590e-01, -2.18968634e-02,
          -1.14247380e-02, -4.50014370e-03, -1. ]
      - [ 2.82586455e+00, -1.46799815e+00, 3.43243778e-01,
          6.67964041e-01, 1.10511065e+00, -3.85033965e-01,
          -3.50982219e-01, -2.21145913e-01, -1.95057224e-02,
          -1.75095275e-01, 4.24626917e-01, 2.19035536e-01,
          -8.77578855e-02, 3.22517455e-02, -6.03662571e-03,
          -1.30699771e-02, 7.30033219e-03, -1. ]
      - [ -1.68718129e-01, 2.11195636e+00, -8.15455496e-01,
          -8.13926816e-01, 4.56792980e-01, -6.23242408e-02,
          -9.84738246e-02, -1.37828040e+00, -6.18459105e-01,
          4.69899207e-01, -2.78520882e-01, 1.57591831e-02,
          -1.42342359e-01, -1.70535278e-02, 1.39148021e-02,
          -3.64225986e-03, -7.71791628e-03, -1. ]
      - [ -2.38279462e+00, 1.11830950e+00, -8.35116208e-01,
          -2.32290173e+00, 1.38325942e+00, 8.64175618e-01,
          6.25654384e-02, 3.35895836e-01, -5.46395123e-01,
          2.81405479e-01, 9.96106565e-02, -8.09970964e-03,
          -6.70600310e-02, -6.15171418e-02, -1.92870703e-02,
          1.55742345e-02, -5.64114051e-03, -1. ]
      - [ 3.32921982e+00, -9.58165705e-01, 9.63385224e-01,
          8.03987443e-01, 1.22909737e+00, -3.14612776e-01,
          4.65555280e-01, -3.53199989e-01, -2.89989024e-01,
          -2.78874129e-01, 2.80985832e-01, 8.60654339e-02,
          -3.98688018e-02, 5.99917546e-02, 4.50761020e-02,
          -6.89532468e-03, 5.76852448e-03, -1. ]
      - [ -3.90596962e+00, -4.58362728e-01, -5.19772053e-01,
          -2.15476251e+00, 1.28256524e+00, 1.03012633e+00,
          5.02617732e-02, 8.40524673e-01, -1.03905070e+00,
          5.37236631e-01, 3.05957794e-01, 2.63805985e-01, 5.20465076e-01,
          1.41542703e-01, -1.26368878e-02, 1.34515360e-01,
          1.46219041e-02, -1. ]
      - [ 3.37983036e+00, -2.19890571e+00, 6.18059099e-01,
          -9.75979865e-02, 1.21978915e+00, 8.52015138e-01,
          -6.67620003e-01, -5.53988755e-01, -2.80226439e-01,
          -3.55185010e-02, 8.24015737e-02, 1.86697617e-01,
          -9.05060470e-02, 2.51966920e-02, -6.93394477e-03,
          -1.13995587e-02, -8.45501479e-03, 1. ]
      - [ 2.28304291e+00, 1.11852431e+00, 2.52966076e-01, 2.30507398e+00,
          6.91680610e-01, -1.51316798e+00, -1.57568932e-01,
          5.91664851e-01, -3.00059021e-01, 2.38441139e-01,
          -6.58162683e-02, 1.39887631e-01, -1.23450384e-01,
          2.88212784e-02, 3.53092328e-02, 3.98971315e-05, 1.40911657e-02,
          -1. ]
      - [ -6.73779130e-01, 2.89751101e+00, -3.73814225e-01,
          3.96845490e-01, 5.56223206e-02, 5.49084246e-01, 3.95708054e-01,
          -7.74679124e-01, -1.61831424e-01, -1.52108029e-01,
          2.06998125e-01, -2.37699188e-02, -1.65331364e-01,
          -4.69957143e-02, 5.03419265e-02, 9.98629071e-03,
          -6.16724929e-03, -1. ]
      - [ 2.87289238e+00, -9.90827680e-01, 7.45980918e-01,
          1.09972000e+00, 1.14927447e+00, -1.24032402e+00,
          5.09962261e-01, 3.66986573e-01, 4.15025614e-02,
          -5.20360827e-01, 2.67998129e-01, 1.91203311e-01,
          -1.16930436e-02, -5.36409579e-02, 3.70835827e-04,
          5.16033024e-02, 6.90784305e-03, -1. ]
      - [ -2.67548156e+00, 1.57828820e+00, 2.67339492e+00,
          -7.23175406e-01, -4.23441410e-01, 1.50642186e-01,
          -1.23654640e+00, 6.01966619e-01, -3.64632308e-02,
          8.31640810e-02, -2.65118092e-01, 7.31714293e-02,
          1.04363836e-01, 1.54433595e-02, -3.60275991e-02,
          7.55456090e-02, 8.08849093e-03, -1. ]
      - [ 2.97031975e+00, -5.09127617e-01, 8.01944852e-01,
          8.11040223e-01, 1.11948323e+00, 2.63917506e-01, 8.24965894e-01,
          -6.61503494e-01, -1.90356463e-01, -1.36458412e-01,
          -2.76321709e-01, 2.05048569e-03, -6.93345442e-02,
          4.30569872e-02, 8.77435412e-03, -1.83440335e-02,
          1.30095810e-03, -1. ]
      - [ -9.74404931e-01, 3.39062452e-01, 6.21969178e-02,
          5.36593974e-01, -1.06515050e+00, 7.92536959e-02,
          -1.90479964e-01, -6.88508987e-01, -2.41903923e-02,
          4.01557297e-01, -2.49719188e-01, 5.08174822e-02,
          -1.35555521e-01, 5.48981410e-03, -1.05713774e-02,
          -1.22768274e-02, 2.35321675e-03, -1. ]
      - [ 3.06332803e+00, -2.48423982e+00, 7.36278772e-01,
          9.54457641e-01, 1.35015929e+00, -2.03693599e-01,
          -3.51574481e-01, -8.71551096e-01, -5.65703928e-01,
          6.18639350e-01, -1.53497219e-01, -2.00809469e-03,
          6.66038468e-02, 4.28657234e-02, 3.85502377e-03,
          -1.03884647e-02, 6.50359225e-03, -1. ]
      - [ -1.59507835e+00, 5.13752222e-01, -5.81314191e-02,
          1.28598905e+00, -1.55755222e-01, -1.18659407e-01,
          -7.08256066e-01, 1.03306711e+00, 2.34238133e-01,
          3.40284288e-01, -2.55870849e-01, -1.11104138e-01,
          -2.15891446e-03, 3.78223136e-02, -1.53537225e-02,
          -2.67533325e-02, 1.95294491e-03, -1. ]
      - [ -2.20001936e-01, 6.05302989e-01, 5.60881138e-01,
          1.43665779e+00, 5.39826155e-01, 1.31480837e+00, 7.23663509e-01,
          6.19953752e-01, -1.03003778e-01, 3.42007965e-01,
          2.11344078e-01, 3.31067555e-02, -1.55087844e-01,
          -6.25967160e-02, -8.74223709e-02, -1.06578004e-02,
          -3.00774793e-03, -1. ]
      - [ 6.26653254e-01, 2.87099767e+00, -2.14799857e+00,
          -2.27395487e+00, 1.32090116e+00, 2.64965355e-01,
          -3.66202950e-01, -8.37205708e-01, -2.63783664e-01,
          3.80035579e-01, -2.74712443e-01, -3.01606655e-01,
          2.10128844e-01, -1.08370796e-01, 2.38396693e-02,
          -2.85536144e-02, -5.75902453e-03, -1. ]
      - [ 8.17650414e+00, 1.69203520e+00, -3.69035721e+00,
          1.26319253e+00, 9.21754062e-01, -7.49655426e-01,
          -6.78142726e-01, 6.28883243e-01, -2.05818415e-01,
          -1.19031489e+00, -3.75983536e-01, -7.53325403e-01,
          -1.98478535e-01, 1.89427674e-01, -7.89437667e-02,
          2.89384928e-02, -6.32061390e-03, -1. ]
      - [ -2.07799411e+00, -1.26199424e+00, -1.60496652e+00,
          5.94330847e-01, 1.10746836e-02, -3.49604666e-01,
          -7.30297506e-01, 3.67865972e-02, 6.69701993e-01,
          -6.53256178e-01, -1.18824981e-01, -1.13961762e-02,
          -1.58068780e-02, -1.37181999e-02, 2.33243834e-02,
          -2.96676923e-02, 3.75874224e-03, -1. ]
      - [ -2.17712140e+00, -1.19113970e+00, 5.10280952e-02,
          1.47514552e-01, 1.59375578e-01, 9.15728033e-01,
          -8.22151124e-01, -8.36284906e-02, 4.49541390e-01,
          -3.36911380e-01, 2.47875243e-01, 6.70823306e-02,
          -1.06150419e-01, -5.53457718e-03, -7.73932203e-04,
          -4.91990661e-03, 5.47349919e-04, -1. ]
      - [ -3.06806397e+00, -4.55913723e-01, -2.00547934e-01,
          -1.42318976e+00, 6.03019893e-01, 6.24832392e-01,
          -1.52790666e-01, 7.54605949e-01, -5.05995564e-02,
          7.09509850e-02, 2.00168416e-01, -1.75101846e-01,
          -6.55529350e-02, -1.17478780e-02, -2.23432425e-02,
          -5.93359722e-03, 3.84749001e-04, -1. ]
      - [ -1.09430099e+00, -1.03546524e+00, -6.05119169e-01,
          -1.88421345e+00, 5.47323823e-01, 9.57885265e-01,
          -2.07875803e-01, -1.94052625e+00, -1.60947129e-01,
          7.61413395e-01, 5.44346094e-01, -6.99924052e-01,
          2.15679538e-02, -5.65041751e-02, 1.21608283e-02,
          -1.16779981e-02, -9.17493273e-03, -1. ]
      - [ -1.57368839e+00, -1.60457134e+00, -1.09664738e+00,
          -1.44997895e+00, 6.99284896e-02, 1.12021017e+00,
          -8.52534235e-01, -9.04142618e-01, -1.93203276e-03,
          -1.41242027e-01, -3.77519488e-01, -2.62167193e-02,
          -1.31466866e-01, -2.88211405e-02, 1.09191677e-02,
          -2.85855611e-04, -3.08230123e-03, -1. ]
      - [ -3.17498302e+00, -7.28072286e-01, -9.92117152e-02,
          -1.11340547e+00, 6.71444654e-01, -2.98614472e-01,
          5.37621498e-01, 1.06686532e+00, -8.70527700e-02,
          4.63218577e-02, -1.95244849e-01, -1.52317183e-02,
          -4.25465927e-02, -1.47213032e-02, -6.28899187e-02,
          -1.91999953e-02, 8.96998122e-03, -1. ]
      - [ 1.85409856e+00, -1.47679985e+00, 4.40110207e-01,
          8.08496058e-01, 8.29577625e-01, -9.77147043e-01,
          1.90211400e-01, -5.11774242e-01, 9.74828750e-02,
          -3.23634923e-01, 3.34631801e-01, 5.08697107e-02,
          8.74409266e-03, -5.30151874e-02, -2.61927731e-02,
          3.09117623e-02, 9.35272314e-03, -1. ]
      - [ 2.87106371e+00, -1.57208407e+00, 1.83840126e-01,
          -7.43212104e-01, -1.33027792e+00, 4.36046541e-01,
          -2.24051625e-01, 9.02021155e-02, -7.16243565e-01,
          7.02475131e-01, 3.69268686e-01, 9.73760262e-02,
          -4.58028652e-02, 3.10886055e-02, 3.77293080e-02,
          1.22418147e-04, -7.10221194e-03, -1. ]
      - [ -2.56653953e+00, -1.45346236e+00, -6.47921920e-01,
          2.78481871e-01, -1.02031797e-01, 3.50545764e-01,
          -9.08027112e-01, 1.13389790e+00, 4.43435341e-01,
          1.71482727e-01, 5.72005808e-01, -7.76637346e-02,
          1.69915244e-01, 6.16427138e-02, 1.71270054e-02,
          -2.17157248e-02, -2.49746651e-03, -1. ]
      - [ 6.26933861e+00, 2.01156020e+00, -2.34684467e-01,
          -1.09429622e+00, -8.65833104e-01, 9.96149778e-01,
          1.50356150e+00, 1.03673220e+00, 1.55570418e-01,
          -6.31519973e-01, 3.85394543e-01, -2.22278401e-01,
          1.83596060e-01, -4.59591299e-02, 1.84874679e-03,
          -3.77930813e-02, -1.61257628e-02, -1. ]
      - [ 5.44224834e+00, 1.44527960e+00, -4.58511859e-01,
          8.65114868e-01, 6.20042205e-01, 6.30500317e-01,
          -1.14848638e+00, -1.07154346e+00, -1.03978550e+00,
          -6.76711500e-02, -2.49177143e-01, 3.65084916e-01,
          8.43810797e-01, -9.35578719e-02, 9.63406637e-02,
          -2.70906519e-02, 1.05083790e-02, -1. ]
      - [ 5.90219617e-01, 2.72740269e+00, -3.99276471e+00,
          5.81653118e-01, 1.37643591e-01, -2.14284629e-01,
          -9.02384877e-01, 1.09684813e+00, -1.12303384e-01,
          5.84183514e-01, -1.66369662e-01, -2.85350531e-01,
          -2.00715750e-01, -3.45188752e-02, 3.62433009e-02,
          -3.17975804e-02, -1.86336925e-03, -1. ]
      - [ 8.41617703e-01, 3.62607408e+00, -2.74864221e+00,
          7.26825714e-01, -2.96739221e-01, -1.07452914e-01,
          -9.01591420e-01, 3.68091911e-01, 2.89185882e-01,
          -8.46190676e-02, 2.33390227e-01, -2.48162732e-01,
          -2.69015819e-01, -6.44037127e-02, 3.01470142e-02,
          -2.42616180e-02, -6.08799746e-03, -1. ]
      - [ 2.78745985e+00, -1.46241558e+00, 1.95850223e-01,
          -1.23331344e+00, -9.93692279e-01, -1.29080638e-01,
          2.33537197e-01, -9.70268548e-02, 1.27111048e-01,
          -4.63395089e-01, -6.66110441e-02, 1.42665267e-01,
          -1.25721559e-01, 4.89672758e-02, 1.10099064e-02,
          -1.54267512e-02, 2.98325578e-03, -1. ]
      - [ -1.69146764e+00, 1.21655613e-01, 1.03550710e-01,
          3.62050176e-01, -9.79061425e-01, 4.96651918e-01,
          -3.66693616e-01, -3.50097567e-01, -1.30027509e-03,
          1.06795482e-01, -4.35187101e-01, 2.59724371e-02,
          -5.81201613e-02, 1.48640256e-02, -2.20043492e-03,
          -3.18509818e-04, 3.61144776e-04, -1. ]
      - [ 3.18648124e+00, -6.35390222e-01, 4.48995352e-01,
          -5.43279052e-01, -1.06362188e+00, -1.03480506e+00,
          1.08861947e+00, -1.30989045e-01, 1.02561802e-01,
          -2.44152918e-01, 3.23894620e-01, 1.97279826e-01,
          -3.69751267e-02, 3.56039554e-02, -8.88246484e-03,
          -4.82275523e-03, 8.54502898e-03, -1. ]
      - [ 2.14466310e+00, -2.36701918e+00, -1.28774893e+00,
          -9.60969627e-01, -1.01991093e+00, 1.96484745e-01,
          -4.45647627e-01, -2.48526871e-01, 2.13017687e-01,
          -1.20963193e-01, -4.36864316e-01, 8.04609135e-02,
          -1.00878738e-01, 1.41300745e-02, 9.69022233e-03,
          -1.65504366e-02, 5.65168494e-03, -1. ]
      - [ 2.73633242e+00, 1.40857041e+00, 4.11656570e+00, 7.82518923e-01,
          1.28888249e+00, -3.35187256e-01, -1.75696814e+00,
          -1.27831632e-02, -4.66499090e-01, 9.24945354e-01,
          -4.85385716e-01, 2.98337221e-01, 2.85742551e-01,
          -5.34535423e-02, -6.19903877e-02, -1.73081271e-02,
          -1.30199362e-03, -1. ]
      - [ -1.58068824e+00, 2.23284674e+00, 3.17286205e+00,
          -6.72674626e-02, -3.96739841e-01, -3.47511061e-02,
          -1.71963418e+00, 7.00375915e-01, -2.51747340e-01,
          1.54238224e-01, 2.56513566e-01, 3.02260935e-01, 3.27025652e-01,
          -2.80737272e-03, -2.09241658e-02, 9.43913236e-02,
          1.60706192e-02, -1. ]
      - [ 2.78503275e+00, -1.83457947e+00, 4.07390356e-01,
          -4.27952170e-01, 9.39788520e-01, 8.24058831e-01,
          -5.74258387e-01, -5.73743105e-01, 1.20703779e-01,
          -3.85422349e-01, 1.40082479e-01, 1.17741182e-01,
          -1.48184597e-01, 1.90208741e-02, 1.46876276e-02,
          -1.15771918e-02, -7.18728080e-03, 1. ]
      - [ 3.00257421e+00, -1.78473639e+00, 9.82340649e-02,
          -1.43413329e+00, -1.08882511e+00, 6.26511395e-01,
          -1.93225369e-01, -2.12498084e-01, -2.06521347e-01,
          -1.18886970e-01, -2.63600834e-02, 2.68651396e-01,
          -1.32024556e-01, 2.94226687e-02, -3.99782788e-03,
          -8.90383776e-03, -7.88043533e-03, 1. ]
      - [ 3.10284114e+00, -1.47871542e+00, 9.73300517e-01,
          7.27811515e-01, 1.36998999e+00, -2.21872285e-01,
          2.91610628e-01, 5.11125997e-02, -1.89618692e-01,
          -3.55847865e-01, -2.04961553e-01, 1.97616220e-01,
          -5.76251894e-02, 3.57313752e-02, -3.99436466e-02,
          -1.41671021e-02, 7.90790468e-03, -1. ]
      - [ -2.49680018e+00, 6.97662115e-01, -2.64513165e-01,
          -2.26093322e-01, -8.32178593e-02, 1.93112373e-01,
          -3.38830262e-01, 2.08248183e-01, 3.21671516e-01,
          -3.10386628e-01, -7.42019862e-02, 5.91385663e-02,
          -1.55442432e-01, 6.32481044e-03, -1.80908684e-02,
          -1.24316644e-02, 1.94056949e-03, -1. ]
      - [ 3.68013406e+00, -5.78238845e-01, 3.42141181e-01,
          -3.23277682e-01, -1.20612848e+00, -1.49183595e+00,
          9.33755100e-01, -4.62353751e-02, -2.30076119e-01,
          -2.34254554e-01, 2.57628649e-01, 2.05772981e-01,
          6.56056032e-03, 3.33523117e-02, 1.12021035e-02, 1.19040040e-02,
          8.81547015e-03, -1. ]
      - [ 6.18055439e+00, -3.79070565e-02, 7.85800040e-01,
          1.18136548e-01, 1.43762016e+00, -8.42577517e-01,
          2.46168852e-01, -7.28784800e-01, 2.30382979e-01,
          -5.33001125e-01, 1.00981295e-01, -2.93971151e-01,
          -4.23368961e-02, 8.90602693e-02, -2.03378368e-02,
          -5.33063971e-02, -3.28977662e-03, -1. ]
      - [ -7.09306777e-01, 1.89511275e+00, -1.02034561e-01,
          8.39112699e-01, -2.36040610e-03, 1.23660517e+00,
          3.84454936e-01, 5.23796916e-01, 3.63092460e-02,
          -2.92317122e-01, 2.23802179e-01, -1.81897819e-01,
          -1.46736562e-01, -1.03793368e-01, -1.12766005e-01,
          -1.36445593e-02, -5.02372347e-03, -1. ]
      - [ -2.07355022e+00, -1.30812573e+00, 2.50760496e-01,
          -8.05877149e-02, 1.38753861e-01, 1.31792855e+00,
          -7.02420950e-01, -4.38797534e-01, 2.26229414e-01,
          -3.06384295e-01, 1.82593897e-01, -6.46137670e-02,
          -7.60681033e-02, -2.15158165e-02, 1.64065398e-02,
          1.00507988e-02, -1.77004654e-03, -1. ]
      - [ -4.67280954e-01, -1.45992649e+00, 5.07020772e-01,
          5.29397845e-01, 6.28850877e-01, 1.32059669e+00,
          -8.87533009e-01, 7.94211805e-01, 1.29893064e-01,
          5.98806798e-01, 5.01750410e-01, -2.18985572e-01,
          -1.04301691e-01, -5.79699874e-02, -2.29328088e-02,
          -4.33233613e-03, -4.01836121e-03, -1. ]
      - [ 1.61663067e+00, -1.79055166e+00, 7.63756409e-02,
          -4.97272104e-01, -1.16746938e+00, -3.07371438e-01,
          5.80371208e-02, 3.04812729e-01, -1.57278702e-01,
          1.70407057e-01, -1.75901338e-01, 1.83246538e-01,
          -7.64814466e-02, 3.05774119e-02, 4.16071825e-02,
          5.36366459e-03, 9.56869498e-03, -1. ]
      - [ -3.14127207e+00, -1.77545726e+00, -1.22381784e-01,
          -1.20989442e+00, 3.80117685e-01, 5.15900373e-01,
          -1.84904784e-01, -3.70238096e-01, 2.13401139e-01,
          -3.83529216e-01, 5.97152293e-01, -2.07388088e-01,
          -5.68142869e-02, -2.81091826e-03, 6.23345412e-02,
          -1.58783328e-03, 5.08569274e-03, -1. ]
      - [ -2.40040231e+00, -1.14970958e+00, -6.45531535e-01,
          -2.07630277e+00, 1.00571489e+00, -7.82836452e-02,
          1.34226128e-01, -7.94318557e-01, -2.87479967e-01,
          3.09059173e-01, 1.53022632e-01, 2.16341708e-02,
          -8.67943466e-02, -9.45245195e-03, -4.68508936e-02,
          -1.35250920e-02, 6.89823180e-03, -1. ]
      - [ -2.02312136e+00, -5.24446130e-01, -8.33037913e-01,
          -2.00603652e+00, 1.08851862e+00, -2.14948639e-01,
          -2.18689349e-02, 1.58017433e+00, -1.15817755e-01,
          6.51288033e-01, -5.46735883e-01, -3.63495499e-01,
          -1.20612226e-01, -1.12561304e-02, 1.55224036e-02,
          -1.47973914e-02, 8.42316449e-03, -1. ]
      - [ 1.54192042e+00, -1.66916299e+00, 2.47639626e-01,
          7.98713975e-03, 6.53010905e-01, 8.72133136e-01,
          -7.24729836e-01, -7.06342220e-01, -1.68570802e-01,
          -1.12019747e-01, 5.80656230e-01, 5.43643422e-02,
          -1.29402846e-01, -1.87962560e-03, 2.89888121e-02,
          -7.86085147e-04, -5.35212643e-03, -1. ]
      - [ -2.36197948e+00, 2.10041314e-01, -6.75309300e-01,
          2.30510071e-01, 2.30312154e-01, -1.59366894e+00,
          3.53171915e-01, -8.80331874e-01, 6.32540584e-02,
          1.06168285e-01, 1.58008158e-01, -1.30649239e-01,
          3.86359952e-02, -7.36262202e-02, -3.02223451e-02,
          1.43963387e-02, 5.98072680e-03, -1. ]
      - [ 1.88949692e+00, -2.73611689e+00, -1.67310870e+00,
          2.72221923e-01, 8.24894786e-01, -6.37936294e-01,
          -4.61738169e-01, 1.32929400e-01, 7.82140791e-01,
          -9.53689873e-01, -4.21753317e-01, 3.59323584e-02,
          -4.58273590e-02, -2.26505443e-01, -5.12896513e-04,
          1.21533811e-01, -6.33695349e-03, -1. ]
      - [ 7.47805262e+00, 1.24459565e+00, 8.33459496e-01,
          -9.49411333e-01, 1.15604615e+00, 2.11088464e-01,
          7.64774621e-01, 8.73797894e-01, 5.00889242e-01,
          -1.43469739e+00, -1.04326978e-01, -6.35995626e-01,
          -6.90611005e-02, 4.19637337e-02, -2.44893562e-02,
          -5.30186743e-02, -1.92884523e-02, -1. ]
      - [ -1.97895300e+00, 1.34269249e+00, 9.18680787e-01,
          -8.25062171e-02, 3.32811952e-01, -8.89491439e-01,
          1.07965374e+00, 2.19028187e+00, -1.84982181e-01,
          1.18476808e+00, -5.05872846e-01, -5.37904918e-01,
          -4.33535725e-02, -4.61273268e-02, -2.01418206e-01,
          -5.02356701e-02, 1.22535806e-02, -1. ]
      - [ -2.05673027e+00, 4.94990021e-01, 5.11046827e-01,
          1.31095243e+00, 4.54740413e-02, 5.67985415e-01,
          -3.86149913e-01, 6.02720559e-01, -2.42118444e-02,
          2.37135425e-01, 3.74650151e-01, -1.70763776e-01,
          1.50187761e-01, 4.68070470e-02, 5.19877952e-03, 2.03135461e-02,
          2.60697375e-03, -1. ]
      - [ 2.02513337e+00, -2.44285583e+00, -1.83457172e+00,
          -7.23974466e-01, -9.31144178e-01, -5.30424953e-01,
          -2.13471204e-01, 2.74369806e-01, 5.61390281e-01,
          -6.32853568e-01, -4.41481888e-01, 1.07085779e-01,
          -5.83296530e-02, -7.54536539e-02, -1.05183944e-02,
          2.90732905e-02, 8.52427911e-03, -1. ]
      - [ -9.12284672e-01, 6.90935850e-01, -2.51640797e+00,
          -2.03554773e+00, 1.87938821e+00, -2.70778847e+00,
          9.17343557e-01, -1.31081784e+00, -1.09504271e+00,
          1.15773904e+00, -5.54066956e-01, 1.71076208e-02,
          9.14259627e-02, -1.54719189e-01, -1.72504864e-03,
          1.08534805e-01, -2.65874388e-03, -1. ]
      - [ -1.96452111e-01, -1.87546468e+00, -2.03655887e+00,
          4.73389089e-01, -9.61063027e-01, -8.82804096e-01,
          -1.23452663e-01, -1.63419500e-01, 9.90122676e-01,
          4.96303022e-01, 5.34059294e-02, 2.02172831e-01,
          -2.25702655e-02, -3.06092203e-01, -3.11392844e-01,
          5.96133098e-02, -4.50832350e-03, -1. ]
      - [ 3.22802043e+00, -4.65898663e-01, -3.87404382e-01,
          -9.82751548e-01, -1.10246980e+00, 3.75656128e-01,
          -3.68424624e-01, -6.70133159e-02, -8.78792778e-02,
          -1.52069181e-01, 4.52201098e-01, 1.47451878e-01,
          -1.58485085e-01, 7.77056674e-03, -1.49998451e-02,
          -1.72648653e-02, -1.01709962e-02, -1. ]
      - [ 2.59399414e+00, 1.04392275e-01, -3.71004033e+00,
          4.11918610e-01, -1.07833791e+00, 1.67970777e-01,
          -8.82347703e-01, -2.57556677e-01, 6.27082810e-02,
          -3.53625208e-01, 4.84467089e-01, 1.13527372e-01,
          -2.17522800e-01, -1.25669930e-02, 1.73502800e-03,
          -2.67080273e-02, 6.69088156e-04, -1. ]
      - [ 1.13862586e+00, 3.49376869e+00, -1.69546759e+00,
          6.75422311e-01, -6.63955331e-01, 5.09576917e-01,
          -1.37525344e+00, 9.03905809e-01, -5.80813944e-01,
          8.93906578e-02, -2.07019933e-02, 6.08949125e-01,
          6.94186628e-01, -4.37288545e-02, 3.30414772e-02,
          8.40823650e-02, 2.72175148e-02, -1. ]
      - [ -1.48242927e+00, 4.57650125e-01, 1.46434987e+00,
          1.09699178e+00, 2.13991310e-02, 7.05605268e-01, 8.16902071e-02,
          -1.90489268e+00, -3.40201825e-01, 1.04486704e+00,
          9.00930911e-02, -3.63812834e-01, 1.36126354e-01,
          4.75282664e-04, 6.22591749e-03, 1.46140112e-02,
          -3.24491435e-03, -1. ]
      - [ 9.26837146e-01, 2.89006782e+00, -2.41631937e+00,
          5.92980146e-01, -1.34119391e-01, 1.78563386e-01,
          -1.10668266e+00, 6.93329990e-01, -1.82809923e-02,
          3.22837126e-03, 3.45977902e-01, 8.13018456e-02,
          -2.35878095e-01, -6.39236197e-02, 2.96962373e-02,
          -9.15795006e-03, -6.73278188e-03, -1. ]
      - [ 2.46241856e+00, -1.42182505e+00, 2.21417323e-01,
          -5.58203757e-01, -1.30048430e+00, 4.29053485e-01,
          -2.44654715e-01, 1.08414388e+00, -4.05409783e-01,
          1.01743197e+00, 3.44103098e-01, -8.98443609e-02,
          -6.40750527e-02, 1.54977310e-02, 3.85608338e-02,
          -5.13045583e-03, -4.81076213e-03, -1. ]
      - [ -1.52188027e+00, -1.26246500e+00, 1.08302109e-01,
          -5.66988111e-01, -8.88538182e-01, 1.49743915e+00,
          -5.84341228e-01, -3.68722808e-03, 7.64430240e-02,
          -2.57079955e-03, -3.96796465e-02, -1.41374925e-02,
          -9.65596139e-02, -4.02238481e-02, 2.18270421e-02,
          1.81821566e-02, -4.08701180e-03, -1. ]
      - [ -1.37070692e+00, 1.23378623e+00, 3.18221897e-02,
          9.55658555e-01, -1.12334287e+00, 2.21258476e-01,
          -4.98197198e-01, 5.12752116e-01, -1.91242561e-01,
          3.52977365e-01, -2.97678232e-01, 3.22489301e-03,
          1.80259086e-02, 3.52805294e-02, 1.32415369e-02, 1.60980094e-02,
          1.81488332e-03, -1. ]
      - [ 2.33010054e+00, -1.26971424e+00, -2.05332302e-02,
          -8.20628464e-01, -1.24052382e+00, 8.08499813e-01,
          -3.99605930e-01, -5.92603922e-01, -6.66929305e-01,
          3.90486240e-01, 3.72019649e-01, 1.33380830e-01,
          -5.50093837e-02, -1.13266939e-03, 2.34357882e-02,
          4.09757765e-03, -1.10693853e-02, -1. ]
      - [ -2.41404486e+00, -1.21454608e+00, 3.82616185e-03,
          7.04971910e-01, 9.89306197e-02, 4.12047058e-01,
          -8.80274177e-01, 3.79992157e-01, 2.05398083e-01,
          -2.14092672e-01, 3.87347519e-01, 8.32790975e-03,
          1.02560364e-01, 5.83279803e-02, 2.19943672e-02,
          -1.06119877e-02, -3.59802565e-04, -1. ]
      - [ -2.09893489e+00, -6.28434345e-02, 1.53424397e-01,
          7.96718717e-01, -9.48099568e-02, -6.29181206e-01,
          1.76602811e-01, -1.09033561e+00, 3.14341694e-01,
          7.08783492e-02, 2.06677720e-01, -1.34731919e-01,
