%YAML:1.0
---
opencv_ml_svm:
   format: 3
   svmType: NU_SVR
   kernel:
      type: RBF
      gamma: 8.9299999177455902e-02
   C: 1.
   nu: 2.0090000331401825e-01
   term_criteria: { iterations:7500 }
   var_count: 19
   sv_total: 9472
   support_vectors:
      - [ -3.83828950e+00, -2.09995055e+00, 4.54660535e-01,
          -2.56073743e-01, 2.62690723e-01, 2.38860458e-01,
          4.41543698e-01, 7.22374488e-03, 2.22274482e-01,
          -3.79932404e-01, 3.24677080e-01, -9.02690664e-02,
          6.73932061e-02, -1.04892591e-04, -6.06436320e-02,
          1.05770696e-02, 4.87296376e-04, -1., -1. ]
      - [ 5.17649937e+00, -2.39262193e-01, -1.08500683e+00,
          1.49530029e+00, 5.99088490e-01, 1.04481988e-01, 2.49306411e-01,
          -1.02522731e-01, 8.91437709e-01, 9.14687037e-01,
          3.49209428e-01, -1.45001441e-01, -3.98214549e-01,
          1.30747318e-01, -7.64673874e-02, 6.30310224e-03,
          4.61013941e-03, -1., -1. ]
      - [ 1.07536900e+00, 2.66880608e+00, -1.88699794e+00,
          1.03363490e+00, -1.80092621e+00, 8.66403222e-01,
          5.96709907e-01, 1.98191687e-01, 2.32666284e-01,
          -3.01235259e-01, 2.61233687e-01, -5.73602691e-02,
          7.77897984e-02, -1.27663359e-01, 6.10974431e-02,
          -1.68901272e-02, -3.09899636e-03, -1., -1. ]
      - [ -2.76506186e+00, -1.42012084e+00, -9.84231472e-01,
          -3.07832271e-01, 5.71541131e-01, 2.34448746e-01,
          -4.11386788e-01, -1.02084947e+00, -6.02084339e-01,
          -2.39994273e-01, 7.76151717e-02, -2.53019482e-01,
          7.60362670e-02, 5.70278168e-02, 1.27410004e-02, 2.61852425e-02,
          -9.79110555e-05, -1., -1. ]
      - [ 1.41921532e+00, 1.76573133e+00, 4.64688897e-01,
          -2.01242518e+00, 5.25818542e-02, 7.85914481e-01,
          -3.90639663e-01, 1.01156555e-01, 4.36747938e-01,
          -2.86164761e-01, 2.30938848e-02, -2.48392988e-02,
          1.01225764e-01, 3.08943056e-02, -3.71482526e-03,
          -1.33362729e-02, -4.19480633e-03, -1., 1. ]
      - [ 7.10346818e-01, 7.49008536e-01, -6.82169572e-02,
          4.37677592e-01, 8.30175161e-01, -7.61360586e-01,
          -4.99274969e-01, 2.28983939e-01, -3.40929180e-01,
          2.00708389e-01, 4.46083508e-02, -1.76899284e-01,
          2.23688036e-01, 1.83464903e-02, 1.35321182e-03,
          -1.22326752e-02, -4.37374786e-03, -1., 1. ]
      - [ 2.33572459e+00, 1.40280211e+00, 6.22473061e-01,
          -2.49311137e+00, 2.78703094e-01, 7.58994043e-01,
          -1.11311980e-01, 3.61214817e-01, 4.75158304e-01,
          -1.10174082e-01, 3.74556668e-02, -1.83823090e-02,
          2.18764134e-02, 1.06579438e-02, -1.12854561e-03,
          -2.20746044e-02, -3.40631953e-03, -1., 1. ]
      - [ -1.30285427e-01, 2.24612641e+00, -1.73966825e-01,
          -8.29194784e-01, -1.03904486e+00, 9.57876384e-01,
          -4.99959081e-01, -7.76980579e-01, 4.68457699e-01,
          -2.68401295e-01, 7.33648911e-02, -1.20962895e-01,
          -3.38323152e-04, -2.28785202e-02, 8.99970345e-03,
          -3.08024697e-03, -9.73139657e-04, 1., 1. ]
      - [ 1.82909489e+00, 1.14949298e+00, -3.51429224e-01,
          -6.85447037e-01, -6.89873993e-01, 8.31838608e-01,
          1.02176917e+00, -5.86877108e-01, 4.62648660e-01,
          -2.14040652e-01, 3.43564525e-03, -1.82196021e-01,
          2.33331583e-02, -7.73183033e-02, 1.97692327e-02,
          4.66677768e-04, 4.38399334e-03, 1., 1. ]
      - [ 3.32556653e+00, -7.38528907e-01, -3.76871914e-01,
          1.47287953e+00, 1.95447798e-03, 1.62793137e-02,
          -5.08831263e-01, -2.57752061e-01, 1.59612134e-01,
          -3.73002231e-01, -9.97677967e-02, 1.29644185e-01,
          -4.39261086e-02, 9.25436430e-03, -8.44928436e-03,
          4.89774439e-03, -2.39444838e-04, -1., 1. ]
      - [ -2.94833922e+00, -1.81158185e+00, -6.06285572e-01,
          -3.05717766e-01, 5.53260326e-01, 6.22048199e-01,
          -7.51500964e-01, -8.38779569e-01, 3.92098486e-01,
          4.69464995e-02, -3.18928361e-01, -1.50715560e-01,
          5.57376206e-01, 1.81246668e-01, 2.03507692e-02, 3.65302227e-02,
          1.32112124e-03, -1., -1. ]
      - [ -1.41723442e+00, 3.16439509e+00, 7.98004508e-01,
          4.68631804e-01, 5.54782391e-01, -1.48146558e+00,
          9.33361590e-01, 9.93969962e-02, -4.66036260e-01,
          1.15300882e+00, 3.75792757e-02, 2.53915399e-01,
          -1.00729398e-01, 2.50957720e-02, 2.75624152e-02,
          1.36800967e-02, -6.48701284e-03, -1., -1. ]
      - [ 3.34099317e+00, -1.53057277e+00, 1.36854720e+00,
          2.51065135e-01, 1.27745032e+00, -6.30715966e-01,
          -1.52851999e+00, -8.26477528e-01, 5.27007759e-01,
          -1.57260582e-01, -1.47902638e-01, 2.67854124e-01,
          -5.87957576e-02, -8.91933143e-02, 2.37676315e-02,
          -1.10724000e-02, 1.67353661e-03, -1., -1. ]
      - [ 3.78235054e+00, -1.08207798e+00, 3.64453137e-01,
          7.81663299e-01, 8.43076229e-01, -2.94346333e-01,
          -1.22577977e+00, -7.48961806e-01, 5.26797414e-01,
          6.42567456e-01, -1.95188031e-01, 3.11974347e-01,
          -2.76628017e-01, -4.66709770e-02, 2.35560685e-02,
          -3.98105755e-03, -1.14380405e-03, -1., 1. ]
      - [ -1.24723621e-01, 2.60010481e+00, -1.03767347e+00,
          2.97027916e-01, 6.60284877e-01, -1.10645342e+00,
          -5.47285259e-01, 6.99773669e-01, 4.79489267e-02,
          -3.72821018e-02, 2.71269847e-02, 3.13342750e-01,
          1.78517908e-01, -4.43376042e-02, -3.78932655e-02,
          9.46453139e-02, -4.10024950e-04, -1., 1. ]
      - [ 9.41530049e-01, 2.02242923e+00, 1.68295634e+00,
          -6.73295736e-01, -9.73396122e-01, 9.86272275e-01,
          -6.03817105e-01, -5.64538479e-01, 2.18714371e-01,
          5.90767898e-03, 7.56391063e-02, -2.43336141e-01,
          6.27186075e-02, -1.88322142e-02, 1.73549913e-02,
          4.51058755e-03, 4.17979574e-03, 1., 1. ]
      - [ 1.44463515e+00, 9.70447659e-01, -7.36202836e-01,
          3.45352679e-01, 9.12049413e-01, -8.09786499e-01,
          -3.44662935e-01, 5.52998960e-01, 1.64535850e-01,
          -5.26458502e-01, 1.07840225e-01, -3.35239321e-02,
          9.87398922e-02, -3.79429348e-02, -8.87960941e-03,
          -1.94156095e-02, -6.21980382e-03, -1., -1. ]
      - [ -2.50149059e+00, -2.71627092e+00, -1.73111901e-01,
          -6.07493967e-02, 7.49407560e-02, 3.49740505e-01,
          1.73722073e-01, 5.56171715e-01, 4.99778152e-01,
          -2.32850760e-01, -1.61541834e-01, -2.96180636e-01,
          -8.82141944e-03, -9.24481750e-02, -3.47968517e-03,
          1.14526581e-02, 9.35245655e-04, -1., -1. ]
      - [ 3.23478198e+00, -2.70175433e+00, -5.85553110e-01,
          -2.99456406e+00, -3.59587407e+00, -2.66608119e+00,
          -1.95043802e-01, -6.10997081e-01, 1.23918824e-01,
          -1.33349758e-03, -2.63259441e-01, -1.49152398e-01,
          2.21359178e-01, -1.16827667e-01, 6.40081763e-02,
          2.29252363e-03, 4.30264743e-03, -1., -1. ]
      - [ 4.11124086e+00, -2.12350893e+00, 1.83692563e+00,
          -2.00923610e+00, 1.13862050e+00, 5.60415268e-01,
          -6.78853452e-01, 1.13325067e-01, -8.14936832e-02,
          -2.51620591e-01, 1.93862393e-01, -1.56267673e-01,
          2.75295287e-01, -9.77780018e-03, 1.33123985e-02,
          -1.36950063e-02, 8.68139323e-03, -1., -1. ]
      - [ 3.52757978e+00, -1.76482832e+00, -2.88059264e-01,
          6.77310586e-01, 7.82640994e-01, -3.41007650e-01,
          2.35211313e-01, 3.07337102e-02, -1.60144776e-01,
          -4.89991367e-01, -6.75651580e-02, -1.04843050e-01,
          8.15730542e-02, -4.51867990e-02, -1.70310115e-04,
          -2.08256999e-03, 4.10945574e-03, -1., -1. ]
      - [ -3.48088145e+00, -4.99471933e-01, -8.35261345e-01,
          -4.95264292e-01, 4.83884603e-01, -2.07145661e-01,
          2.97482938e-01, 1.39154300e-01, -2.44797722e-01,
          -4.77166086e-01, -4.52761352e-02, -1.02702491e-01,
          -1.37286380e-01, 2.92012077e-02, 1.56802107e-02,
          -7.92026985e-03, -5.21825487e-03, -1., -1. ]
      - [ 8.06651950e-01, 1.99835622e+00, -1.91937447e-01,
          -5.62961996e-01, -8.82843137e-01, 8.56164753e-01,
          -2.54783690e-01, -5.11165000e-02, 2.29334459e-01,
          -5.21945357e-01, 1.04795314e-01, -1.32322788e-01,
          9.43818539e-02, -4.32807617e-02, 1.42194447e-03,
          -1.19744977e-02, -2.71237153e-03, -1., 1. ]
      - [ -3.92578602e+00, -1.83354509e+00, 9.98623192e-01,
          3.99718463e-01, -2.81696588e-01, 3.70154351e-01,
          2.78918296e-01, 2.82059647e-02, 1.96749851e-01,
          -4.19971704e-01, 1.01726204e-01, 4.65834364e-02,
          5.07610943e-03, -4.75047380e-02, 1.76838401e-03,
          1.76538415e-02, -3.09489667e-04, -1., -1. ]
      - [ 3.61139488e+00, -3.82674009e-01, -9.43762138e-02,
          2.88886353e-02, -4.48395729e-01, 7.38900065e-01,
          -5.90592802e-01, 4.83834118e-01, 4.46609259e-02,
          -4.12458390e-01, 2.71615595e-01, -3.97156656e-01,
          -8.00583810e-02, -7.93609694e-02, -8.60399380e-03,
          -9.97271668e-03, 5.42498613e-03, -1., 1. ]
      - [ -3.27806592e+00, -6.51273906e-01, -1.89536735e-01,
          8.27881336e-01, -8.07040870e-01, 3.82338583e-01,
          2.06705272e-01, -7.32807994e-01, -3.59908670e-01,
          -4.86004353e-01, -2.44005010e-01, 1.70455635e-01,
          -2.67417639e-01, -1.35923736e-02, 2.09210720e-02,
          2.45853234e-02, -4.65310970e-03, -1., -1. ]
      - [ 3.64755869e+00, -1.03696334e+00, -6.28461778e-01,
          1.37358117e+00, 4.75339413e-01, 2.44511500e-01,
          -1.42313510e-01, -8.90785083e-02, 7.17533305e-02,
          -3.72929335e-01, -7.74917305e-02, 6.32687435e-02,
          -2.24411227e-02, 1.46996118e-02, -4.50909771e-02,
          2.52834591e-03, 8.72560835e-04, 1., 1. ]
      - [ 3.48666251e-01, 2.41059256e+00, 6.05011642e-01,
          -5.56105137e-01, -9.01915908e-01, 7.76454449e-01,
          -5.18306578e-03, -8.18255171e-03, -5.45408949e-02,
          -2.23887682e-01, 7.76884332e-02, -1.14293754e-01,
          1.21779643e-01, -5.46214345e-04, 4.45675775e-02,
          -6.57381490e-03, -2.71638902e-03, 1., 1. ]
      - [ -2.08145380e+00, -8.20889473e-01, -1.53853965e+00,
          -3.48199099e-01, 7.60450602e-01, -8.95173401e-02,
          2.47849017e-01, -6.32138669e-01, -7.96323538e-01,
          8.98290146e-03, 6.05076691e-03, -2.55496681e-01,
          1.08315609e-01, 4.59287949e-02, -2.94405594e-02,
          1.04908897e-02, -3.16111860e-03, -1., -1. ]
      - [ 2.46585757e-01, 1.73390281e+00, 1.22839928e-01, 6.38317347e-01,
          5.44404984e-01, -7.49742150e-01, 3.74398381e-01,
          -6.76337540e-01, 4.23824251e-01, -2.80279130e-01,
          -1.20328628e-02, -1.10857576e-01, 1.76334292e-01,
          4.17851843e-02, 4.32554148e-02, -1.30956271e-03,
          -1.20829442e-03, -1., -1. ]
      - [ 3.86342883e+00, -1.94743621e+00, 1.38325822e+00,
          -1.92867017e+00, 1.04296207e+00, 9.96522486e-01,
          -3.01392317e-01, -2.45416999e-01, -1.04971670e-01,
          -1.03865549e-01, -9.60547850e-02, 1.59914181e-01,
          3.24724078e-01, -2.24903822e-02, -7.52806338e-03,
          -1.12411603e-02, 5.08621614e-03, -1., -1. ]
      - [ -2.65110707e+00, -1.15935946e+00, -8.33256781e-01,
          -1.40274119e+00, 1.10994411e+00, 6.01299778e-02,
          -2.22183681e+00, -1.24078703e+00, 5.31366229e-01,
          3.99009198e-01, 1.68202415e-01, -2.08668306e-01,
          -1.96007788e-01, 6.90957159e-02, -3.54451463e-02,
          1.31005922e-03, -1.42599654e-03, -1., -1. ]
      - [ 1.84660256e-01, 7.48751879e-01, 2.59659171e-01, 2.77448803e-01,
          9.68029380e-01, -6.39514327e-01, -5.89790165e-01,
          -7.58349061e-01, -7.61317147e-04, 4.14724857e-01,
          -6.99827224e-02, -2.46898606e-01, 3.68734658e-01,
          9.78768021e-02, -3.16182822e-02, 5.76408627e-03,
          1.94713266e-06, -1., -1. ]
      - [ 3.45636725e+00, -3.23148936e-01, 4.34397042e-01,
          4.33488369e-01, -6.78655207e-01, 1.00926661e+00,
          -5.08644044e-01, 1.39359981e-01, -2.54057854e-01,
          5.05764708e-02, -4.66116071e-02, 4.60388288e-02,
          -6.70545399e-02, -2.43263990e-02, -3.83326150e-02,
          8.68892355e-04, 1.35157455e-03, -1., 1. ]
      - [ 7.84153104e-01, 2.04357457e+00, -8.43295157e-02,
          -2.64473736e-01, 1.37175930e+00, -1.26562762e+00,
          -2.63256073e-01, -5.28600872e-01, 1.07489109e+00,
          -1.75292008e-02, -1.10821985e-02, 1.38265595e-01,
          2.19057631e-02, 3.27929556e-02, -4.26226445e-02,
          -5.57068642e-03, -5.25488472e-03, 1., 1. ]
      - [ 1.06144738e+00, 2.89094472e+00, -1.31964743e+00,
          3.81288290e-01, 7.08958983e-01, -1.09792483e+00,
          -2.61139899e-01, 5.71874678e-01, 8.46678317e-01,
          -2.79313654e-01, 1.36508763e-01, 3.69219393e-01,
          -3.12457811e-02, -9.28489417e-02, 3.50000858e-02,
          7.14710131e-02, -1.15014764e-03, 1., 1. ]
      - [ 3.03371763e+00, -1.30312574e+00, -1.66930571e-01,
          1.07003200e+00, 3.23288441e-01, -2.89361387e-01,
          3.46659452e-01, 1.92102090e-01, -2.95447201e-01,
          -7.24123001e-01, 5.21234348e-02, -1.68131933e-01,
          -2.20757499e-02, -8.28888714e-02, 2.17490513e-02,
          -1.50932057e-03, 4.18380043e-03, -1., -1. ]
      - [ -7.57812738e-01, 1.50103733e-01, -1.38009953e+00,
          8.53329480e-01, -1.71929181e-01, 4.98762429e-02,
          9.72501263e-02, -7.55382538e-01, -4.29735988e-01,
          -2.73729146e-01, -5.11586806e-03, -2.88473517e-01,
          1.61310762e-01, -4.74668071e-02, -3.56858573e-03,
          1.51090398e-02, 6.23725704e-04, -1., -1. ]
      - [ 1.36437669e-01, 3.54753971e-01, -1.24627864e+00,
          -7.73725659e-02, 7.54851222e-01, -3.59761208e-01,
          -1.40131962e+00, -1.55251491e+00, 8.37689936e-01,
          3.41906130e-01, 1.67496572e-03, -2.58024693e-01,
          5.81092499e-02, 5.46534499e-03, -3.75045985e-02,
          8.16557091e-03, 4.96662804e-04, -1., -1. ]
      - [ -1.46579278e+00, 1.34215105e+00, -6.01900637e-01,
          -4.18264270e-01, -3.94412369e-01, 2.86235332e-01,
          5.67983270e-01, -5.54288447e-01, -2.77627766e-01,
          -5.71206689e-01, 5.89044243e-02, -1.01507723e-01,
          -4.54648063e-02, -6.27222005e-03, 1.25353104e-02,
          -2.37691030e-03, -2.81991018e-03, -1., -1. ]
      - [ -4.55800724e+00, -1.78011537e+00, 1.95074940e+00,
          6.18322790e-01, -3.85253280e-01, 4.11030352e-01,
          -2.80613571e-01, 1.12373304e+00, 1.30492675e+00,
          -4.75602984e-01, -1.81905136e-01, -2.09020942e-01,
          2.06863314e-01, 2.00138018e-02, -1.43254809e-02,
          9.63301864e-03, 1.17178867e-03, -1., -1. ]
      - [ -3.97103000e+00, -1.30114806e+00, -5.64211369e-01,
          -6.72255635e-01, 5.25300264e-01, -2.62170341e-02,
          -7.92091906e-01, -6.82719171e-01, -4.60425377e-01,
          3.58260572e-01, 5.94658889e-02, -7.70480186e-02,
          -1.30406275e-01, 8.73531699e-02, -5.28257303e-02,
          -6.03985228e-03, 3.60790204e-04, -1., -1. ]
      - [ 2.53117591e-01, 2.10117412e+00, 6.61725163e-01, 1.25684738e+00,
          -1.96356505e-01, -8.52105379e-01, 1.29587638e+00,
          -6.01879299e-01, 3.51990551e-01, -4.36860591e-01,
          1.49571940e-01, -9.64278206e-02, -1.87226906e-01,
          -9.64741558e-02, 2.86770016e-02, -6.86355354e-03,
          1.48265390e-03, -1., 1. ]
      - [ -1.60072076e+00, 1.46322811e+00, -2.02381301e+00,
          1.23038459e+00, -1.07616162e+00, 5.63468225e-02,
          -2.21953377e-01, 1.40585959e+00, -3.83497588e-02,
          -3.02947402e-01, 3.03696524e-02, 4.84443717e-02,
          -6.41135722e-02, -1.65098220e-01, 3.94375063e-02,
          -1.57651976e-02, -8.81706551e-03, -1., -1. ]
      - [ -2.68143272e+00, -1.45958439e-01, -2.23205239e-01,
          4.88824919e-02, 1.80505112e-01, -3.53653222e-01,
          7.74439752e-01, 1.56791523e-01, -6.11183941e-01,
          4.14222211e-01, 4.23756093e-02, -1.85066760e-01,
          -2.74848819e-01, -5.52600473e-02, -5.88814635e-03,
          -3.48811876e-03, -4.86236485e-03, -1., -1. ]
      - [ 1.55277282e-01, -8.95143151e-01, -2.02709937e+00,
          1.25469232e+00, -7.38774359e-01, 1.04386353e+00,
          -5.21492183e-01, -4.31486398e-01, 6.15150630e-01,
          4.39431034e-02, -7.20325172e-01, -2.74706110e-02,
          6.01581812e-01, -4.13313806e-02, 9.72272679e-02,
          2.86214389e-02, 3.25086847e-04, -1., -1. ]
      - [ -3.14698100e+00, -5.89718640e-01, 2.27020040e-01,
          1.83480322e-01, 1.68482885e-01, 2.64638722e-01,
          -1.10242772e+00, -4.43932146e-01, -1.27235144e-01,
          3.24997872e-01, -1.74695313e-01, -2.67848581e-01,
          2.35015735e-01, 9.79091525e-02, -5.47891445e-02,
          1.56337637e-02, 6.26233465e-04, -1., -1. ]
      - [ 5.36251009e-01, 1.42192996e+00, 2.74040341e-01, 6.52988255e-01,
          5.37667036e-01, -6.10349357e-01, -1.07070792e+00,
          -7.70663500e-01, 5.96000612e-01, -1.55819044e-01,
          6.10049404e-02, -2.12319434e-01, 1.48512736e-01,
          2.71555725e-02, 3.75704207e-02, -8.52272671e-04,
          -4.20374854e-04, -1., -1. ]
      - [ 4.15592480e+00, -1.17500174e+00, -9.48687136e-01,
          9.84522521e-01, 4.41791862e-01, -4.19666134e-02,
          -4.95452046e-01, -7.40909994e-01, 6.97594464e-01,
          1.57924354e-01, -2.75548309e-01, 5.24570644e-01,
          -2.76369840e-01, 1.27913564e-01, -1.00000806e-01,
          3.17522092e-03, -6.30422728e-03, -1., -1. ]
      - [ 2.32422376e+00, 1.12963355e+00, -6.86940253e-01,
          1.51242092e-01, 1.22147894e+00, -9.32982147e-01,
          9.84344333e-02, 8.28487203e-02, 8.45753729e-01,
          -2.18784824e-01, 8.61882269e-02, -1.38952415e-02,
          -1.20567754e-02, -3.50260660e-02, 7.29454402e-03,
          -2.59713810e-02, -3.77500174e-03, -1., 1. ]
      - [ 7.30887890e-01, 2.03097224e+00, 7.50709474e-01,
          -1.16441572e+00, -6.26468360e-01, 9.29670036e-01,
          -5.27732253e-01, -4.58078116e-01, 4.55245942e-01,
          -4.51415509e-01, 5.52741587e-02, -1.64097235e-01,
          1.09373622e-01, 1.86940730e-02, 2.15632617e-02,
          -3.78068583e-03, -5.03521180e-04, -1., -1. ]
      - [ 3.22413802e+00, -5.91667593e-01, -6.74501956e-01,
          1.48998308e+00, 9.34665501e-02, 2.27259360e-02, 8.77000332e-01,
          -1.68292690e-02, -4.66135554e-02, -6.57583296e-01,
          -8.11331347e-02, -1.42921293e-02, 1.11323550e-01,
          5.79651305e-03, -1.60663500e-02, 5.70934359e-03,
          2.92067695e-03, -1., -1. ]
      - [ 1.65189934e+00, 1.23016310e+00, 1.18682480e+00,
          -1.44556081e+00, 1.68682948e-01, 3.30330193e-01,
          8.12535405e-01, 1.95964739e-01, -6.33492395e-02,
          -9.69711989e-02, 5.38855279e-03, -1.29211426e-01,
          1.15801364e-01, 1.82537436e-02, -2.50562727e-02,
          -1.86507832e-02, -1.31028311e-04, -1., -1. ]
      - [ -2.66368842e+00, -2.07067657e+00, -2.92104304e-01,
          -1.08292429e-02, -3.75037760e-01, 4.36638117e-01,
          -5.80942869e-01, -8.36454511e-01, 2.39860728e-01,
          1.27338439e-01, 2.38920236e+00, 7.17408180e-01, 2.30907634e-01,
          -1.43076017e-01, -1.95534229e-02, -2.35787109e-02,
          1.11628696e-03, -1., -1. ]
      - [ -2.30558658e+00, 1.13193309e+00, -5.20131253e-02,
          1.10262799e+00, -5.11721909e-01, -1.66092485e-01,
          3.30435783e-01, -9.97121871e-01, -5.32909811e-01,
          -6.98674858e-01, -9.48624779e-03, -1.14522554e-01,
          2.56106555e-02, 7.53197726e-03, -2.83946225e-04,
          1.16401184e-02, 1.55605958e-03, -1., -1. ]
      - [ 3.52761626e+00, -4.13139224e-01, 3.90084982e-01,
          5.10220647e-01, -7.09084928e-01, 9.18428004e-01,
          -3.68025243e-01, 3.59930784e-01, -3.74441713e-01,
          -5.02254665e-02, 3.71648148e-02, -8.52774084e-02,
          -2.24691611e-02, -1.19536920e-02, -1.72761939e-02,
          2.46852194e-03, 2.83144531e-03, -1., -1. ]
      - [ 3.40551066e+00, -8.83588731e-01, 4.26383048e-01,
          -4.09869514e-02, -4.41966116e-01, 9.43636000e-01,
          -3.96535218e-01, -5.79646602e-02, -1.69365242e-01,
          -4.54767734e-01, -2.14109212e-01, 2.69501984e-01,
          -7.42614195e-02, -2.18448061e-02, -4.00142558e-02,
          -2.86793662e-03, -1.65823021e-03, -1., -1. ]
      - [ 2.53714845e-02, 1.92975032e+00, 4.38255608e-01,
          -5.30743182e-01, -6.55365348e-01, 5.70556343e-01,
          3.88219178e-01, -1.62626535e-01, -1.70339882e-01,
          -2.98372239e-01, 6.48998544e-02, -1.40625358e-01,
          8.25603530e-02, -3.88629222e-03, 3.40706035e-02,
          -3.40978242e-03, -2.12830165e-03, -1., -1. ]
      - [ -2.89029908e+00, -1.77926707e+00, 1.40569603e+00,
          5.39036870e-01, -3.38731349e-01, 9.21169221e-02,
          1.08131790e+00, -1.65424105e-02, 2.34631240e-01,
          -3.32420409e-01, 1.11430240e+00, 6.48816943e-01,
          -7.32206106e-02, -1.94863856e-01, 5.90698682e-02,
          -1.56591386e-02, -7.18700292e-04, -1., -1. ]
      - [ 1.77656138e+00, 1.40838957e+00, -1.32287219e-01,
          6.29480481e-01, 6.31525457e-01, -7.39029229e-01,
          -1.15913963e+00, -2.61887550e-01, 9.11924124e-01,
          -1.76902294e-01, 1.85302213e-01, -1.37031734e-01,
          -7.43723139e-02, -6.44840822e-02, -3.86894727e-03,
          -2.30103433e-02, -2.24170415e-03, -1., 1. ]
      - [ -8.75887692e-01, 6.34937286e-01, -2.26025891e+00,
          7.61943102e-01, -1.05973542e+00, 5.34946263e-01,
          8.11375558e-01, -4.38633204e-01, 4.29668613e-02,
          -3.93238425e-01, 4.16270420e-02, -1.43056989e-01,
          -1.86441779e-01, -1.74368918e-01, -4.54260362e-03,
          -6.26090029e-03, -1.32542817e-04, -1., -1. ]
      - [ -2.46809125e+00, -2.02788520e+00, 1.28952682e-01,
          4.75750327e-01, -3.52136552e-01, 3.56788188e-01,
          4.16927189e-01, 5.95135689e-01, 2.56009400e-01, 3.29337753e-02,
          -2.60709554e-01, -2.71240026e-01, -7.06763044e-02,
          -1.23627454e-01, 3.83096486e-02, 1.48135778e-02,
          9.78824450e-04, -1., -1. ]
      - [ 3.55415678e+00, -8.17513168e-01, 4.86097425e-01,
          -3.95486243e-02, -2.04499602e-01, 1.12653220e+00,
          -2.66258687e-01, 5.05635962e-02, -2.19350487e-01,
          -4.46036726e-01, -1.88909262e-01, 1.61582842e-01,
          3.63880955e-02, 8.98562837e-03, 1.39355743e-02, 1.82373717e-03,
          2.67107505e-04, -1., 1. ]
      - [ -4.28342199e+00, -1.26604438e+00, 6.83827102e-01,
          4.54828829e-01, -3.15534979e-01, 5.60406446e-01,
          -3.56103390e-01, 1.88229576e-01, 7.64876425e-01,
          -4.08823699e-01, -3.34966093e-01, -1.51548758e-01,
          3.43540348e-02, 4.07900363e-02, 1.76214799e-02, 1.65072288e-02,
          3.21222265e-04, -1., -1. ]
      - [ -3.38183570e+00, -2.90701056e+00, 4.92654294e-01,
          -3.83013040e-01, 3.22879404e-01, 3.37360770e-01,
          -7.35934556e-01, 6.43778861e-01, 1.60258377e+00,
          2.23939180e-01, 5.12435138e-02, -1.95877805e-01,
          1.38085127e-01, -1.01925489e-02, -3.92059125e-02,
          3.28038423e-03, 1.14003790e-03, -1., -1. ]
      - [ 1.88382137e+00, 2.09789395e+00, 1.44702256e+00,
          -1.70752668e+00, -6.64945304e-01, 1.15347171e+00,
          -6.70721769e-01, -6.91752613e-01, 1.01958919e+00,
          -1.85166806e-01, 1.15834400e-01, -1.69913247e-01,
          -1.30395249e-01, -4.18855026e-02, -1.64664220e-02,
          -1.07181557e-02, 3.36534367e-03, -1., -1. ]
      - [ -2.46406078e+00, -1.30856991e+00, -6.70926332e-01,
          -7.28965223e-01, 4.89615947e-01, -1.31380767e-01,
          1.21596384e+00, -7.52933085e-01, -4.12929147e-01,
          6.60080492e-01, 7.64472336e-02, -1.87109083e-01,
          -3.04187953e-01, -5.12313209e-02, -6.96647493e-03,
          1.53878359e-02, -1.57178205e-04, -1., -1. ]
      - [ -5.44879735e-01, 1.38618731e+00, -5.13451934e-01,
          6.13861442e-01, 3.37770790e-01, -6.21054590e-01,
          6.52860284e-01, -3.26098830e-01, -2.52379864e-01,
          -3.34027298e-02, 4.81361942e-03, -1.07355230e-01,
          1.45105332e-01, 1.69893745e-02, 2.55377777e-02,
          -1.67352636e-03, -4.01598727e-03, -1., -1. ]
      - [ 1.02645504e+00, 1.38232040e+00, 1.95280626e-01, 8.70206058e-01,
          5.06487846e-01, -5.69131613e-01, -3.66268843e-01,
          -4.24217135e-01, 4.43532705e-01, -3.68275076e-01,
          5.61284274e-02, -1.96592435e-01, 1.69412255e-01,
          3.24919680e-03, 2.47830860e-02, -7.28559680e-03,
          6.22380176e-05, -1., -1. ]
      - [ 4.05962169e-01, 1.39489686e+00, -1.71090388e+00,
          2.06892624e-01, -1.36360943e+00, 1.05275047e+00,
          7.63910115e-02, -5.85293949e-01, 1.44955799e-01,
          -2.97517329e-01, 7.56964609e-02, -2.06691682e-01,
          9.35378224e-02, -1.06246375e-01, 1.92564800e-02,
          2.07653642e-03, 7.32701679e-04, -1., 1. ]
      - [ 4.87911272e+00, 7.40208745e-01, 1.08745480e+00,
          -2.38884687e+00, -1.80199519e-01, 1.88599038e+00,
          1.32808745e+00, -1.05518079e+00, 1.21770263e+00,
          1.32381177e+00, -2.91776091e-01, 5.64372241e-01,
          -6.18413091e-01, -3.04688942e-02, 4.62929765e-03,
          -6.52453210e-03, 1.16227241e-03, -1., -1. ]
      - [ 4.00965929e+00, -3.91599149e-01, -5.24405062e-01,
          -3.06273490e-01, -2.77270585e-01, 1.27962911e+00,
          -9.34317231e-01, -4.29985315e-01, 6.64756835e-01,
          1.34392604e-01, 2.86724102e-02, -1.06259800e-01,
          -1.30136296e-01, -5.50132468e-02, 2.29901802e-02,
          4.23170207e-03, 4.51117614e-03, -1., -1. ]
      - [ -2.48737478e+00, -3.65427345e-01, -1.34155905e+00,
          -3.32161754e-01, 9.78017077e-02, 1.17532618e-01,
          2.20551789e-01, -1.25941142e-01, -5.17056823e-01,
          -4.80621576e-01, 1.08558582e-02, -2.02176705e-01,
          -7.61097148e-02, -1.29689155e-02, 1.08233551e-02,
          -1.21584290e-03, -4.59401915e-03, -1., -1. ]
      - [ 2.97425961e+00, -4.40371901e-01, 8.25145304e-01,
          5.29918432e-01, -2.70476609e-01, 1.37135220e+00,
          3.32622468e-01, 1.54770583e-01, -9.53146756e-01,
          2.01046064e-01, -4.85869437e-01, 5.47644556e-01,
          1.25471041e-01, 6.62254915e-02, 3.04216389e-02, 4.28563869e-03,
          -6.03478774e-03, -1., -1. ]
      - [ 1.14243340e+00, 9.93440211e-01, -1.89264581e-01,
          1.10777654e-01, 1.12899554e+00, -1.06584883e+00,
          5.37569880e-01, 3.16346258e-01, 9.75451991e-02,
          -4.32926327e-01, 3.47168632e-02, -1.83682796e-02,
          1.12254076e-01, 2.07397575e-03, 5.49225090e-03,
          -1.79743394e-02, -5.09144273e-03, -1., -1. ]
      - [ 3.83168077e+00, 5.67239225e-02, 6.99841261e-01, 2.98640847e-01,
          -5.60766399e-01, 9.70726132e-01, -1.76776600e+00,
          -4.14219111e-01, 5.37778497e-01, 4.91823494e-01,
          1.15658315e-02, 1.05654769e-01, -2.98031688e-01,
          -4.74131852e-02, -5.03950007e-02, -1.73150748e-03,
          1.29149342e-03, -1., 1. ]
      - [ 3.19596410e+00, -1.05740738e+00, -1.09619185e-01,
          1.03452814e+00, 5.30909777e-01, -2.97070593e-01,
          -1.05857670e-01, 5.01255155e-01, -2.65867621e-01,
          -7.10600019e-01, 1.65315047e-01, -3.93279016e-01,
          9.89058167e-02, -5.93189783e-02, -1.41393533e-02,
          -9.12310835e-03, 5.50161954e-03, -1., 1. ]
      - [ -2.17068362e+00, 1.57243919e+00, -8.56092095e-01,
          1.08647197e-01, 3.54460090e-01, -7.57644713e-01,
          -1.05163682e+00, 2.19017357e-01, -3.84711117e-01,
          -7.64018476e-01, 1.88106984e-01, 1.08483642e-01,
          -1.18855342e-01, -2.43944805e-02, 7.36450544e-03,
          1.58104375e-02, -7.66680669e-03, -1., -1. ]
      - [ 4.12353945e+00, -1.44390583e+00, -1.41542956e-01,
          7.52691507e-01, 8.34613919e-01, -3.90613198e-01,
          9.27061513e-02, -3.68014067e-01, 1.55432135e-01,
          5.54800689e-01, -2.41127163e-01, 3.25022310e-01,
          -1.66887462e-01, 5.64538203e-02, 1.33841680e-02,
          6.12654374e-04, -1.90024870e-03, -1., -1. ]
      - [ 3.28320289e+00, -1.43908310e+00, 8.16111326e-01,
          4.64264452e-01, 1.07287300e+00, -6.59610868e-01,
          -6.63434565e-01, -9.58240032e-02, -2.76976470e-02,
          1.84452772e-01, 1.22312866e-01, -2.49668688e-01,
          -9.61610749e-02, -1.04334161e-01, 2.22510807e-02,
          -7.75768282e-03, 6.50288211e-03, -1., -1. ]
      - [ 3.37016940e+00, -3.19436550e-01, -8.07782412e-02,
          1.76835310e+00, -8.77989531e-02, 3.01296450e-02,
          -6.46403074e-01, 6.58558756e-02, -3.49407122e-02,
          1.02925241e-01, 9.83950719e-02, -1.48984924e-01,
          -2.74232123e-02, -2.29720473e-02, -1.59649551e-02,
          3.63990641e-03, 3.68917664e-03, 1., 1. ]
      - [ -2.76615739e+00, -3.16647148e+00, 1.73480296e+00,
          8.90311003e-01, -6.30750120e-01, 4.95838851e-01,
          -3.63928348e-01, 1.58954418e+00, 1.42057991e+00,
          1.46156847e+00, -4.16926771e-01, 4.78726864e-01,
          1.09087512e-01, -2.09035695e-01, 1.01903394e-01,
          -1.56962667e-02, -3.60494410e-03, -1., -1. ]
      - [ -1.12699175e+00, -2.71594620e+00, -3.08776677e-01,
          -1.56055644e-01, 2.79150814e-01, -7.78149581e-03,
          1.29531920e+00, 4.24612820e-01, 3.00946057e-01, 5.29714882e-01,
          -1.88060433e-01, -1.61609441e-01, -2.77196109e-01,
          -1.92210570e-01, 4.83168960e-02, 4.49985219e-03,
          1.84935820e-03, -1., -1. ]
      - [ -4.40956068e+00, -1.20314431e+00, 9.32111919e-01,
          4.08335447e-01, -2.57710457e-01, 2.88757354e-01,
          2.78407037e-01, 5.06258488e-01, 2.06048653e-01, 3.41886282e-01,
          -3.03824425e-01, -1.92793384e-01, 1.16045423e-01,
          5.43945730e-02, -1.07483258e-02, 1.30284652e-02,
          2.66246061e-04, -1., -1. ]
      - [ -4.07270670e+00, 1.04024947e-01, 1.33346021e-01,
          -7.53770396e-02, -1.17558271e-01, 1.65095538e-01,
          -4.11180645e-01, -5.23752749e-01, -1.18305635e+00,
          -2.15333346e-02, 4.33517285e-02, 9.96809639e-03,
          -1.88124359e-01, 9.58492383e-02, 1.37783948e-03,
          -1.27767436e-02, 1.22091151e-03, -1., -1. ]
      - [ -3.47962856e+00, -2.63150287e+00, -5.00609517e-01,
          -9.36633706e-01, 6.03926241e-01, 1.95316449e-01,
          -6.22194767e-01, -4.11337286e-01, 4.23222154e-01,
          2.08979756e-01, 9.19775069e-01, 9.58297309e-03, 1.58047229e-01,
          3.12315058e-02, -2.10431814e-02, 2.08834140e-03,
          -2.48710829e-04, -1., -1. ]
      - [ -3.48345399e+00, 1.15130615e+00, -6.87404573e-01,
          2.91140348e-01, 1.51637107e-01, -3.90745789e-01,
          -4.76644903e-01, -4.49015610e-02, -1.28722823e+00,
          3.93165052e-01, -3.50475833e-02, 1.28399685e-01,
          -5.73046468e-02, 8.23618397e-02, -1.40180513e-02,
          -4.79222573e-02, 4.97140316e-03, -1., -1. ]
      - [ 1.70764089e+00, 8.96616936e-01, 7.81909585e-01, 3.65641564e-01,
          1.27612650e+00, -1.00075233e+00, -3.32763970e-01,
          2.54477173e-01, -2.21548826e-02, 4.25928503e-01,
          5.23727834e-02, -1.55370548e-01, 1.51631758e-01,
          2.36241724e-02, 5.80890011e-03, -2.07400005e-02,
          -2.07129424e-03, -1., -1. ]
      - [ 4.51831770e+00, -9.31903124e-01, -4.80783254e-01,
          1.32635963e+00, 2.93551892e-01, -2.69339889e-01,
          5.87569296e-01, -1.45498708e-01, 2.46116295e-01,
          4.99062628e-01, -1.01489320e-01, 4.31763321e-01,
          -3.24491054e-01, 2.67937213e-01, -9.66895521e-02,
          1.00502567e-02, -5.50090941e-03, -1., 1. ]
      - [ 3.67822242e+00, -1.70579195e+00, 1.06192827e+00,
          2.60709375e-01, 1.41201758e+00, -5.06414235e-01,
          -1.32438159e+00, -6.76073492e-01, 4.57794428e-01,
          -1.33349299e-01, -1.70275360e-01, 2.24332109e-01,
          2.10522930e-03, -4.87592034e-02, 4.65139039e-02,
          -7.92371482e-03, 1.86445494e-03, -1., -1. ]
      - [ 1.79212105e+00, 8.69187534e-01, 1.87098756e-01,
          -4.70045239e-01, 1.96253216e+00, -1.07613254e+00,
          -6.50593698e-01, -3.35140914e-01, 9.55300033e-01,
          -1.61606863e-01, 1.12624038e-02, -2.85756495e-02,
          9.05476660e-02, 5.12469970e-02, -2.37512514e-02,
          -1.81326084e-02, -3.29871243e-03, -1., -1. ]
      - [ -1.23390818e+00, -5.30409515e-01, -1.88790381e-01,
          3.56047451e-01, 2.87891895e-01, 1.68263555e-01,
          -1.70945477e+00, -1.85621774e+00, -9.85040441e-02,
          5.22195935e-01, -1.83590367e-01, -1.20245162e-02,
          2.19086781e-01, 4.75838520e-02, 1.73179395e-02, 3.84868868e-02,
          3.72544542e-04, -1., -1. ]
      - [ -3.47566700e+00, 1.75883234e+00, -2.42053851e-01,
          -1.35552928e-01, 1.76969543e-01, -7.95960844e-01,
          1.24297357e+00, 1.90878367e+00, 1.38335681e+00,
          -2.10367814e-01, -5.55072963e-01, 4.28817779e-01,
          -6.33774847e-02, -4.25850675e-02, 3.91977746e-03,
          7.99272880e-02, 2.49261456e-03, -1., -1. ]
      - [ -1.91577184e+00, -3.50470209e+00, -4.09566849e-01,
          2.55456835e-01, -1.94895938e-01, 6.21081173e-01,
          9.49740231e-01, 1.23358679e+00, 1.72661936e+00, 2.63950795e-01,
          -8.77606153e-01, 1.65025853e-02, 8.86298716e-02,
          -1.69864073e-01, 8.50057900e-02, 4.04987764e-03,
          -6.15512763e-05, -1., -1. ]
      - [ -4.02448082e+00, 1.27284253e+00, -3.12299103e-01,
          3.95153277e-02, -6.02452131e-03, -2.74379760e-01,
          -1.15974315e-01, 8.95134270e-01, -6.45266354e-01,
          -3.94150585e-01, -9.08820629e-02, 1.81104332e-01,
          -1.35804147e-01, 3.04525644e-02, 2.58927681e-02,
          -2.97299866e-02, 3.06093687e-04, -1., -1. ]
      - [ 3.46569848e+00, 3.72922719e-02, 4.28716063e-01, 5.17487288e-01,
          -6.66409969e-01, 1.17169416e+00, -9.43488121e-01,
          -1.78013161e-01, 5.46609424e-02, 2.85022259e-01,
          -8.92640427e-02, 1.50545061e-01, -1.22427195e-01,
          -9.19808447e-03, 5.79254609e-03, 4.64900210e-03,
          7.77209279e-05, 1., 1. ]
      - [ 1.32173634e+00, 1.37990212e+00, 8.84670794e-01,
          -1.21949172e+00, -1.03055492e-01, 5.26701510e-01,
          2.83318877e-01, 3.55775267e-01, -2.55936384e-01,
          -5.33417910e-02, 2.71891225e-02, -1.47997066e-01,
          1.71290472e-01, 2.39874031e-02, 2.16242950e-02,
          -1.44742355e-02, -1.98077760e-03, -1., -1. ]
      - [ 7.13771701e-01, 9.75818574e-01, 3.97023767e-01, 7.09991395e-01,
          7.46954799e-01, -5.30038774e-01, -1.10751830e-01,
          -4.30081964e-01, 1.35412723e-01, -4.90242183e-01,
          -1.12075107e-02, -2.33538672e-01, 3.06408674e-01,
          5.13283648e-02, 2.06586570e-02, -4.17260599e-04,
          8.27968994e-04, -1., -1. ]
      - [ -1.70515738e-02, 2.19290781e+00, 9.32406187e-01,
          -9.09579813e-01, -5.24184406e-01, 4.88037378e-01,
          1.10054481e+00, -9.37289476e-01, 4.22319204e-01,
          -4.53806669e-01, -1.31477425e-02, -9.09714401e-02,
          1.30367819e-02, 1.29590426e-02, -1.39169451e-02,
          3.55324196e-03, 1.87072670e-03, 1., 1. ]
      - [ 2.81661868e+00, -1.15658069e+00, 8.22776258e-01,
          1.20941567e+00, 3.96314234e-01, -2.48230577e-01,
          -4.32927519e-01, -3.61338735e-01, -4.00040984e-01,
          8.81492570e-02, -4.19601500e-01, 6.52516186e-01,
          -1.53462499e-01, -1.25319865e-02, 3.62629034e-02,
          -4.84970817e-03, -7.59016955e-03, -1., 1. ]
      - [ -2.03791642e+00, 2.03715229e+00, -4.27543074e-01,
          -6.81905687e-01, 1.72223136e-01, -5.58284938e-01,
          1.16276157e+00, -1.26456404e-02, -1.46222129e-01,
          -6.09943390e-01, 9.57162157e-02, 2.17803970e-01,
          -3.00465673e-01, -3.65626812e-02, -2.08122116e-02,
          -3.82658513e-03, -6.71907049e-03, -1., -1. ]
      - [ -3.82359838e+00, -2.75325328e-01, 2.76199603e+00,
          7.34347701e-01, -3.45360577e-01, -3.73656094e-01,
          1.40815961e+00, 7.69024491e-01, 4.69235837e-01, 2.95865804e-01,
          -1.24232285e-01, -1.56609967e-01, -2.22502768e-01,
          -4.92959656e-02, -7.40773976e-04, 5.04597882e-03,
          1.32026360e-03, -1., -1. ]
      - [ -1.32487595e+00, 1.36652815e+00, -6.98383451e-01,
          4.30132896e-02, -5.61655402e-01, 3.67469937e-01,
          -5.45100212e-01, 1.20859005e-01, -8.47782016e-01,
          2.13492244e-01, 1.09885626e-01, -1.48816079e-01,
          4.42938022e-02, -2.67482344e-02, 3.72209423e-03,
          -5.55086043e-03, -6.06243825e-03, -1., -1. ]
      - [ 3.50128007e+00, -4.71188813e-01, -3.35534871e-01,
          6.29722059e-01, -7.46685088e-01, 1.15445888e+00,
          -3.58480752e-01, 3.09534892e-02, -9.10585970e-02,
          -4.11525846e-01, -1.21913433e-01, 1.72763824e-01,
          -8.64918996e-03, 5.28027788e-02, -3.62374149e-02,
          7.02349655e-03, -1.46231789e-03, -1., 1. ]
      - [ -1.39483619e+00, -2.90842861e-01, -8.76458347e-01,
          -1.88854128e-01, 8.16076815e-01, -1.93817303e-01,
          -1.09032190e+00, -1.25068581e+00, -7.80402645e-02,
          -1.29099414e-01, 6.77588210e-02, -2.84717739e-01,
          8.71802494e-02, 3.99479344e-02, -9.05718729e-02,
          1.19361440e-02, -8.27196636e-04, -1., -1. ]
      - [ -2.44060874e+00, -2.07926655e+00, 1.17180800e+00,
          -3.43522906e-01, 3.99726212e-01, -3.37796748e-01,
          1.85656512e+00, 7.61495978e-02, 9.49014485e-01,
          -1.18998185e-01, 2.30196327e-01, 8.53879675e-02,
          -2.90314287e-01, -1.34864256e-01, -9.54450574e-03,
          -1.61184440e-03, 2.89424858e-03, -1., -1. ]
      - [ 3.30195045e+00, -6.82629883e-01, 1.18904316e+00,
          -1.43094569e-01, -2.50992507e-01, 9.69184399e-01,
          -3.56544927e-02, 2.99966484e-01, -6.53793633e-01,
          6.82114810e-02, -1.18501619e-01, 3.05942353e-02,
          5.21491580e-02, -4.13753390e-02, 2.69929618e-02,
          -1.04975421e-03, 2.76145921e-03, -1., -1. ]
      - [ 3.26354194e+00, -7.21270740e-01, -1.70134023e-01,
          3.85355979e-01, -7.73544967e-01, 1.02572942e+00,
          -3.62649597e-02, 1.00177146e-01, -2.96463758e-01,
          -4.69429940e-01, -1.25688285e-01, 1.99517265e-01,
          -9.76547152e-02, -3.58096178e-04, 7.12970318e-03,
          4.22922941e-03, -1.87077280e-03, -1., -1. ]
      - [ 4.18527460e+00, -5.05490899e-01, -6.22782946e-01,
          1.26667082e+00, 9.11535859e-01, 2.78096408e-01,
          -7.60836750e-02, -6.68169618e-01, 6.14765584e-01,
          8.36479425e-01, -1.83196232e-01, 3.31169397e-01,
          -2.55838454e-01, 6.53029010e-02, -4.75036446e-03,
          5.51016862e-03, -1.53817853e-03, -1., -1. ]
      - [ 3.29082608e+00, -7.20044196e-01, 8.29637349e-01,
          1.14423060e+00, 7.09855080e-01, -2.21174240e-01,
          -8.43253493e-01, -3.14979851e-01, 6.32037073e-02,
          1.71498477e-01, -1.09520189e-01, 2.42081918e-02,
          1.80313028e-02, -5.13988882e-02, -1.20692719e-02,
          -2.20139022e-03, 3.41454335e-03, -1., -1. ]
      - [ -5.30951731e-02, 2.03346419e+00, 3.69497538e-01,
          3.02276939e-01, -1.29300308e+00, 8.18041563e-01,
          2.23397329e-01, -2.93268859e-01, -2.22759873e-01,
          -4.91713792e-01, 1.15902737e-01, -2.13468805e-01,
          6.61212578e-02, -6.19752146e-02, 3.79894525e-02,
          3.51439649e-03, 9.12247866e-04, -1., -1. ]
      - [ -4.58321905e+00, -3.81228626e-01, 1.64331281e+00,
          1.04837799e+00, -8.96992266e-01, 3.85106236e-01,
          -3.66876535e-02, -2.79796392e-01, -3.20878208e-01,
          -6.79675162e-01, -1.65070921e-01, 1.94200039e-01,
          -1.87818289e-01, 4.66617569e-02, -1.15276966e-02,
          2.26533283e-02, -4.11242852e-03, -1., -1. ]
      - [ 3.20139551e+00, -9.83407617e-01, -3.56027663e-01,
          1.45886111e+00, 3.28510582e-01, 1.85864598e-01, 1.28045872e-01,
          -1.57695469e-02, -2.26253167e-01, -6.33024871e-01,
          -1.86060026e-01, 1.11884616e-01, 1.35510162e-01,
          1.95659511e-02, -1.51566211e-02, 4.52262582e-03,
          2.91998906e-04, -1., -1. ]
      - [ 1.23317778e+00, 1.57208323e+00, 1.48033476e+00, 1.27249765e+00,
          5.45111537e-01, -7.70411670e-01, -1.92793146e-01,
          1.47292107e-01, -3.87295216e-01, 8.05892169e-01,
          5.86258434e-02, -2.26293489e-01, 1.83533907e-01,
          4.55366971e-04, -3.12810168e-02, -1.40011432e-02,
          9.96772898e-04, -1., -1. ]
      - [ 5.23409963e-01, 1.15199506e+00, 1.88424006e-01,
          -2.07349360e-01, 1.46039367e+00, -1.06121969e+00,
          -6.54831350e-01, -2.70242780e-01, 2.47348577e-01,
          3.04692328e-01, -5.52626476e-02, -3.16714011e-02,
          2.60121852e-01, 7.64450952e-02, -1.28697112e-01,
          -1.03735318e-02, -4.94339038e-03, -1., 1. ]
      - [ -1.51240885e+00, 8.78563941e-01, -7.45231748e-01,
          -5.03575802e-01, 8.63159716e-01, -1.07707763e+00,
          1.33708000e+00, -1.37383312e-01, -9.54238400e-02,
          -4.29129243e-01, 1.48835808e-01, 9.49000791e-02,
          -3.84456456e-01, -6.20254539e-02, -3.09066731e-03,
          -5.88755542e-03, -8.50020256e-03, -1., -1. ]
      - [ -2.46419835e+00, 6.82752430e-01, -3.06559825e+00,
          -1.09444976e+00, 4.18165892e-01, 7.85340294e-02,
          4.99274969e-01, -5.26124895e-01, -2.16508135e-01,
          2.19297539e-02, -3.63422245e-01, 4.69012171e-01,
          -1.11612193e-02, 1.46791860e-01, 1.79482102e-02,
          -8.23295712e-02, 1.54072493e-02, -1., -1. ]
      - [ 3.26941371e+00, -4.04177189e-01, -8.07769597e-02,
          1.80421901e+00, -7.62656853e-02, 9.17774886e-02,
          -4.40476358e-01, 8.46437737e-02, -1.72635376e-01,
          -3.61312702e-02, 1.09121092e-02, -6.58536553e-02,
          3.91403101e-02, 3.49005248e-04, -1.47082265e-02,
          5.29245054e-03, 2.49301712e-03, -1., 1. ]
      - [ 3.41396832e+00, -6.58793092e-01, -1.66528672e-02,
          4.19355571e-01, -6.94952965e-01, 1.03241003e+00,
          -3.69998187e-01, 3.15262713e-02, -1.35862768e-01,
          -4.71928149e-01, -1.19722672e-01, 2.26868808e-01,
          -1.30948484e-01, 8.87655746e-03, -4.40577976e-02,
          1.56237499e-03, -2.12850538e-03, -1., -1. ]
      - [ 1.43198326e-01, 2.14866114e+00, 1.01754844e+00, 1.33335376e+00,
          8.18983167e-02, -7.89987385e-01, -4.30547297e-02,
          -3.69115584e-02, -3.35185319e-01, 4.42271769e-01,
          6.31182417e-02, -1.52934834e-01, 1.78923875e-01,
          8.45981482e-03, 6.85277395e-03, -7.95238744e-03,
          -1.88211154e-03, -1., -1. ]
      - [ 3.87512356e-01, 1.27363813e+00, 6.80975378e-01, 1.01119912e+00,
          4.42942291e-01, -6.23047054e-01, 9.83724371e-02,
          -1.45388573e-01, -3.84384423e-01, 1.11922897e-01,
          -1.51638426e-02, -2.32506186e-01, 3.33921731e-01,
          4.83937338e-02, 1.81328952e-02, -7.36280286e-04,
          -2.56167968e-05, -1., -1. ]
      - [ 1.50915412e-02, 1.92504740e+00, 3.38522047e-01,
          -5.39547443e-01, -4.68002856e-01, 4.31759596e-01,
          3.39961052e-01, 1.51104733e-01, -3.31344664e-01,
          -2.63923138e-01, 7.05727041e-02, -9.54759642e-02,
          1.04206316e-01, 5.28080994e-03, 4.71665338e-02,
          -6.33618934e-03, -4.43374179e-03, -1., -1. ]
      - [ -3.60443830e+00, 7.90254831e-01, 3.28423589e-01,
          4.86848533e-01, -2.54557282e-01, -2.26322949e-01,
          4.35637623e-01, 2.94258654e-01, -2.55769521e-01,
          -7.65255213e-01, -2.06100326e-02, -7.82107934e-02,
          -2.16818675e-01, -1.63320620e-02, 6.67444803e-03,
          -1.43920919e-02, -3.47756734e-03, -1., -1. ]
      - [ 2.03015924e+00, 2.07161546e+00, 1.27285957e-01,
          -1.97594929e+00, -9.04740766e-02, 7.13638663e-01,
          -3.57893020e-01, 5.62066078e-01, 5.15909672e-01,
          -1.50255457e-01, 9.32961851e-02, 8.42622370e-02,
          -3.08308136e-02, -3.41163352e-02, -7.53078982e-03,
          -1.46708963e-02, -5.33224968e-03, -1., -1. ]
      - [ 6.58911943e-01, 2.07154560e+00, 1.11686456e+00,
          -1.42416513e+00, -4.92635161e-01, 9.05415714e-01,
          4.00002062e-01, -6.12939060e-01, 2.67088413e-01,
          3.60580795e-02, -3.45300511e-02, -1.43969461e-01,
          1.46304667e-01, 5.24360314e-02, 2.44432464e-02, 2.39482196e-03,
          1.30803930e-03, -1., -1. ]
      - [ 1.56735849e+00, 1.66555738e+00, 9.89325762e-01,
          -1.53907001e+00, 7.53097236e-02, 1.80598870e-01,
          1.58188486e+00, -4.49180603e-01, 4.58071709e-01,
          2.14989841e-01, -1.42900478e-02, -6.33927286e-02,
          -7.42984414e-02, -9.70216654e-03, 1.28867314e-03,
          -1.30697386e-02, 1.65287592e-03, -1., -1. ]
      - [ 1.68213582e+00, 1.54934108e+00, 3.94067496e-01,
          -1.58321571e+00, 8.32715854e-02, 5.33580899e-01,
          1.55399203e-01, 6.56066418e-01, -1.78405061e-01,
          2.74256349e-01, 1.90925170e-02, -2.98050921e-02,
          1.30925000e-01, 9.52409115e-03, 3.60120717e-03,
          -1.74091924e-02, -4.76721255e-03, -1., 1. ]
      - [ 3.78549576e-01, 2.66886377e+00, 1.89721525e+00, 1.69042075e+00,
          -1.39200091e-01, -8.81535947e-01, 4.34453599e-02,
          -4.78769869e-01, -1.15883060e-01, 1.10339069e+00,
          6.23447523e-02, -1.73329309e-01, 8.20174143e-02,
          -8.87466874e-03, 1.89007483e-02, -6.83591468e-04,
          2.55333702e-03, -1., -1. ]
      - [ 1.42276257e-01, 2.17217016e+00, -1.41390836e+00,
          4.53887582e-01, -1.63247490e+00, 7.51372159e-01,
          -1.07525706e+00, -5.88203549e-01, 4.12847102e-01,
          1.76823229e-01, 2.07518637e-01, -1.39374405e-01,
          -9.55355167e-02, -1.40041485e-01, 1.13378083e-02,
          -1.38265220e-02, -6.41419960e-04, -1., -1. ]
      - [ -4.59763098e+00, -7.89052546e-01, 2.46591187e+00,
          1.09719491e+00, -6.71128452e-01, 2.99804479e-01,
          -1.69375345e-01, 8.06929588e-01, 2.59796649e-01,
          -5.84694982e-01, -5.51966615e-02, -2.24680483e-01,
          3.03490814e-02, -5.07843634e-03, 2.84893233e-02,
          1.65374037e-02, 7.34686211e-04, -1., -1. ]
      - [ -7.96705246e-01, 2.10395718e+00, 1.39633357e-03,
          -5.98484278e-01, -5.49040616e-01, 4.64020163e-01,
          5.82487464e-01, -5.36356211e-01, 2.91882195e-02,
          -5.70540845e-01, 2.67904326e-02, -6.79240301e-02,
          6.15676194e-02, 2.61169858e-02, 4.35586274e-02,
          -3.39129401e-05, -2.73334701e-03, -1., -1. ]
      - [ -7.12783635e-01, 1.04935467e+00, -8.53799880e-02,
          -8.06253076e-01, 1.92965552e-01, -4.02158260e-01,
          1.22160339e+00, 7.71450996e-02, -5.25869429e-01,
          2.79786617e-01, 1.78604692e-01, -2.46263873e-02,
          -3.49066556e-01, -7.91157186e-02, 1.81897841e-02,
          -1.14631373e-02, -6.71525951e-03, -1., -1. ]
      - [ 5.28543055e-01, -3.44461918e-01, -2.87288809e+00,
          5.06554306e-01, -7.25453615e-01, 9.89856422e-01,
          5.19355774e-01, -5.92624426e-01, -3.83019000e-01,
          3.33229840e-01, -1.93753898e-01, -2.78439671e-01,
          3.72207612e-01, -7.51686245e-02, 5.30645587e-02,
          2.24704985e-02, 2.00724928e-03, -1., -1. ]
      - [ -1.70700288e+00, -1.11006573e-01, 1.30151212e-01,
          -5.94061576e-02, 7.43875861e-01, -3.68199050e-01,
          -1.43345511e+00, -6.80668831e-01, -2.97431946e-01,
          -5.00995219e-01, 2.74691015e-01, -2.89893359e-01,
          -1.02156982e-01, 1.03243925e-02, -2.10622419e-02,
          5.45180310e-03, -3.67493159e-03, -1., -1. ]
      - [ -2.98086882e+00, -6.88962340e-01, 5.97946286e-01,
          -3.60551238e-01, 2.55176008e-01, -3.55606556e-01,
          1.83516920e+00, -6.41951442e-01, 6.47314906e-01,
          -1.88411757e-01, -5.60639016e-02, -5.99503852e-02,
          -4.09234136e-01, -8.04636255e-02, -9.16057527e-02,
          6.86805695e-03, 1.55291311e-03, -1., -1. ]
      - [ 3.47594833e+00, -5.59173465e-01, 1.18804169e+00,
          -3.47485155e-01, -2.46112064e-01, 1.05693924e+00,
          -4.83721346e-01, -1.13084875e-01, -2.30556577e-01,
          1.28251851e-01, -2.45919287e-01, 2.57941931e-01,
          -2.44842954e-02, -2.69636139e-02, 9.08856932e-03,
          -2.57227616e-03, 6.12037866e-06, 1., 1. ]
      - [ -3.89342189e+00, 3.48616064e-01, 2.93064499e+00,
          1.24853837e+00, -8.49189758e-01, -1.81887135e-01,
          1.04445314e+00, 4.21068877e-01, 2.04534292e-01,
          -7.70587385e-01, -1.79688726e-02, -1.46430880e-01,
          -3.43573123e-01, -9.90626737e-02, 3.20287235e-02,
          1.14318524e-02, 1.62261643e-03, -1., -1. ]
      - [ 3.22053885e+00, -8.92257631e-01, 3.60529393e-01,
          -5.05679809e-02, -4.41352487e-01, 9.26732421e-01,
          -2.47654080e-01, 8.27088859e-03, -2.49240935e-01,
          -4.99956250e-01, -1.44141048e-01, 1.40254855e-01,
          -6.17102571e-02, -6.33645579e-02, -1.04206298e-02,
          -2.14562612e-03, 3.39899212e-04, -1., 1. ]
      - [ 4.78334427e-01, 2.08802676e+00, 8.64939690e-01, 1.26122141e+00,
          9.66006443e-02, -6.68939829e-01, -9.96983111e-01,
          -3.73112977e-01, 2.00504556e-01, 3.54756266e-01,
          1.20569929e-01, -1.90618411e-01, 9.00161266e-02,
          -1.40557075e-02, 8.27068370e-03, -7.90338311e-03,
          -9.26034350e-04, -1., -1. ]
      - [ -4.53506279e+00, -3.49072814e-01, 1.82490242e+00,
          8.58194292e-01, -6.63296938e-01, 3.43477011e-01,
          -1.22976208e+00, 8.70182574e-01, 1.73422801e+00,
          -4.55987215e-01, -4.68425155e-01, -2.54871905e-01,
          -1.64336748e-02, 2.58997828e-02, 1.93862226e-02,
          -6.30634604e-05, 3.22744687e-04, -1., -1. ]
      - [ -3.75044227e+00, -3.81242841e-01, 9.60099280e-01,
          1.14554298e+00, -8.87886047e-01, 3.87015432e-01,
          3.30843925e-02, 3.27363133e-01, -3.11069667e-01,
          2.65052944e-01, -2.64955193e-01, -1.98663041e-01,
          -3.31776477e-02, -3.29881832e-02, 5.60889114e-03,
          1.66224446e-02, 1.25183811e-04, -1., -1. ]
      - [ 4.42974472e+00, -4.01494056e-01, -7.24028274e-02,
          -3.99732292e-01, -4.04207885e-01, 1.45519042e+00,
          9.55639333e-02, 1.30877301e-01, 2.51812711e-02, 6.21399164e-01,
          -3.54292642e-05, -2.65599601e-02, -1.27462536e-01,
          2.39250958e-02, -3.26442905e-02, 2.67948071e-03,
          3.35643906e-03, -1., -1. ]
      - [ 5.44592428e+00, -1.08898711e+00, -9.00299847e-01,
          1.36404705e+00, 3.05348188e-01, -2.42097199e-01,
          1.83216751e-01, 2.47984007e-01, 5.09577453e-01, 5.64017653e-01,
          3.23271066e-01, -3.24074253e-02, -3.68905574e-01,
          3.33949536e-01, -7.03263059e-02, 1.72768962e-02,
          3.18543287e-04, -1., -1. ]
      - [ 3.07468176e+00, -1.21437073e+00, 1.02970469e+00,
          1.01696157e+00, 1.12542093e+00, -1.05204932e-01,
          -1.57831192e-01, -1.20156959e-01, -4.29734945e-01,
          -1.43749550e-01, -2.60452658e-01, 1.79807812e-01,
          2.15687752e-01, -1.23662166e-02, 3.69926207e-02,
          -1.55690813e-03, 1.52610138e-03, -1., -1. ]
      - [ -3.35322917e-01, 1.46802795e+00, 4.75472435e-02,
          -1.02626181e+00, -3.22835833e-01, 4.56806630e-01,
          8.27838480e-01, -8.11325729e-01, -1.42405266e-02,
          1.11539043e-01, -3.81733142e-02, -1.36964023e-01,
          6.99238628e-02, 2.15939377e-02, -2.60273591e-02,
          4.47854074e-03, -1.55899907e-04, -1., -1. ]
      - [ 3.29580545e+00, -9.50241864e-01, 4.88039255e-01,
          -1.11088291e-01, -3.78514707e-01, 9.57252145e-01,
          -2.68108845e-01, -4.97973971e-02, -2.58962005e-01,
          -4.97655839e-01, -2.43409187e-01, 2.83144891e-01,
          -3.73677947e-02, -2.13334858e-02, 9.96962935e-03,
          -9.89558757e-04, -1.76507933e-03, -1., -1. ]
      - [ -3.61319780e+00, -3.25991607e+00, 9.56171691e-01,
          -4.87511814e-01, 6.06529832e-01, 1.83019474e-01,
          7.78211772e-01, -3.07746679e-01, -2.21455365e-01,
          6.98996723e-01, -2.56455061e-03, 5.69954455e-01,
          -1.11755140e-01, -7.86741525e-02, 1.63428262e-02,
          9.81923286e-03, -6.21588947e-03, -1., -1. ]
      - [ 3.15459323e+00, -1.16616964e+00, 5.31032562e-01,
          5.25911808e-01, 1.07738280e+00, -5.17127395e-01,
          -7.78062165e-01, 1.00330293e-01, 6.43843934e-02,
          -4.72410947e-01, 1.43746302e-01, -3.81948739e-01,
          7.70865157e-02, -5.69933206e-02, 6.53778762e-03,
          -9.69291944e-03, 6.38019945e-03, -1., -1. ]
      - [ 8.05582762e-01, 1.76242793e+00, 1.26277655e-01, 5.05413532e-01,
          8.51386726e-01, -1.03307343e+00, -2.29166389e-01,
          4.76279825e-01, -7.95504749e-02, 1.02402262e-01,
          3.08582038e-02, 2.59527620e-02, 2.00456008e-01, 1.67158805e-02,
          -1.25315264e-02, -9.80531983e-03, -6.18915819e-03, 1., 1. ]
      - [ 3.03464723e+00, -1.40065682e+00, 1.10605741e+00,
          8.59808385e-01, 8.32898259e-01, -4.54398334e-01,
          -3.46336097e-01, -1.19595356e-01, -3.86785477e-01,
          -9.70186889e-02, -1.72768876e-01, 1.61244586e-01,
          5.39666489e-02, -5.95154800e-02, 3.37026827e-02,
          -5.48535539e-03, 1.38145348e-03, -1., -1. ]
      - [ 1.01557016e+00, 5.21151781e-01, -1.38168901e-01,
          -1.37980700e-01, 1.35765028e+00, -1.05960631e+00,
          4.68422472e-01, 2.18450576e-01, -1.17099648e-02,
          -4.48895246e-01, 1.39380526e-02, -7.14193359e-02,
          1.70392856e-01, 3.42579372e-02, 2.31083259e-02,
          -1.48817794e-02, -4.62467130e-03, -1., -1. ]
      - [ 1.98720038e+00, 1.01840079e+00, 6.66324496e-01,
          -1.69188333e+00, 1.43906891e-01, 7.49479473e-01,
          -1.32893100e-01, 3.42617333e-01, 1.22362278e-01,
          -3.83178324e-01, 5.70076145e-02, -1.55307829e-01,
          1.12354890e-01, 8.51386972e-03, 1.28234283e-03,
          -2.05058120e-02, -1.70293625e-03, 1., 1. ]
      - [ 3.45394540e+00, -1.56876755e+00, 1.23569918e+00,
          5.66707671e-01, 1.06145668e+00, -5.86484790e-01,
          -7.74093568e-01, -5.40756583e-01, 1.00999866e-02,
          3.21351886e-01, -3.20299238e-01, 5.46638608e-01,
          -1.60093427e-01, -4.86131310e-02, 1.76001377e-02,
          -1.28440727e-02, -3.71492980e-03, -1., -1. ]
      - [ 1.74270415e+00, -1.38044998e-01, -1.34594560e+00,
          8.49808335e-01, 2.42473409e-01, -1.34768829e-01,
          5.84839344e-01, -7.52856255e-01, 2.32620209e-01,
          -9.17095765e-02, -7.41426349e-02, -2.34026417e-01,
          1.75412476e-01, -7.84981474e-02, 3.40916291e-02,
          1.03365006e-02, 4.72971471e-03, -1., 1. ]
      - [ 4.31469011e+00, -6.50947690e-01, -1.60366535e+00,
          9.82566535e-01, 4.91170228e-01, -2.55251855e-01,
          -1.26461595e-01, 6.21194780e-01, 4.22946274e-01,
          -2.16971576e-01, 3.67515236e-01, -4.09340352e-01,
          -6.82845339e-02, -7.36879418e-04, -2.42172205e-03,
          -1.75508372e-02, 2.88703339e-03, -1., -1. ]
      - [ 3.40366483e+00, -8.44763994e-01, -3.52623314e-01,
          1.59216356e+00, -1.04042940e-01, -4.57044393e-02,
          -1.60353974e-01, -1.25411242e-01, -2.25593582e-01,
          2.55216867e-01, -2.09990546e-01, 3.49233091e-01,
          -1.04966432e-01, 8.14523175e-02, -3.19624990e-02,
          5.90729481e-03, -4.53278935e-03, 1., 1. ]
      - [ 3.32195139e+00, -6.75000608e-01, 7.46684492e-01,
          -1.43290126e+00, 7.34711707e-01, -5.09923995e-02,
          -9.91350412e-01, 1.37372923e+00, -2.01147988e-01,
          -5.40764511e-01, 3.82460505e-01, -2.64758587e-01,
          -3.08543056e-01, -1.21142417e-01, -1.18615646e-02,
          -4.68103215e-02, -2.93585006e-03, -1., -1. ]
      - [ 7.17934430e-01, 1.58026588e+00, 3.89791846e-01, 9.87248600e-01,
          3.53504449e-01, -7.04156578e-01, -5.86151421e-01,
          3.29575427e-02, 2.37893946e-02, -7.11629689e-02,
          1.15549050e-01, -1.63870364e-01, 1.20905325e-01,
          -1.49056753e-02, 1.69853736e-02, -1.36198625e-02,
          -2.88203428e-03, 1., 1. ]
      - [ 3.15415788e+00, -7.01623976e-01, -2.16231234e-02,
          1.83390051e-01, -6.69684529e-01, 1.00022078e+00,
          -2.13397890e-01, -6.16573505e-02, -1.87575623e-01,
          -4.78218287e-01, -1.62109315e-01, 1.81276262e-01,
          -6.04595765e-02, -3.87761034e-02, 1.41749326e-02,
          2.59363698e-03, -8.28058459e-04, -1., -1. ]
      - [ 2.01786041e+00, 9.90686834e-01, -5.61278045e-01,
          -2.67525077e-01, 1.55630755e+00, -1.30741167e+00,
          4.54449266e-01, 6.84915841e-01, 3.90457034e-01,
          -3.61404777e-01, 4.30063792e-02, 1.22630492e-01,
          3.98114175e-02, -2.46881209e-02, -1.62318032e-02,
          -1.23348599e-02, -5.61303413e-03, -1., -1. ]
      - [ 1.76594901e+00, 2.56523800e+00, 1.32302272e+00, 4.59149122e-01,
          1.25393450e+00, -1.55594158e+00, 4.02461082e-01,
          4.30205345e-01, 3.32201451e-01, 1.14479768e+00, 8.76177922e-02,
          1.54341340e-01, -1.36471212e-01, -3.06276064e-02,
          -3.77441570e-02, -2.26329546e-02, -4.32425132e-03, -1., -1. ]
      - [ 3.23747611e+00, -3.18321139e-01, 2.72199839e-01,
          8.07329655e-01, -9.76322293e-01, 9.76955354e-01,
          5.32214977e-02, 4.25022632e-01, -6.96586847e-01,
          4.36560959e-02, -7.99293816e-02, 9.40995365e-02,
          8.94314237e-03, 2.36918535e-02, -2.58625038e-02,
          5.11172181e-03, -3.92653514e-04, -1., -1. ]
      - [ -2.06781650e+00, 1.91000342e-01, -2.48759329e-01,
          -1.17222130e+00, 1.71837673e-01, 3.88704777e-01,
          4.65478718e-01, -1.10063922e+00, -7.19998181e-01,
          3.70734632e-01, 5.06984703e-02, -1.76497996e-01,
          -1.38160121e-02, 7.30931312e-02, 1.10650398e-02,
          1.63129140e-02, 9.39261663e-05, -1., -1. ]
      - [ -3.66248608e+00, -2.37908411e+00, -1.66030928e-01,
          -9.22646642e-01, 8.32465291e-01, 1.51617393e-01,
          -8.44888985e-01, -2.07446739e-01, 5.28822064e-01,
          1.47338942e-01, 6.87932551e-01, -7.44777992e-02,
          6.33219108e-02, 4.89079207e-02, -1.47725968e-02,
          9.55709664e-04, -1.74563448e-03, -1., -1. ]
      - [ 8.96388292e-01, 2.37104249e+00, 1.64505780e+00,
          -2.52175379e+00, -7.25398302e-01, 1.30018020e+00,
          -1.34369535e-02, -1.29169917e+00, 1.04397464e+00,
          1.10729359e-01, 1.19784400e-02, -1.13460995e-01,
          -1.02396481e-01, 2.95385346e-02, 1.22867012e-02,
          5.19492757e-03, 3.78452288e-03, 1., 1. ]
      - [ 3.25745058e+00, -6.64037228e-01, 9.17288586e-02,
          1.82617575e-01, -5.09887695e-01, 1.18820000e+00,
          -3.08166444e-01, -1.77362293e-01, -1.31050497e-01,
          -4.03774381e-01, -2.70674556e-01, 3.85872662e-01,
          -1.11571550e-01, -4.37953416e-03, -2.14190111e-02,
          5.39737404e-04, -3.84474220e-03, -1., -1. ]
      - [ 1.02095389e+00, 1.94590008e+00, 4.84679699e-01,
          -1.11782300e+00, -3.16800445e-01, 6.34919107e-01,
          -7.58459270e-01, 2.15542004e-01, 9.36506540e-02,
          9.48360115e-02, 9.72287953e-02, -8.65112543e-02,
          6.39787093e-02, -4.34037670e-03, 2.09098924e-02,
          -1.29686110e-02, -4.53578401e-03, 1., 1. ]
      - [ -1.47931516e+00, -1.77504301e+00, -9.16183293e-01,
          -5.87131262e-01, 5.81505835e-01, -2.91002780e-01,
          1.61336792e+00, 1.07782698e+00, 1.09959745e+00, 7.94438660e-01,
          -4.48511541e-01, -2.06114203e-01, -1.60041109e-01,
          -8.68547931e-02, -7.27794459e-03, -1.50438137e-02,
          -3.79686477e-03, -1., -1. ]
      - [ 5.02258062e+00, -9.52476025e-01, 8.84565860e-02,
          -2.18119115e-01, 3.00726369e-02, 1.17784321e+00,
          -7.66194999e-01, 2.94686198e-01, 4.03977543e-01,
          -1.25638396e-01, 2.18764707e-01, -1.60687909e-01,
          -2.54543632e-01, 8.00887421e-02, -5.95678501e-02,
          4.45548678e-04, 4.11492027e-03, -1., -1. ]
      - [ 1.08460665e+00, 1.19749856e+00, 8.88108134e-01, 4.47950423e-01,
          1.07568252e+00, -1.13054693e+00, 2.92177320e-01,
          4.31261986e-01, -3.12746465e-01, 1.99675739e-01,
          3.57553996e-02, -9.14374813e-02, 1.79404810e-01,
          3.20062935e-02, 1.00702140e-02, -1.83509719e-02,
          -3.57144605e-03, 1., 1. ]
      - [ 3.66697168e+00, -4.80587125e-01, 1.18928206e+00,
          -4.58400011e-01, 2.46871524e-02, 1.05556226e+00,
          -1.04970014e+00, -2.61568844e-01, 9.15889964e-02,
          3.86799186e-01, -1.13020614e-01, 5.77882230e-02,
          -6.28171936e-02, -5.39343283e-02, 3.77362520e-02,
          -9.62270133e-04, 3.32999416e-03, -1., 1. ]
      - [ -2.46726707e-01, -2.77593517e+00, -1.30893540e+00,
          -1.02928974e-01, 4.06251609e-01, 6.56296238e-02,
          7.49299169e-01, -5.71549833e-01, -6.97365820e-01,
          -9.84365717e-02, 8.67358875e-03, 1.23968512e-01,
          -4.83671814e-01, -2.98352569e-01, 6.87318444e-02,
          3.67766316e-03, -2.44871341e-03, -1., -1. ]
      - [ 3.11892557e+00, -7.07450271e-01, 2.64269382e-01,
          1.58570957e+00, 1.43287301e-01, 2.00990811e-02,
          -4.57591087e-01, -1.88300505e-01, -2.48426378e-01,
          -5.57801034e-03, -2.74009645e-01, 3.34439516e-01,
          8.99539888e-03, 3.44380811e-02, -1.33311395e-02,
          2.92084622e-03, -3.19744227e-03, -1., 1. ]
      - [ -1.71238501e-02, 3.40863526e-01, -1.18799865e+00,
          -3.42230737e-01, -1.21440895e-01, 4.75414395e-01,
          1.88725069e-01, 1.34584397e-01, -6.61334813e-01,
          -1.78833857e-01, 4.64508049e-02, -2.45943442e-01,
          1.68689281e-01, -2.09407322e-02, 4.60113138e-02,
          -1.42535230e-03, -4.26432211e-03, -1., -1. ]
      - [ 2.85400748e+00, -5.91457672e-02, 2.06841528e-01,
          8.45863938e-01, -1.02532351e+00, 1.14690912e+00,
          2.28231415e-01, 1.71193704e-01, -7.40400255e-01,
          1.74858317e-01, -2.61556655e-01, 2.85789579e-01,
          6.88912496e-02, 2.55093016e-02, 1.94020756e-02, 8.43299367e-03,
          -2.84744706e-03, 1., 1. ]
      - [ 4.04040623e+00, 8.36172923e-02, -8.15338016e-01,
          3.16222250e-01, -8.54575574e-01, 1.37496793e+00,
          1.70945618e-02, 2.95456499e-01, 2.96462774e-02, 4.83583421e-01,
          1.99922904e-01, -2.60485053e-01, -5.44220954e-02,
          -1.03068128e-02, -1.86809748e-02, 4.15163394e-03,
          5.14825759e-03, -1., -1. ]
      - [ -2.60445404e+00, -1.03639114e+00, 4.75370027e-02,
          1.60885528e-02, 5.94145805e-02, -1.57989785e-01,
          -9.04327989e-01, 1.02932787e+00, 1.09253019e-01,
          6.98987722e-01, -1.08754724e-01, -3.04478437e-01,
          -1.50842384e-01, -5.89288063e-02, 1.23234233e-03,
          -7.82201532e-03, -6.63453899e-03, -1., -1. ]
      - [ 6.32075429e-01, 2.06543374e+00, 1.44973361e+00,
          -6.00116909e-01, -9.53284740e-01, 9.83632386e-01,
          2.31705070e-01, -5.17933547e-01, 7.40874559e-04,
          -1.82664216e-01, -9.89108719e-03, -2.13099986e-01,
          1.98982462e-01, 1.64308697e-02, 2.45887339e-02, 8.65370035e-03,
          3.91191663e-03, 1., 1. ]
      - [ 7.83653259e-01, 2.83096695e+00, 1.25206196e+00,
          -2.13408899e+00, -7.65841842e-01, 1.03959215e+00,
          5.07898986e-01, -1.02697134e+00, 1.03359854e+00,
          -3.12808938e-02, 2.59938911e-02, -2.79315151e-02,
          -1.39482737e-01, 1.21432878e-02, 3.06752939e-02,
          -3.25813447e-03, 1.07130222e-03, -1., -1. ]
      - [ 2.78426433e+00, -3.54364336e-01, 1.71502829e+00,
          -3.99397966e-03, -3.05119287e-02, 9.66540158e-01,
          7.67847955e-01, 1.28218248e-01, -1.09317994e+00,
          6.36231422e-01, -4.40090954e-01, 3.86880070e-01,
          2.23489165e-01, -1.25266546e-02, 5.49314991e-02,
          -2.65188835e-04, -8.64522532e-04, -1., -1. ]
      - [ 1.66883260e-01, 2.23930359e+00, 7.86347926e-01,
          -6.07326686e-01, -9.03036654e-01, 8.91497672e-01,
          -3.17131169e-02, -3.51152539e-01, -4.24675532e-02,
          -1.78521872e-01, 2.04348899e-02, -1.78354695e-01,
          2.02303156e-01, 3.24186794e-02, 5.11504523e-02, 3.24177416e-03,
          -2.75647762e-04, 1., 1. ]
      - [ 1.41703915e-02, 1.70778310e+00, -9.51718986e-01,
          -8.72677505e-01, -1.98039681e-01, 2.75024474e-01,
          -5.97762346e-01, 6.28490329e-01, -3.30642641e-01,
          -1.46133423e-01, 8.47096890e-02, 5.51951639e-02,
          1.10300213e-01, -2.58371066e-02, 1.82123240e-02,
          9.18081775e-03, -8.33499618e-03, -1., -1. ]
      - [ 3.07389665e+00, -2.95549840e-01, 4.47299451e-01,
          6.38755977e-01, -9.12980497e-01, 9.21373904e-01,
          2.81643361e-01, 4.43036944e-01, -8.00858796e-01,
          1.06927775e-01, -8.24371874e-02, 2.23201644e-02,
          4.96797115e-02, -1.91270355e-02, -1.18256814e-03,
          3.95252928e-03, 1.33098545e-03, 1., -1. ]
      - [ 2.49359703e+00, -2.34892988e+00, 1.55646586e+00,
          -2.07441330e+00, -3.68522811e+00, -2.92894244e+00,
          -9.19808447e-01, -4.99324173e-01, -5.48157752e-01,
          -4.43920568e-02, -5.68787038e-01, 5.57613015e-01,
          1.81587368e-01, -6.08551614e-02, 2.84453761e-02,
          -9.28074401e-03, -6.34060334e-03, -1., -1. ]
      - [ 1.09666586e+00, 1.66542840e+00, 3.89267176e-01, 8.24293122e-02,
          1.37938833e+00, -1.28060329e+00, -2.35685319e-01,
          6.51620209e-01, 3.69387306e-02, 2.82241907e-02, 2.06596777e-02,
          1.14874117e-01, 1.69232085e-01, 2.73190308e-02,
          -2.17395723e-02, 2.76957348e-04, -5.74482791e-03, -1., 1. ]
      - [ -2.84359503e+00, -2.50963092e+00, 1.19006598e+00,
          1.86383501e-01, 1.92394070e-02, 1.50257811e-01,
          -5.27860284e-01, 6.73164368e-01, -4.48471354e-03,
          1.36929643e+00, 3.98092091e-01, -1.29438236e-01,
          -1.99180027e-03, -9.16782990e-02, 4.99762187e-04,
          3.85321211e-03, 1.47822255e-03, -1., -1. ]
      - [ 8.01229030e-02, 1.65237260e+00, 9.32274520e-01, 1.15993643e+00,
          2.58740723e-01, -6.44346833e-01, 1.34598866e-01,
          -4.50493306e-01, -3.05484921e-01, 4.57225919e-01,
          -1.76232718e-02, -2.22561747e-01, 2.76605010e-01,
          4.56569456e-02, 2.91479919e-02, 5.57136303e-03, 1.11706858e-03,
          1., 1. ]
      - [ 2.04992071e-01, 1.61036086e+00, 4.21816856e-01,
          -9.19088662e-01, -3.75207484e-01, 7.67181754e-01,
          -3.98768693e-01, -2.27240637e-01, -1.49601519e-01,
          -1.02785341e-01, 2.95853685e-03, -1.90288812e-01,
          2.49260679e-01, 5.35437949e-02, 1.63888149e-02, 2.63874390e-04,
          -2.18000240e-03, -1., -1. ]
      - [ 3.43513584e+00, -8.81452620e-01, 1.50685370e+00,
          -4.59550023e-01, 1.15392521e-01, 1.07102454e+00,
          -1.58174515e-01, 1.38900682e-01, -6.12676024e-01,
          1.00525089e-01, -2.59262025e-01, 2.10841388e-01,
          1.37719899e-01, -1.78703219e-02, 1.53502449e-02,
          -4.05870704e-03, 1.19119370e-03, -1., -1. ]
      - [ 3.11939192e+00, 2.23721772e-01, 1.43398619e+00, 7.81364262e-01,
          -9.13815379e-01, 4.89442676e-01, 1.20924437e+00,
          5.12013197e-01, -1.06191826e+00, 9.94915128e-01,
          -1.42207026e-01, 2.31064886e-01, -1.31997660e-01,
          9.93319904e-04, -1.14285946e-02, -1.35693175e-04,
          -2.38528970e-04, -1., 1. ]
      - [ -3.45415711e+00, -1.15320933e+00, -1.74050465e-01,
          -2.17879817e-01, 3.41173202e-01, 4.12489742e-01,
          -4.25323069e-01, -6.87944889e-01, -7.72896469e-01,
          4.06965643e-01, -1.08204618e-01, -1.54997498e-01,
          3.70355040e-01, 1.55695677e-01, -7.24548921e-02,
          2.22486481e-02, 6.34684809e-04, -1., -1. ]
      - [ 3.34899235e+00, -1.12963903e+00, -8.47513795e-01,
          1.12573266e+00, 2.62354076e-01, -7.24840537e-02,
          -2.19763666e-02, -1.28760353e-01, 3.51815969e-02,
          -2.86803633e-01, -2.51239706e-02, -1.12055480e-01,
          3.07564773e-02, -4.45376784e-02, 3.08741014e-02,
          4.75274818e-03, 3.40083428e-03, -1., -1. ]
      - [ 3.27179837e+00, -1.45009792e+00, 1.09556043e+00,
          -6.14881217e-01, 1.93845525e-01, 8.20721626e-01,
          -2.16733277e-01, 6.25960454e-02, -4.93485808e-01,
          -5.41679025e-01, -2.30348110e-01, 1.75390378e-01,
          1.72381192e-01, -3.65002491e-02, 3.92542705e-02,
          -3.99215659e-03, 1.30381831e-03, -1., -1. ]
      - [ -4.61572647e-01, -4.57598448e-01, 2.85991188e-02,
          -1.25792158e+00, 6.91312432e-01, 2.91791797e-01,
          -8.79181206e-01, -2.69861430e-01, -5.01666963e-01,
          -3.82717729e-01, 1.89090103e-01, -2.88284808e-01,
          7.80795515e-02, 3.31816338e-02, -3.77020612e-02,
          -3.33689764e-04, -3.19938874e-03, -1., -1. ]
      - [ -3.06411195e+00, 1.05090261e-01, -1.97060871e+00,
          -3.27899933e-01, 2.56949484e-01, -1.29262969e-01,
          -2.44078964e-01, 3.12614530e-01, -3.29998463e-01,
          -4.47940856e-01, -1.72271505e-01, 2.64060330e-02,
          5.96068352e-02, 4.90786321e-02, 3.31101380e-02,
          -2.36369651e-02, -2.08139280e-03, -1., -1. ]
      - [ -3.67582512e+00, -1.94435632e+00, -1.19804347e+00,
          -1.64594030e+00, 1.31303072e+00, -2.14765400e-01,
          3.66688609e-01, -7.93150365e-02, -2.23786518e-01,
          -1.65676191e-01, 2.17710018e-01, -5.11455759e-02,
          4.59742872e-03, 9.16610733e-02, -5.76837175e-02,
          -3.81924538e-03, -6.57962263e-03, -1., -1. ]
      - [ -2.66475821e+00, -1.26886439e+00, -1.83921659e+00,
          -5.68342745e-01, 4.19617534e-01, 5.68775117e-01,
          -1.09224641e+00, -9.06747282e-01, 6.37453020e-01,
          3.99037778e-01, -5.22481441e-01, -8.02910849e-02,
          2.99076140e-01, 1.76530421e-01, 1.07502611e-02, 7.77300959e-03,
          1.63414294e-03, -1., -1. ]
      - [ -1.93427265e+00, 1.62458313e+00, -1.01184034e+00,
          -1.50154734e+00, 3.11973691e-01, 5.52752651e-02,
          -5.14216125e-02, 6.61584958e-02, -4.31611300e-01,
          -4.35966581e-01, 1.38311610e-02, 1.77787229e-01,
          3.87632027e-02, 6.49222806e-02, 3.07756234e-02, 2.22605057e-02,
          -5.87143935e-03, -1., -1. ]
      - [ -3.94183969e+00, -4.44571465e-01, 2.93853611e-01,
          -2.91335315e-01, 1.46071568e-01, 1.69784307e-01,
          -8.57441962e-01, -6.87516928e-01, -5.53982973e-01,
          -5.77618241e-01, 2.26748019e-01, -1.43123537e-01,
          -2.78240263e-01, 3.48851644e-02, -6.35430403e-03,
          9.50090413e-04, -4.12888417e-04, -1., -1. ]
      - [ 3.17122459e+00, -1.22566235e+00, 1.20766604e+00,
          -1.80424917e+00, 4.44829017e-01, 1.06566525e+00,
          1.95323810e-01, -3.36365134e-01, -1.96934968e-01,
          2.02568501e-01, -1.17431223e-01, 4.14264314e-02,
          9.91661921e-02, -7.13607743e-02, 1.49775911e-02,
          -3.56534170e-03, 5.44914650e-03, -1., 1. ]
      - [ 4.72023678e+00, -1.59744784e-01, -2.44872236e+00,
          1.48184097e+00, -3.98372054e-01, -8.84770826e-02,
          -8.09765458e-01, 4.27349716e-01, 9.91879642e-01,
          9.41161066e-02, 6.78503871e-01, -4.34010893e-01,
          -3.12186867e-01, 3.21506150e-02, -6.78850710e-02,
          -1.22400718e-02, 2.67983228e-03, -1., -1. ]
      - [ 5.52946031e-01, 1.58831644e+00, 4.32615072e-01,
          -7.36286640e-02, -9.74636137e-01, 6.68509960e-01,
          -4.21475060e-02, 1.13212228e-01, -8.90150011e-01,
          1.23459768e+00, -1.26261060e-04, -2.77189940e-01,
          2.67488152e-01, -7.82932993e-03, 2.54224446e-02,
          1.85816688e-03, 4.91514402e-05, -1., -1. ]
      - [ -4.25299788e+00, -7.02054262e-01, 2.32319760e+00,
          6.97472036e-01, -6.01659119e-01, -4.94036684e-03,
          -2.92058975e-01, -1.23528846e-01, -1.03190947e+00,
          -4.50085044e-01, 6.46944702e-01, -7.32143000e-02,
          -1.85688943e-01, -6.65881708e-02, -3.26495394e-02,
          1.45878214e-02, 1.87342230e-04, -1., -1. ]
      - [ -4.44774628e+00, -8.74914289e-01, 1.81302798e+00,
          8.41902375e-01, -6.23866439e-01, 3.34670126e-01,
          -6.22803569e-01, -3.49421918e-01, -1.86085731e-01,
          -7.55286068e-02, 8.29999223e-02, 1.94532841e-01,
          -1.76485777e-01, 1.57807935e-02, 2.29918715e-02,
          2.31827814e-02, -3.38759669e-03, -1., -1. ]
      - [ -3.72986794e+00, -1.87925649e+00, 1.46644115e+00,
          9.22540724e-01, -6.83953166e-01, 5.15449047e-01,
          3.42273444e-01, 7.19438255e-01, 7.52926052e-01,
          -3.27584982e-01, -3.83086056e-01, 9.37186331e-02,
          2.49585025e-02, -1.06501453e-01, 2.15445124e-02,
          1.24471011e-02, -1.06265943e-03, -1., -1. ]
      - [ -1.58372903e+00, 3.05522776e+00, -1.35801196e+00,
          -4.88359153e-01, -7.27401316e-01, 2.99395949e-01,
          -7.04621196e-01, 4.42858130e-01, -9.47522223e-02,
          -6.56258345e-01, 1.31296441e-01, 3.32883567e-01,
          -8.52462277e-02, -5.39824665e-02, 5.37901632e-02,
          9.79777519e-03, 2.72839708e-04, -1., -1. ]
      - [ 3.25455475e+00, -1.13936253e-01, 3.42062324e-01,
          7.11672008e-01, -9.29012358e-01, 9.98531759e-01,
          3.35382998e-01, 5.14954269e-01, -7.52817333e-01,
          1.85367897e-01, -3.25623378e-02, -6.98491037e-02,
          1.04864843e-01, -7.79990572e-04, -2.39026565e-02,
          4.79226978e-03, 2.79739872e-03, -1., 1. ]
      - [ 3.30586505e+00, -3.29340363e+00, 7.21119344e-01,
          -2.84366703e+00, -3.19703555e+00, -2.90451550e+00,
          -1.92686990e-01, -1.14225842e-01, -4.18199927e-01,
          -4.24956977e-01, -2.46225238e-01, 7.61980712e-02,
          1.43444583e-01, -1.06676176e-01, 1.44734010e-02,
          -1.14208357e-02, 1.13787944e-03, -1., -1. ]
      - [ 2.28432584e+00, -1.96668911e+00, 1.20405889e+00,
          -1.77767515e+00, -4.02645636e+00, -2.86808467e+00,
          -1.11589476e-01, -1.72163680e-01, -8.98766041e-01,
          2.30809581e-02, -4.96210754e-01, 2.32191503e-01,
          3.89732927e-01, -6.13842420e-02, 2.27545630e-02,
          -1.49303384e-03, -1.54699641e-03, -1., 1. ]
      - [ 1.21360540e+00, 2.81195951e+00, 1.71739459e+00,
          -1.69308913e+00, -1.04421484e+00, 1.15720475e+00,
          6.78802058e-02, -6.19975984e-01, 6.16813481e-01,
          4.16878611e-01, 6.14207238e-02, -1.05709814e-01,
          -8.91751349e-02, -1.55813126e-02, 5.97839430e-03,
          -6.71508070e-03, 2.13290518e-03, -1., -1. ]
      - [ 3.06786609e+00, -4.73393917e-01, -1.22371472e-01,
          1.85747659e+00, 1.92011029e-01, 3.76935184e-01, 1.29766658e-01,
          -1.51974857e-01, -3.11049253e-01, -1.41469985e-01,
          -3.23098749e-01, 4.26340789e-01, 3.11288573e-02,
          7.67987296e-02, -4.07917313e-02, 5.53271035e-03,
          -4.70926613e-03, -1., -1. ]
      - [ -4.20785999e+00, 7.52007008e-01, -1.20772600e+00,
          -2.92866528e-01, 1.74442768e-01, -6.98049515e-02,
          -3.82657200e-01, 5.93946040e-01, -3.64935666e-01,
          -2.01568469e-01, -4.94869381e-01, 3.96779507e-01,
          1.81336373e-01, 1.95394799e-01, -1.22267501e-02,
          -8.73382837e-02, 1.79262888e-02, -1., -1. ]
      - [ 1.33385539e+00, 1.89575613e+00, 2.94704854e-01,
          -1.91581714e+00, 4.83893335e-01, 9.94948298e-02,
          -1.93942821e+00, 4.63138938e-01, 6.98945701e-01,
          -1.86734408e-01, 1.79212689e-01, 1.33356512e-01,
          -1.42217726e-01, -4.21924964e-02, -2.43662857e-03,
          1.85042042e-02, -5.09072281e-03, -1., 1. ]
      - [ 2.91997552e+00, -7.15913355e-01, -6.62158728e-01,
          1.50577855e+00, -9.39509273e-02, 1.51069080e-02,
          7.48743296e-01, -1.55229732e-01, -1.36052042e-01,
          -6.72640383e-01, -1.91419914e-01, 2.04028934e-01,
          2.21536327e-02, -1.07685453e-03, 3.10236891e-03,
          5.73956594e-03, -8.78389284e-04, -1., 1. ]
      - [ -5.18383503e+00, -7.65905023e-01, 1.99764371e+00,
          8.16417515e-01, -5.94386101e-01, 3.55524361e-01,
          4.08148533e-03, 2.82732099e-01, 2.06803560e-01,
          -4.82175261e-01, -1.29838020e-01, 1.86227765e-02,
          6.25260472e-02, 7.81182200e-02, -2.78423987e-02,
          1.43833086e-02, -2.58317741e-04, -1., -1. ]
      - [ 3.13468719e+00, -1.04129148e+00, -5.46402574e-01,
          1.50002635e+00, -8.13102499e-02, 1.13194650e-02,
          3.96898836e-01, -9.79859754e-02, -2.03672007e-01,
          -6.39592886e-01, -2.32547551e-01, 3.91272724e-01,
          -1.02364056e-01, 5.26698269e-02, -6.12835512e-02,
          2.37116637e-03, -4.91090911e-03, -1., -1. ]
      - [ -4.80355024e+00, -1.06526828e+00, 1.15384817e+00,
          -3.88741851e-01, 3.09550196e-01, -1.13213249e-01,
          3.28148454e-02, -5.52554764e-02, -4.45036173e-01,
          -8.43255043e-01, 7.61681259e-01, -9.59051074e-04,
          4.55502272e-02, 8.24040473e-02, -2.75755599e-02,
          -1.94360514e-03, -2.35732063e-03, -1., -1. ]
      - [ 1.31705332e+00, 1.12760043e+00, 1.17002726e+00, 8.42728913e-01,
          7.83952296e-01, -9.79678631e-01, 2.63454288e-01,
          3.05651397e-01, -4.00797278e-01, 5.14704287e-01,
          7.21014068e-02, -1.92994028e-01, 1.21344879e-01,
          -4.74810367e-03, -2.05280422e-03, -1.83843225e-02,
          -4.54994472e-04, 1., 1. ]
      - [ 4.69334269e+00, -1.87797606e+00, -1.09087452e-01,
          -8.17741871e-01, 1.93196893e-01, 3.53321701e-01,
          7.79282093e-01, 1.27108216e+00, -3.89492691e-01,
          -6.36529803e-01, 4.17323232e-01, -4.50335592e-01,
          -3.33820045e-01, -5.61190248e-02, -2.13555098e-02,
          -2.22810972e-02, 5.28051471e-03, -1., -1. ]
      - [ -3.60469073e-01, 1.85170937e+00, -8.81581903e-01,
          1.24498211e-01, 8.59886944e-01, -8.96169484e-01,
          -1.49488732e-01, 1.43520236e-01, 6.37365729e-02,
          -3.68152440e-01, -1.58292577e-02, 1.28915176e-01,
          2.28452370e-01, 4.79344130e-02, 2.84787025e-02, 1.77998822e-02,
          -7.47726299e-03, -1., -1. ]
      - [ -2.81766224e+00, -8.99419844e-01, -4.54673946e-01,
          -1.62101194e-01, -7.89095089e-02, 4.04282689e-01,
          -2.30428800e-01, -7.92797565e-01, -7.68677592e-01,
          -4.82163906e-01, 1.61315665e-01, -2.44359776e-01,
          -1.85746029e-01, -4.19084504e-02, -2.58121211e-02,
          1.88131500e-02, -3.81584396e-04, -1., -1. ]
      - [ -3.71053147e+00, 3.87994319e-01, -2.91232020e-01,
          1.42154098e-01, 1.61467902e-02, -1.65520936e-01,
          5.47852516e-01, -9.58802760e-01, -4.54490960e-01,
          -7.04249144e-01, -5.83497956e-02, 1.66569978e-01,
          -3.34993035e-01, 7.49443918e-02, -5.65045979e-03,
          -1.52319511e-02, 1.43291010e-03, -1., -1. ]
      - [ -4.25959682e+00, 7.21313357e-01, 7.53877401e-01,
          6.56471550e-01, -4.23067421e-01, -2.52516810e-02,
          -3.29665661e-01, 1.05821013e+00, -2.24391192e-01,
          -6.43573761e-01, -1.51766434e-01, -8.34582299e-02,
          -5.89095317e-02, 1.51856272e-02, -1.37712974e-02,
          -1.85853355e-02, -4.74677468e-03, -1., -1. ]
      - [ 3.39496517e+00, -1.18558621e+00, 5.55136859e-01,
          -3.65231931e-01, 1.01341065e-02, 1.07612944e+00,
          1.06622830e-01, 6.22109435e-02, -4.66171741e-01,
          -4.66061562e-01, -3.04144204e-01, 2.23813891e-01,
          1.61956906e-01, -8.76650214e-04, 3.14397737e-02,
          3.93764494e-04, -8.03100265e-05, -1., -1. ]
      - [ 1.31441295e+00, 6.93414152e-01, 2.71259487e-01,
          -1.03284270e-01, 1.46387434e+00, -1.30682909e+00,
          -9.92194533e-01, 1.23533678e+00, -4.70126420e-01,
          2.54323512e-01, 1.71789393e-01, 3.99802811e-02,
          -4.39779181e-03, -4.37712669e-02, -8.68893880e-03,
          1.34431617e-03, -6.44161878e-03, -1., -1. ]
      - [ 1.02785146e+00, 2.39594483e+00, 1.64312983e+00,
          -1.21073878e+00, -2.30072558e-01, 9.34262648e-02,
          1.95373178e+00, -8.73087466e-01, 6.66442454e-01,
          9.87894088e-02, -1.90999471e-02, -2.30408702e-02,
          -1.35958239e-01, -1.06779477e-02, -3.55147640e-03,
          -5.46697434e-03, 3.71317915e-03, -1., -1. ]
      - [ 3.51520443e+00, -1.05903149e+00, 2.17316461e+00,
          -9.82892632e-01, 5.23650289e-01, 9.68964398e-01,
          6.15350485e-01, 2.62018859e-01, -9.25374210e-01,
          5.30253589e-01, -2.54102767e-01, 2.67578989e-01,
          2.53896117e-01, -6.92570116e-03, 4.32786122e-02,
          -7.84603879e-03, 2.58649467e-03, -1., -1. ]
      - [ 1.77332783e+00, 9.21223819e-01, 1.35091972e+00, 6.32678986e-01,
          1.04962909e+00, -9.31643546e-01, -7.44048834e-01,
          1.06577523e-01, 1.71472311e-01, 1.65364910e-02, 1.50428921e-01,
          -2.23010048e-01, 2.83969026e-02, -1.55627429e-02,
          -1.03438348e-02, -2.23534945e-02, 2.98603409e-04, -1., 1. ]
      - [ 3.28858089e+00, -5.62839746e-01, -3.79656047e-01,
          1.70523536e+00, 1.20946132e-01, 3.74628186e-01,
          -6.25348628e-01, -3.00048083e-01, 1.48057580e-01,
          -4.01269585e-01, -1.79375947e-01, 2.73106843e-01,
          -3.74189205e-02, 4.80472930e-02, -3.53263468e-02,
          5.69374859e-03, -2.65651825e-03, -1., -1. ]
      - [ -2.56184363e+00, -2.87005424e+00, -3.00498515e-01,
          -2.35048365e-02, -1.29337654e-01, 5.72704196e-01,
          -7.00571060e-01, -3.27475250e-01, 1.10095668e+00,
          4.01170373e-01, -4.10739899e-01, 3.54770660e-01,
          -1.90704361e-01, -1.31005719e-01, 1.10973895e-01,
          1.51556917e-02, -5.60088642e-03, -1., -1. ]
      - [ 3.11870694e+00, 4.42637503e-01, 7.41847277e-01, 1.00831044e+00,
          -9.48692560e-01, 9.35220242e-01, 8.79402757e-01,
          5.45986891e-01, -9.35424030e-01, 7.69402862e-01,
          -5.55365793e-02, -1.30141256e-02, 7.31415004e-02,
          2.91961874e-03, -6.93920022e-03, 5.71868150e-03,
          2.85903248e-03, -1., -1. ]
      - [ 2.39802912e-01, 2.20764351e+00, 2.35107481e-01, 3.65377724e-01,
          -1.20978391e+00, 5.80166578e-01, 2.31739804e-01,
          2.93508887e-01, -3.32890004e-01, -5.04182100e-01,
          2.01267213e-01, -1.47957802e-01, -9.19513777e-03,
          -9.28374976e-02, 1.69326235e-02, -1.35518108e-02,
          -2.85860384e-03, -1., -1. ]
      - [ 4.13037395e+00, -3.56050467e+00, -4.29196298e-01,
          -8.76064956e-01, -2.65611100e+00, -4.29239178e+00,
          1.01783425e-01, 6.41311258e-02, -1.06116623e-01,
          -3.50235432e-01, -7.04551488e-02, -6.14793636e-02,
          5.09783477e-02, 1.17945932e-01, -3.50314938e-02,
          2.13850779e-03, 1.86991441e-04, -1., 1. ]
      - [ 4.05015373e+00, -7.10634828e-01, -1.87757957e+00,
          1.55464995e+00, -2.77231514e-01, 2.00840011e-01,
          -4.72936369e-02, -3.97276223e-01, 6.05036855e-01,
          -2.24913657e-02, 1.93837211e-02, 2.02525944e-01,
          -2.01690808e-01, 1.37119263e-01, -6.88407868e-02,
          1.30247585e-02, -2.59325840e-03, -1., 1. ]
      - [ 8.64275813e-01, 1.14144635e+00, 9.70476210e-01, 1.24973989e+00,
          2.74306744e-01, -4.45242554e-01, -2.40767911e-01,
          -4.79719371e-01, 9.45059061e-02, -5.57631016e-01,
          2.96555050e-02, -2.70229995e-01, 2.50840634e-01,
          2.15226086e-03, 8.34116619e-03, 3.79946735e-03, 4.01734374e-03,
          -1., 1. ]
      - [ -2.47326636e+00, -1.69773829e+00, -1.29609931e+00,
          -6.18731260e-01, 4.22335863e-01, 2.80019224e-01,
          1.18277945e-01, -4.08761084e-01, -6.33277953e-01,
          -5.91325052e-02, 1.11235276e-01, -3.19859654e-01,
          -1.43451810e-01, -3.35996076e-02, 1.78241283e-02,
          1.53212231e-02, -2.29157950e-03, -1., -1. ]
      - [ 3.66079259e+00, -1.36125100e+00, 5.45763373e-01,
          -4.93630409e-01, -4.18829583e-02, 5.41068614e-01,
          -1.13784194e-01, 7.29431152e-01, -4.04608250e-01,
          -6.35799408e-01, 2.53931195e-01, -3.73935580e-01,
          -1.52183741e-01, -1.07300088e-01, -1.13038132e-02,
          -1.37264747e-02, 5.98875340e-03, -1., -1. ]
      - [ -8.48412693e-01, -3.07644248e+00, -1.55685568e+00,
          3.00710592e-02, -5.97799011e-02, 5.62908769e-01,
          3.53474587e-01, 2.02915236e-01, 2.68137276e-01, 4.83886339e-02,
          -3.20318848e-01, -1.16554208e-01, -2.17296779e-01,
          -2.34848723e-01, 9.89641994e-02, 1.07783619e-02,
          -5.87934395e-04, -1., -1. ]
      - [ 3.81613708e+00, -8.84184361e-01, 1.03219116e+00,
          -1.17215919e+00, 5.58136761e-01, 2.16684207e-01,
          1.22764623e+00, 6.85910165e-01, -1.79129511e-01,
          -6.94840014e-01, 1.44206181e-01, -3.07204157e-01,
          -3.75002064e-02, -5.10307588e-02, -2.24024449e-02,
          -2.24714112e-02, 6.55406993e-03, -1., -1. ]
      - [ 3.75599122e+00, -1.02545559e+00, 6.59377575e-01,
          3.17014545e-01, 1.49012899e+00, -7.85653949e-01,
          1.46819401e+00, -4.44938838e-02, 2.59098500e-01,
          -5.32521009e-01, -1.08259206e-03, -1.72927886e-01,
          2.32375562e-02, -3.95607799e-02, -6.19385093e-02,
          -1.31704118e-02, 8.05571582e-03, -1., -1. ]
      - [ 3.37031388e+00, -8.26440692e-01, 4.80313778e-01,
          5.54152280e-02, 1.63360760e-02, 1.36659074e+00,
          -4.42357153e-01, -1.83478609e-01, -1.76263466e-01,
          -3.79490674e-01, -3.32664073e-01, 4.56003577e-01,
          -8.62359926e-02, 3.00237152e-04, -1.12896888e-02,
          -2.22638040e-03, -4.28730715e-03, -1., -1. ]
      - [ -1.58898425e+00, -2.44749880e+00, -1.42512655e+00,
          -6.31465018e-01, 5.88192165e-01, 3.09248362e-02,
          9.26667631e-01, 1.18048668e+00, 9.69456077e-01, 1.68161988e-01,
          -4.25123185e-01, -2.89465994e-01, -2.57825907e-02,
          -7.68271014e-02, -2.86024455e-02, -1.27282077e-02,
          -4.25369805e-03, -1., -1. ]
      - [ -1.19777405e+00, -2.03602839e+00, -2.34643531e+00,
          -3.00084054e-01, 2.55117208e-01, 2.39138111e-01,
          7.76603281e-01, -6.78423405e-01, -1.39526770e-01,
          6.66712001e-02, -4.37127799e-02, -2.81229883e-01,
          -2.46485785e-01, -1.46663100e-01, 3.91170941e-02,
          1.87006891e-02, 8.12584913e-05, -1., -1. ]
      - [ 2.31882381e+00, -4.74407673e-01, 7.97390997e-01,
          -1.69927180e+00, 4.80559647e-01, 8.27861190e-01,
          -2.17277169e-01, -1.75288558e-01, -3.88418213e-02,
          -3.40510964e-01, -8.36125668e-03, -3.30064416e-01,
          3.08083653e-01, 3.87987755e-02, 1.82981435e-02,
          -2.78955151e-04, 5.40504092e-03, -1., -1. ]
      - [ 3.17467856e+00, -1.25289738e+00, 1.42874050e+00,
          8.98572862e-01, 1.32606411e+00, -1.58249140e-01,
          -5.12906909e-01, -2.94077784e-01, -2.85417229e-01,
          -5.27120521e-03, -2.99032897e-01, 3.48026425e-01,
          1.46511823e-01, -1.47215175e-02, 4.76501212e-02,
          -5.65363001e-03, -2.59904977e-04, -1., 1. ]
      - [ -4.33233166e+00, 1.23686016e+00, 1.81817532e+00,
          1.13097107e+00, -8.33804905e-01, -1.80575937e-01,
          -1.04809618e+00, 9.74692464e-01, -6.54587984e-01,
          4.98048216e-01, -5.10547198e-02, -1.50315672e-01,
          -1.63661093e-01, -1.89404993e-03, 2.13217689e-03,
          -1.88215412e-02, -3.09148757e-03, -1., -1. ]
      - [ 1.89107096e+00, 1.65591645e+00, -1.14686176e-01,
          2.24972740e-01, 1.26329386e+00, -9.56627488e-01,
          -2.87821710e-01, -2.70031840e-01, 8.77428949e-01,
          5.56119323e-01, 5.94157614e-02, -8.18655547e-03,
          -3.53259742e-02, -1.36606665e-02, 1.38807325e-02,
          -2.03036927e-02, -3.32226441e-03, 1., 1. ]
      - [ -4.70170689e+00, 1.02887130e+00, -1.25200510e-01,
          -1.06122673e+00, 8.90197933e-01, -6.78212523e-01,
          -1.50544238e+00, 1.01456511e+00, -3.80197138e-01,
          -6.89968288e-01, 3.47669236e-02, 3.68303329e-01,
          -1.53581679e-01, 4.35986929e-02, -2.94679720e-02,
          8.06687996e-02, 1.11287041e-02, -1., -1. ]
      - [ -4.14335489e+00, -4.63017225e-01, 2.27878642e+00,
          6.68222904e-01, -4.13020402e-01, -1.11610837e-01,
          9.79805648e-01, -2.31575906e-01, 4.10605334e-02,
          -6.32001340e-01, 1.79674059e-01, 5.78288920e-02,
          -2.75986463e-01, -6.71095699e-02, -1.82773843e-02,
          1.50085483e-02, 8.32329213e-04, -1., -1. ]
      - [ 3.34815431e+00, -9.38351333e-01, 4.22882766e-01,
          -2.48918222e-04, -3.50363195e-01, 1.04818165e+00,
          2.38370344e-01, 1.64438888e-01, -4.99323547e-01,
          -5.19060969e-01, -2.63563037e-01, 2.56580412e-01,
          6.13819659e-02, 1.17444070e-02, -1.06293214e-02,
          2.67328229e-04, -1.39078009e-03, -1., 1. ]
      - [ 1.98769093e-01, 1.17269695e+00, 4.67874765e-01, 8.95035148e-01,
          3.25330973e-01, -4.60256755e-01, -7.87776530e-01,
          -7.16487586e-01, 2.67092139e-01, -4.54003006e-01,
          8.17012489e-02, -2.65644968e-01, 1.51890621e-01,
          1.19917123e-02, 4.43730243e-02, 5.31642791e-03, 1.08975219e-03,
          -1., -1. ]
      - [ -4.80193758e+00, -1.05886352e+00, 1.49001431e+00,
          7.99861729e-01, -5.84436178e-01, 4.36094701e-01,
          5.82077764e-02, 2.77467877e-01, 5.38757257e-02, 3.69861662e-01,
          -2.99022704e-01, 5.23020066e-02, 8.42218325e-02,
          8.48482698e-02, 2.20606802e-03, 2.02678833e-02,
          -1.45312899e-03, -1., -1. ]
      - [ 3.20415783e+00, -1.12265265e+00, 1.02006316e+00,
          -5.77637553e-01, 6.32034913e-02, 1.06576109e+00,
          4.23497230e-01, -5.02333678e-02, -5.45865297e-01,
          -4.32944238e-01, -4.20312583e-01, 4.60903734e-01,
          1.13426656e-01, -1.66652091e-02, 1.28523372e-02,
          -5.52469352e-03, -2.54167058e-03, -1., -1. ]
      - [ 3.64402699e+00, -3.16463947e-01, -4.36877795e-02,
          4.60546672e-01, -1.02698195e+00, 1.13330257e+00,
          -1.29138172e-01, 7.97972605e-02, -2.37805456e-01,
          1.33654401e-01, -1.42853260e-01, 3.23209405e-01,
          -1.54587999e-01, 9.15649980e-02, -6.77153990e-02,
          5.83844492e-03, -3.94160952e-03, -1., 1. ]
      - [ -1.90895128e+00, 3.96234304e-01, -1.42219639e+00,
          -1.08429301e+00, 7.97965050e-01, -8.06994379e-01,
          1.14040780e+00, 6.65916979e-01, 3.08839534e-03,
          -1.53002664e-01, -2.01066043e-02, 1.84806570e-01,
          -3.06147337e-01, -6.74832687e-02, 9.18175746e-03,
          1.91447157e-02, -9.18523874e-03, -1., -1. ]
      - [ 3.46301460e+00, -9.79760110e-01, 6.26421750e-01,
          -1.10282749e-01, -1.10975087e-01, 1.21707904e+00,
          2.02483088e-01, 1.01846002e-01, -4.79746521e-01,
          -5.00414789e-01, -3.45079333e-01, 3.99168760e-01,
          5.06809950e-02, 4.27504070e-02, -4.82842233e-03,
          -5.32290258e-04, -3.26095987e-03, -1., -1. ]
      - [ 3.00375056e+00, -5.02224624e-01, -1.17900714e-01,
          1.75739145e+00, -1.03649952e-01, 9.95039344e-02,
          -2.98416048e-01, -3.67270634e-02, -2.70027369e-01,
          -7.63854608e-02, -1.13298230e-01, 8.44928622e-02,
          4.37005050e-02, -9.76085942e-03, -1.06968619e-02,
          5.00550400e-03, 3.33896023e-04, -1., -1. ]
      - [ 3.48298967e-01, 1.10070181e+00, -2.48972106e+00,
          7.69403502e-02, 6.15681350e-01, -5.92332542e-01,
          -6.66742742e-01, 2.06998006e-01, 5.82415648e-02,
          3.69087666e-01, 2.56353673e-02, 5.31554855e-02, 1.62511855e-01,
          -3.27537917e-02, 3.09043471e-02, 8.69143661e-03,
          -8.50178581e-03, -1., -1. ]
      - [ 3.29579425e+00, -1.14366460e+00, 6.36343539e-01,
          7.58731902e-01, 7.11247265e-01, -3.06317329e-01,
          -1.49958825e+00, -8.07948768e-01, 5.43083072e-01,
          -1.26227319e-01, -2.18277022e-01, 3.49714726e-01,
          -2.19516546e-01, -8.10108706e-02, 1.79353636e-02,
          -6.53881719e-03, -1.64598948e-03, -1., -1. ]
      - [ -3.27822280e+00, -1.79747665e+00, -1.36775449e-01,
          -5.59670508e-01, 4.93399531e-01, 1.26559466e-01,
          3.97721492e-02, -2.02150479e-01, -5.59329331e-01,
          -4.56579655e-01, 3.29084843e-01, -2.63616323e-01,
          -1.29185870e-01, -7.55343679e-03, 2.62614735e-03,
          1.30723957e-02, -2.19563651e-03, -1., -1. ]
      - [ 5.25053453e+00, -1.08150554e+00, -1.01284218e+00,
          -8.10652018e-01, -2.78428674e-01, 1.05367029e+00,
          1.06313777e+00, 3.99613023e-01, 3.65830243e-01,
          -1.09501325e-01, 2.12948337e-01, -2.27433786e-01,
          -1.90072015e-01, 9.99875143e-02, -3.73909734e-02,
          3.29126441e-03, 5.53195830e-03, -1., 1. ]
      - [ 3.73029518e+00, -9.18658078e-01, 3.57451320e-01,
          -9.99699533e-02, 2.56224982e-02, 1.29325998e+00,
          -5.25868274e-02, 1.81401297e-01, -2.62698799e-01,
          -4.27230358e-01, -1.26235172e-01, 7.29145259e-02,
          2.30892859e-02, 2.31474498e-03, 8.37345794e-03, 1.05034048e-03,
          1.62850926e-03, -1., -1. ]
      - [ -1.74546432e+00, -1.98375974e-02, -1.45370936e+00,
          1.54470623e+00, -1.49494982e+00, 7.13128626e-01,
          3.54297131e-01, 3.73016559e-02, -2.83516914e-01,
          9.31862533e-01, -2.96819001e-01, -9.89566669e-02,
          -8.52687657e-02, -1.41582653e-01, 6.98452964e-02,
          1.21010309e-02, -5.56362385e-04, -1., -1. ]
      - [ -1.49602994e-01, 2.47742963e+00, 2.01485306e-01,
          3.24004814e-02, -9.69761312e-01, 2.49327704e-01,
          1.27729857e+00, -5.30251861e-01, 3.33118528e-01,
          -6.64808571e-01, 1.55291423e-01, -4.87630814e-02,
          -2.12914497e-01, -9.42591056e-02, 4.40483429e-02,
          -7.45768659e-03, -7.33625493e-04, -1., -1. ]
      - [ 1.13998914e+00, -8.52811098e-01, 1.88233644e-01,
          -1.81368232e+00, 4.43882763e-01, 7.21766829e-01,
          7.51366556e-01, -9.15079057e-01, -1.01199299e-01,
          -6.16591759e-02, -2.02197265e-02, -1.84466720e-01,
          1.15682594e-01, -1.58845875e-02, -4.78869118e-03,
          1.37339635e-02, 5.49953291e-03, -1., -1. ]
      - [ 2.98525167e+00, -6.99927151e-01, -8.51520121e-01,
          1.69393611e+00, -2.42727757e-01, 1.92535222e-01,
          2.55905181e-01, -1.36417598e-01, -1.42365098e-01,
          -5.92361450e-01, -1.83941886e-01, 2.27660224e-01,
          3.03237662e-02, 2.46511977e-02, -3.33545171e-02,
          6.67260261e-03, -2.21512583e-03, -1., 1. ]
      - [ 1.93037987e+00, 5.82297444e-01, -5.79253137e-01,
          3.63006234e-01, 9.45848763e-01, -6.89628839e-01,
          -5.72992116e-03, -1.42902702e-01, 4.74579096e-01,
          -2.57840812e-01, 3.31459008e-02, -1.80018127e-01,
          1.40824765e-01, -2.25328952e-02, -2.55928114e-02,
          -1.92504022e-02, -8.22463713e-04, 1., 1. ]
      - [ 3.19631600e+00, -1.05286694e+00, -2.51531690e-01,
          1.45214701e+00, 2.93529302e-01, 1.26877308e-01, 2.07926005e-01,
          -5.64047042e-03, -2.73961484e-01, -6.78819835e-01,
          -2.22057894e-01, 2.06437081e-01, 9.69477594e-02,
          3.86265591e-02, -1.18282987e-02, 4.19971393e-03,
          -1.29987998e-03, -1., -1. ]
      - [ 4.35590696e+00, -3.76034617e-01, -7.78861105e-01,
          1.35809958e-01, -7.72360921e-01, 1.44549394e+00,
          2.27279529e-01, 1.97149217e-01, -8.00766796e-02,
          6.40356362e-01, 1.26169333e-02, 4.23203632e-02,
          -1.13468982e-01, 8.58054683e-02, -7.30105415e-02,
          7.75083667e-03, 8.40927241e-04, -1., -1. ]
      - [ -7.64893055e-01, 1.60512769e+00, 6.04139984e-01,
          8.80372584e-01, -3.33869010e-02, -6.89088821e-01,
          1.54041278e+00, -1.47728252e+00, 3.32730711e-01,
          -3.93007070e-01, -4.42873389e-02, -6.13518879e-02,
          -6.57389984e-02, -3.35582420e-02, 5.18041430e-03,
          1.77368019e-02, 4.26630909e-03, -1., -1. ]
      - [ 3.53373933e+00, -5.52417755e-01, -4.48319525e-01,
          1.74691641e+00, 6.16097115e-02, 3.36555749e-01,
          -5.85801125e-01, -2.37512335e-01, 2.28054568e-01,
          -3.72752696e-01, -1.06824473e-01, 2.62853146e-01,
          -1.08238846e-01, 8.78448784e-02, -5.09632267e-02,
          6.86634053e-03, -2.87745427e-03, 1., 1. ]
      - [ -3.10165238e+00, 8.38183463e-01, -2.01423883e+00,
          -6.24691844e-01, 3.42497110e-01, -4.76622045e-01,
          -1.38535297e+00, 7.83398151e-01, 2.16061339e-01,
          -3.64392996e-01, -1.00222208e-01, 2.77205318e-01,
          -1.79844230e-01, -3.87469940e-02, 1.23804237e-03,
          7.84990657e-03, 4.05873638e-03, -1., -1. ]
      - [ -4.25477266e+00, -1.77984488e+00, 2.20906019e+00,
          4.44636375e-01, -2.24562645e-01, 4.48764749e-02,
          1.43617439e+00, 1.30811322e+00, 1.73654771e+00, 7.08503664e-01,
          -3.75244021e-01, -3.69542092e-02, 2.25264609e-01,
          2.94044940e-03, -9.71961245e-02, 4.37375216e-04,
          2.89221923e-03, -1., -1. ]
      - [ 4.59906244e+00, -6.07088506e-01, -2.02594805e+00,
          1.51992476e+00, -9.79765970e-03, 1.88698620e-01,
          -2.38399534e-03, 7.22731352e-02, 6.96173847e-01,
          -1.56116923e-02, 3.61469239e-01, -2.96917796e-01,
          -1.40124500e-01, 8.48769769e-02, -4.55945246e-02,
          7.71351578e-03, 4.68774047e-03, -1., -1. ]
      - [ -4.10050821e+00, -1.94400179e+00, -1.01131618e+00,
          -6.22497678e-01, 3.61967444e-01, 4.56479251e-01,
          -1.87701404e-01, -6.28637552e-01, 1.32471383e-01,
          6.49017319e-02, -2.70989358e-01, 8.24453831e-02,
          2.76144166e-02, 1.57116801e-01, -1.68926585e-02,
          8.68611224e-03, -1.25281746e-03, -1., -1. ]
      - [ 3.10081244e+00, -1.67549145e+00, 5.49060524e-01,
          9.71696794e-01, 8.50428462e-01, -1.10106356e-01,
          1.05217420e-01, -8.41570497e-02, -5.09237111e-01,
          -7.48492897e-01, -4.30950165e-01, 4.49757755e-01,
          2.25617066e-01, 3.80238816e-02, 8.72189365e-03,
          -3.05232871e-03, -3.72328050e-03, -1., 1. ]
      - [ -3.42827725e+00, -1.22463858e+00, 5.09903610e-01,
          6.89926088e-01, -5.61433673e-01, 4.16849852e-01,
          5.61382353e-01, 4.34293374e-02, 4.45459098e-01,
          -4.81584132e-01, -3.23067814e-01, -7.80590028e-02,
          -1.03454582e-01, -7.30745792e-02, 2.97028422e-02,
          2.11714227e-02, -6.13166703e-05, -1., -1. ]
      - [ -3.70982528e+00, -1.55472672e+00, 4.44586053e-02,
          -3.30899179e-01, 2.09418043e-01, 2.79482543e-01,
          -6.90553546e-01, -7.63748288e-01, -4.02081698e-01,
          4.77727622e-01, 1.50531307e-01, -9.23979208e-02,
          -3.07195615e-02, 6.05102107e-02, -4.43672994e-03,
          2.08911188e-02, -2.38445180e-04, -1., -1. ]
      - [ 3.37201238e+00, -1.30119526e+00, 1.87612462e+00,
          4.30719584e-01, 1.60744393e+00, -4.47203130e-01,
          -1.36079001e+00, -8.64420712e-01, 3.04416984e-01,
          3.86062801e-01, -2.98091680e-01, 5.59997499e-01,
          2.61745648e-03, -5.03732301e-02, 6.27094284e-02,
          -1.28574464e-02, -1.57572620e-03, -1., -1. ]
      - [ -9.21313405e-01, 2.68360353e+00, -1.25834262e+00,
          1.39914560e+00, -8.47861052e-01, -3.74892980e-01,
          -1.93879947e-01, -8.82953644e-01, 5.37896752e-01,
          -2.42314816e-01, 1.06513359e-01, 8.56193006e-02,
          -1.24003254e-01, -7.73198754e-02, 1.86677836e-02,
          -3.08004040e-02, 2.13823351e-03, -1., -1. ]
      - [ -3.96957254e+00, 1.34363508e+00, -7.69133329e-01,
          5.99141181e-01, -6.35195017e-01, -6.66856766e-02,
          -4.05750036e-01, 6.86355650e-01, -8.24345872e-02,
          -8.89096320e-01, -2.79121459e-01, 2.58657813e-01,
          -4.26812693e-02, 5.72605655e-02, 3.37918438e-02,
          -7.23982677e-02, 9.87340417e-03, -1., -1. ]
      - [ 3.40174341e+00, -9.75342810e-01, 3.12073231e-01,
          1.27693963e+00, 4.11043048e-01, -1.68118000e-01,
          -4.24723804e-01, -2.18718395e-01, -1.26807123e-01,
          2.40598053e-01, -1.98950514e-01, 2.75329024e-01,
          -1.21596418e-01, -9.13352892e-03, -2.29958296e-02,
          -2.03343597e-03, -1.75190053e-03, -1., 1. ]
      - [ 6.28972352e-01, 1.20329285e+00, 3.39804679e-01, 7.15748310e-01,
          6.67918682e-01, -6.25383139e-01, 2.21089181e-02,
          -3.25214416e-01, 1.74100682e-01, -5.87740421e-01,
          1.46410661e-02, -1.85581282e-01, 2.41487041e-01,
          3.14601026e-02, -1.08971947e-03, -6.37108600e-03,
          -5.84543857e-04, -1., 1. ]
      - [ -1.30817577e-01, -2.17717433e+00, -1.67134273e+00,
          2.56048799e-01, -3.15849066e-01, 4.89425749e-01,
          6.91983640e-01, -2.51510799e-01, -6.30203307e-01,
          4.47385728e-01, -1.96532533e-01, 1.16258673e-02,
          -3.30731660e-01, -2.80030280e-01, 9.27581340e-02,
          9.91712324e-03, -1.83676544e-03, -1., -1. ]
